tree
version=v3
num_class=1
num_tree_per_iteration=1
label_index=0
max_feature_idx=29
objective=binary sigmoid:1
feature_names=0 1 2 3 4 5 6 7 8 9 10 11 12 13 14 15 16 17 18 19 20 21 22 23 24 25 26 27 28 29
feature_infos=[-2.0296483039857551:3.9712876465451061] [-2.2292485121703991:3.3789832625976874] [-1.9845040327204433:3.9761298438231059] [-1.4544430863944506:5.2505288252653273] [-3.1120847879199744:3.4401174525731748] [-1.6101363424569097:3.9240746750701594] [-1.1148728439607505:4.2435888223639164] [-1.261819584082589:3.9279296603616651] [-2.7441170720946331:4.4847508562036458] [-1.8198647800550192:4.9109192850190375] [-1.0599241279886675:8.906909342399377] [-1.5495466233365305:6.655279348890291] [-1.0440488769491241:9.4619857734001904] [-0.7284563444898462:11.041842264867746] [-1.7760649794257979:5.4298938477625711] [-1.2980982025618684:4.5226855502318974] [-1.0575006844597676:12.072680399588076] [-1.9134474512424755:6.6496007944479105] [-1.5328900296741077:4.954254034095996] [-1.0969681796959996:9.8515925675428235] [-1.7269005233139223:4.0941893949751211] [-2.2239940063798911:3.8859050489393443] [-1.6933610341815339:4.2873374625058798] [-1.2224228403326993:5.9301723986962402] [-2.6826949182637616:3.955374108442208] [-1.4438784011056174:5.1128772711981956] [-1.3058306525103973:3.9954328451526617] [-1.7450628184932908:2.6752184024554251] [-2.1609596920694281:6.046041349536007] [-1.6018394909014653:6.8468560397282614]
tree_sizes=746 1294 1618 1940 1950 1837 1942 1837 1840 1729 1837 1839 1835 1845 2052 1835 1948 1842 1955 2059 1852 1946 1837 1953 2052 1834 2055 1951 1956 1846 1834 2063 1953 2062 1838 1953 2052 2164 1831 2054 2151 1935 1824 1945 2046 1938 1828 1948 1825 1950 2152 1833 1949 1827 1941 1831 2048 1831 1951 2051 1949 2157 1944 1945 2054 1834 1826 1950 1824 2037 1835 2065 1825 2153 1834 2057 1835 2158 2169 1842 1842 2159 2166 2286 2175 2380 2263 2174 2167 2169 2276 2272 2281 2269 2167 2286 2496 2283 2280 2377

Tree=0
num_leaves=6
num_cat=0
split_feature=27 13 22 22 21
split_gain=283.379 30.9613 8.50043 2.18993 0.192851
threshold=0.40950071152477102 -0.12336532597943352 0.19327397144713707 -0.15373104616533551 1.00926947292084
decision_type=2 2 2 2 2
left_child=1 3 -2 4 -1
right_child=2 -3 -4 -5 -6
leaf_value=0.56145839759486038 0.47278345225082424 0.4907902419183871 0.43337236543125257 0.54175285418507457 0.55505409598667999
leaf_weight=43.798685446381569 6.0896568000316647 6.7923095077276221 25.76393261551857 6.0896568000316611 4.6843513846397391
leaf_count=187 26 29 110 26 20
internal_value=0.513507 0.551192 0.440907 0.55871 0.56084
internal_weight=0 61.365 31.8536 54.5727 48.483
internal_count=398 262 136 233 207
is_linear=0
shrinkage=1


Tree=1
num_leaves=11
num_cat=0
split_feature=7 22 13 10 20 21 27 0 1 0
split_gain=264.847 25.5561 7.68998 2.63054 1.55647 0.187763 0.00890012 3.49603e-05 1.33819e-06 1.42109e-14
threshold=1.0000000180025095e-35 -0.039055568241900332 -0.16131827510787736 -0.27961292165229418 -0.12615256641693526 1.00926947292084 0.58308392171703882 0.6951838939125401 0.45735048532742478 1.7531367745849551
decision_type=2 2 2 2 2 2 2 2 2 2
left_child=2 -2 4 -3 5 8 -5 -8 -1 -9
right_child=1 3 -4 6 -6 -7 7 9 -10 -11
leaf_value=0.047111297805432585 -0.0057819305927406138 -0.052301482448706291 0.0055766381619463713 -0.077677461138563747 0.028284067936153231 0.040747123097599709 -0.076365747949474677 -0.07627351532401358 0.047128410294098796 -0.076273515324013608
leaf_weight=37.006163597106934 6.1098272502422324 4.7415748387575176 4.9313926547765723 5.2145618200302151 4.659245863556861 4.6338382363319388 4.7703076303005245 10.26064518094063 4.626999780535697 6.2041110396385184
leaf_count=160 26 20 21 22 20 20 20 43 20 26
internal_value=0 -0.061888 0.0413474 -0.0728782 0.0448113 0.0464756 -0.0765669 -0.0762942 0.0471132 -0.0762735
internal_weight=0 37.301 55.8576 31.1912 50.9262 46.267 26.4496 21.2351 41.6332 16.4648
internal_count=398 157 241 131 220 200 111 89 180 69
is_linear=0
shrinkage=0.03


Tree=2
num_leaves=14
num_cat=0
split_feature=27 22 22 1 28 13 10 7 0 27 21 0 0
split_gain=248.947 28.9751 6.74789 1.32597 0.17369 0.00336515 0.00285865 0.000461429 5.10023e-05 2.66174e-06 1.83249e-06 2.50733e-08 7.10543e-15
threshold=0.40950071152477102 1.0000000180025095e-35 0.19327397144713707 0.52250836486829877 -1.174113519118646 -0.28188764393331039 0.054599926205005443 -0.38611388403844177 -0.267624231048396 0.79854027471884492 0.046862665433188323 1.0686625618546146 -0.96487908260565181
decision_type=2 2 2 2 2 2 2 2 2 2 2 2 2
left_child=1 3 -2 4 -1 7 -4 8 10 -8 12 -11 -6
right_child=2 -3 6 -5 5 -7 9 -9 -10 11 -12 -13 -14
leaf_value=0.040459758371626367 -0.038220523059874306 -0.021941314111580106 -0.073675432512865 0.033173966590159053 0.046323858733239839 0.047230962867124908 -0.072850162652764283 0.046660608028320186 0.046436497354978401 -0.072872741892281739 0.04634484977941563 -0.072875310871007307 0.04632385873323986
leaf_weight=4.8195081651210776 6.1809345483779898 6.8232431560754767 4.8273141086101559 8.9405733644962293 6.1616692543029812 4.8609462529420915 5.3288725018501308 4.8192561268806449 4.573050156235694 4.8439793586730984 4.5659015774726859 11.625427722930906 14.605438232421873
leaf_count=21 26 29 20 39 27 21 22 21 20 20 20 48 64
internal_value=0 0.0362693 -0.0664594 0.0437147 0.045837 0.0464917 -0.0730149 0.0463882 0.0463443 -0.0728686 0.0463276 -0.0728746 0.0463239
internal_weight=0 60.1696 32.8065 53.3463 44.4058 39.5863 26.6256 34.7253 29.9061 21.7983 25.333 16.4694 20.7671
internal_count=398 262 136 233 194 173 110 152 131 90 111 68 91
is_linear=0
shrinkage=0.03


Tree=3
num_leaves=17
num_cat=0
split_feature=7 22 13 21 20 21 8 7 22 1 28 4 13 7 0 21
split_gain=234.581 22.0285 7.32535 3.75041 1.40938 0.177261 0.171403 0.0409253 0.00290133 0.000133357 2.41288e-05 2.24301e-07 1.45378e-07 3.07138e-08 4.78185e-09 1.17787e-10
threshold=1.0000000180025095e-35 -0.10309512084849394 -0.16131827510787736 -0.43434073831063741 -0.12615256641693526 1.00926947292084 -0.35092367462012714 0.67208424097808683 0.86494462785582871 0.45735048532742478 -1.0746200115178703 0.4974264278703216 -0.33535179835772694 -0.45266235844533137 -0.34998834793295969 -0.20310255444727615
decision_type=2 2 2 2 2 2 2 2 2 2 2 2 2 2 2 2
left_child=2 -2 4 -3 5 9 -5 -8 -9 10 -1 -10 13 14 15 -12
right_child=1 3 -4 6 -6 -7 7 8 11 -11 12 -13 -14 -15 -16 -17
leaf_value=0.045657570550808435 0.0037132485627012694 -0.04126436221558491 0.004922678766683947 -0.064668964806330678 0.027577839257614745 0.039357373659114021 -0.072973417211513555 -0.070694527154406869 -0.069853416183154785 0.045765585739818461 0.045584917991139701 -0.069861702150239305 0.045578361321123431 0.045581988872650331 0.045583778263203784 0.045584740385068247
leaf_weight=4.5065991580486253 4.7014122605323783 4.8537544757127753 4.9014257937669745 4.8794987052679089 4.616415247321128 4.5345222353935233 6.0477216392755535 5.3729701340198543 4.900512367486952 4.516205668449401 13.275028660893446 7.3505532592535019 4.4994101077318254 4.7247289270162609 4.4999054968357077 4.4999931603670111
leaf_count=20 20 20 21 20 20 20 25 22 20 20 59 30 20 21 20 20
internal_value=0 -0.0570871 0.0399124 -0.0656441 0.0433649 0.0449825 -0.0697887 -0.070844 -0.0701133 0.0456119 0.0455926 -0.0698584 0.0455834 0.0455842 0.0455847 0.0455849
internal_weight=0 38.1064 54.5742 33.405 49.6728 45.0564 28.5513 23.6718 17.624 40.5219 36.0057 12.2511 31.4991 26.9997 22.2749 17.775
internal_count=398 157 241 137 220 200 117 97 72 180 160 50 140 120 99 79
is_linear=0
shrinkage=0.03


Tree=4
num_leaves=17
num_cat=0
split_feature=7 22 13 21 1 8 20 20 22 28 4 21 13 7 20 21
split_gain=220.882 20.3787 7.09685 3.45534 1.40204 0.156811 0.0340862 0.00603568 0.00460021 1.52605e-05 3.28862e-06 3.28054e-06 6.87382e-08 1.4917e-08 1.60514e-09 7.04148e-12
threshold=1.0000000180025095e-35 -0.10309512084849394 -0.16131827510787736 -0.43434073831063741 0.52250836486829877 -0.35092367462012714 0.30872074658224619 -0.162392009166867 0.86494462785582871 -1.0454999605127655 0.38000344865001384 0.12909878011698947 -0.37242467910058363 -0.50644281159973625 -0.52271561136618871 -0.47749434304570137
decision_type=2 2 2 2 2 2 2 2 2 2 2 2 2 2 2 2
left_child=2 -2 4 -3 7 -5 -7 9 -8 -1 -10 12 13 14 15 -11
right_child=1 3 -4 5 -6 6 8 -9 10 11 -12 -13 -14 -15 -16 -17
leaf_value=0.044951324600802915 0.0036051396486009909 -0.039763582532500341 0.0047811512779379044 -0.062172438807324516 0.031781304879522666 -0.070218427710710171 -0.068197085294444057 0.046062514171127424 -0.06714119602134061 0.044890434307927135 -0.067172033431440487 0.044916994480816499 0.044885909056663516 0.044888297897120087 0.044889756231098192 0.044890387592300615
leaf_weight=4.6615868508815721 4.6971891671419135 4.8853377103805533 4.8952139168977729 4.9224755465984371 8.7499603033065778 5.1346216201782253 5.4186013638973263 4.5357781499624243 4.943435311317443 8.4237330853939092 8.4030994027852994 4.4361352771520606 4.8763989657163718 4.4333294928073874 4.4334757775068274 4.4335391372442254
leaf_count=21 20 20 21 20 39 21 22 20 20 38 34 20 22 20 20 20
internal_value=0 -0.0549361 0.0392228 -0.0630938 0.0426648 -0.0670483 -0.0680525 0.0450317 -0.0674599 0.0449007 -0.0671606 0.0448931 0.0448891 0.0448899 0.0448902 0.0448904
internal_weight=0 38.4048 53.8792 33.7076 48.9839 28.8222 23.8998 40.234 18.7651 35.6982 13.3465 31.0366 26.6005 21.7241 17.2907 12.8573
internal_count=398 157 241 137 220 117 97 181 76 161 54 140 120 98 78 58
is_linear=0
shrinkage=0.03


Tree=5
num_leaves=16
num_cat=0
split_feature=27 22 22 1 28 13 21 10 7 8 22 0 21 28 14
split_gain=208.821 25.8118 5.2538 1.27845 0.166792 0.00810881 0.00505945 0.00363665 0.00279667 0.000144245 8.20729e-05 1.18261e-05 2.76418e-06 7.99268e-10 4.26894e-11
threshold=0.40950071152477102 1.0000000180025095e-35 0.19327397144713707 0.52250836486829877 -1.174113519118646 -0.28188764393331039 -0.18274708051564223 0.074450581315320133 -0.38611388403844177 -0.058848202769691389 -0.33348858104012291 1.3966989584121017 0.065589701450291568 -0.5973747311564267 -0.45767819302944307
decision_type=2 2 2 2 2 2 2 2 2 2 2 2 2 2 2
left_child=1 3 -2 4 -1 8 -4 -8 10 -9 12 -11 13 -6 -15
right_child=2 -3 6 -5 5 -7 7 9 -10 11 -12 -13 -14 14 -16
leaf_value=0.03852073680216541 -0.034766718645718446 -0.020143323020845538 -0.066053248506451556 0.031245178713361806 0.044236322547832635 0.045702790739333393 -0.065710694801641711 -0.064921679640712271 0.045055676052561271 -0.064697610432758401 0.044382534676127162 -0.064757743648007071 0.044263029265594001 0.04423669763870821 0.044236807075546489
leaf_weight=4.6518837362527838 6.2855972200632086 6.8776953816413871 4.9572491496801403 8.6695548743009549 4.583321779966357 4.7197218388319078 4.9581045359373119 5.2197946012020173 4.658408358693122 4.973636910319323 4.38003085553646 7.2108657360076904 4.3679154813289633 4.58336465060711 10.694547146558758
leaf_count=21 26 29 20 39 21 21 20 21 21 20 20 29 20 21 49
internal_value=0 0.0344317 -0.0594964 0.0417472 0.0438825 0.0445391 -0.0651861 -0.0649939 0.044374 -0.0647897 0.044263 -0.0647332 0.0442414 0.0442367 0.0442368
internal_weight=0 58.1864 33.6052 51.3087 42.6392 37.9873 27.3197 22.3624 33.2676 17.4043 28.6092 12.1845 24.2291 19.8612 15.2779
internal_count=398 262 136 233 194 173 110 90 152 70 131 49 111 91 70
is_linear=0
shrinkage=0.03


Tree=6
num_leaves=17
num_cat=0
split_feature=7 22 13 1 1 8 7 20 22 28 28 21 7 28 2 21
split_gain=197.508 17.8022 6.81164 3.18114 1.34928 0.13994 0.0409598 0.00973261 0.00330843 5.28097e-05 4.04228e-05 2.43751e-06 4.42576e-07 1.05881e-07 3.05477e-09 2.85638e-11
threshold=1.0000000180025095e-35 -0.10309512084849394 -0.16131827510787736 -0.48627523445201876 0.52250836486829877 -0.38560763690236605 0.67208424097808683 -0.162392009166867 0.86494462785582871 -1.0454999605127655 0.24872452860301372 0.12909878011698947 -0.46659110890258731 -0.66855707805779485 -0.50103897112334594 -0.47749434304570137
decision_type=2 2 2 2 2 2 2 2 2 2 2 2 2 2 2 2
left_child=2 -2 4 -3 7 -5 -7 9 -8 -1 -10 12 13 -11 15 -15
right_child=1 3 -4 5 -6 6 8 -9 10 11 -12 -13 -14 14 -16 -17
leaf_value=0.04373074674098102 0.0035057152924075456 -0.036596761855439655 0.004164571881619704 -0.058056231355769511 0.030665418341673894 -0.06574600328242719 -0.06349409802989528 0.045126977478688421 -0.062679045119132124 0.043615142071690177 -0.062569537763199873 0.043641716273458184 0.043609645764093881 0.043620728054764225 0.043619758499582148 0.043620631070609518
leaf_weight=4.523294478654857 4.6851142793893805 4.9366153031587592 4.8636417537927619 4.9705556035041836 8.5799589306116086 5.9440540373325375 5.4804738759994533 4.4413606226444236 4.9907009601593 4.2943624556064632 7.7369289696216583 4.2974377125501624 5.3671389967203238 7.5162946432828948 4.2949107587337449 4.2950140684843072
leaf_count=21 20 20 21 20 39 24 22 20 20 20 31 20 25 35 20 20
internal_value=0 -0.0513234 0.0379823 -0.0588655 0.041437 -0.0626403 -0.0635837 0.0438049 -0.0628778 0.0436352 -0.0626125 0.0436208 0.0436173 0.0436193 0.0436204 0.0436207
internal_weight=0 38.7444 52.4734 34.0593 47.6098 29.1227 24.1522 39.0298 18.2081 34.5885 12.7276 30.0652 25.7677 20.4006 16.1062 11.8113
internal_count=398 157 241 137 220 117 97 181 73 161 51 140 120 95 75 55
is_linear=0
shrinkage=0.03


Tree=7
num_leaves=16
num_cat=0
split_feature=27 13 22 27 21 1 23 8 12 19 26 4 28 24 7
split_gain=186.919 24.378 4.60146 1.81349 0.171202 0.0071509 0.00606706 0.00549998 0.00140684 0.000215483 9.50011e-05 7.83028e-05 6.59666e-05 4.99453e-06 1.18946e-07
threshold=0.40950071152477102 -0.12336532597943352 0.19327397144713707 -0.057194498334265077 1.00926947292084 -0.17677530663286753 -0.27807213191588204 -0.17385291981080037 -0.16041923689477153 0.34140819889268109 0.65323807986128601 0.71092275372542557 -0.96784649116581856 -0.90602624196188619 -0.51869495320565584
decision_type=2 2 2 2 2 2 2 2 2 2 2 2 2 2 2
left_child=1 3 -2 4 6 -4 8 -7 9 12 -9 -12 -1 -14 -15
right_child=2 -3 5 -5 -6 7 -8 10 -10 -11 11 -13 13 14 -16
leaf_value=0.043174507484457274 -0.03273092714980734 -0.019606463717526001 -0.062091161312811415 0.02482744867193375 0.037035960291290089 -0.061736825007842805 0.044372015842445711 -0.060502844042393117 0.043604145384670522 0.043297516712447533 -0.060729742844070581 -0.060574808913783196 0.043073859155247654 0.043038827585361095 0.043033001495363307
leaf_weight=4.2401655763387707 6.3344075530767432 6.8819455951452246 5.2425436824560192 5.780666470527648 4.3335155397653571 4.9881697893142727 4.3552417606115332 5.4996044337749508 5.9981525838375118 4.2524681687355033 5.9990280270576459 5.7494772225618362 4.2276578843593624 12.459222346544271 4.2227205187082246
leaf_count=20 26 29 21 26 20 20 20 22 28 20 24 23 20 59 20
internal_value=0 0.0333226 -0.055781 0.0406267 0.0426982 -0.0610945 0.0433154 -0.0608595 0.0431854 0.0431 -0.0606057 -0.0606539 0.0430666 0.0430447 0.0430374
internal_weight=0 56.7518 33.8132 49.8698 44.0891 27.4788 39.7556 22.2363 35.4004 29.4022 17.2481 11.7485 25.1498 20.9096 16.6819
internal_count=398 262 136 233 207 110 187 89 167 139 69 47 119 99 79
is_linear=0
shrinkage=0.03


Tree=8
num_leaves=16
num_cat=0
split_feature=7 21 13 20 13 21 22 26 1 28 28 27 3 10 15
split_gain=177.353 16.4624 6.33379 1.34454 1.17238 0.161777 0.0532303 0.00145082 0.00137926 9.52597e-05 4.18378e-05 2.21711e-05 8.26268e-07 3.27791e-07 1.92712e-08
threshold=1.0000000180025095e-35 -0.45876730702859814 -0.16131827510787736 -0.12615256641693526 -0.33535179835772694 1.00926947292084 0.7011225165366356 0.41743979849464419 0.45735048532742478 0.15408436283642243 -1.0746200115178703 -0.22978797969648926 -0.37624378556296728 -0.22330924533940141 -0.22233634756921947
decision_type=2 2 2 2 2 2 2 2 2 2 2 2 2 2 2
left_child=2 -2 3 5 -3 8 -6 -8 10 -9 -1 12 13 14 -12
right_child=1 4 -4 -5 6 -7 7 9 -10 -11 11 -13 -14 -15 -16
leaf_value=0.042596907561229698 -0.0065908863921314044 -0.043870586684056551 0.0042923920175608806 0.02452127788374572 -0.061905307999283364 0.036411008102627228 -0.059422472264343558 -0.058928036200063511 0.043083283217209625 -0.058766362851551388 0.042489728014660728 0.042559351835314577 0.042472996966308449 0.042479828075976951 0.04248735211629466
leaf_weight=4.1653745472431138 7.0020429939031592 4.8824385851621654 4.8665022999048224 4.4086094498634329 7.9668302685022381 4.2720521539449683 4.9972750544548061 5.2482094019651404 4.2279219925403586 8.7461311817169172 11.829902529716493 4.1601857990026536 4.5633969753980663 4.3569587469100943 4.1505175679922095
leaf_count=20 29 20 21 20 32 20 20 21 20 35 57 20 22 21 20
internal_value=0 -0.0482386 0.0368437 0.0402773 -0.0573973 0.0419421 -0.0598471 -0.0589837 0.0425729 -0.058827 0.042508 0.0424952 0.0424845 0.0424871 0.0424891
internal_weight=0 38.8429 51.0014 46.1349 31.8409 41.7263 26.9584 18.9916 37.4543 13.9943 33.2263 29.061 24.9008 20.3374 15.9804
internal_count=398 157 241 220 128 200 108 76 180 56 160 140 120 98 77
is_linear=0
shrinkage=0.03


Tree=9
num_leaves=15
num_cat=0
split_feature=27 22 22 1 25 13 1 7 8 26 0 21 28 13
split_gain=168.077 22.8121 4.30857 1.26982 0.179852 0.0324557 0.0157058 0.00719518 0.00558206 0.000163107 0.000133923 7.59248e-06 6.59998e-06 7.84139e-08
threshold=0.40950071152477102 1.0000000180025095e-35 0.19327397144713707 0.52250836486829877 -1.0892305091370347 -0.24756497689541343 -0.17677530663286753 -0.36315723976629771 -0.17385291981080037 1.0415976093959689 -0.24206295339456593 0.046862665433188323 -0.5973747311564267 -0.43292938060969699
decision_type=2 2 2 2 2 2 2 2 2 2 2 2 2 2
left_child=1 3 -2 4 -1 7 -4 10 -8 -10 11 12 -6 -14
right_child=2 -3 6 -5 5 -7 8 -9 9 -11 -12 -13 13 -15
leaf_value=0.03654272733702868 -0.030417102348481884 -0.018827113231030593 -0.059253559790563196 0.028868761215542892 0.042011904969871033 0.044958240209511308 -0.058312350436769425 0.04335062599792093 -0.057075576262130182 -0.05726047938438461 0.042169649732236532 0.042023700016375003 0.041969965299876809 0.041965013131526153
leaf_weight=5.1502995043992987 6.3859858214855185 6.8762661069631568 5.2444446831941631 8.2744607329368574 4.0832989960908952 4.3947780579328564 4.9824992865324047 4.2228186279535285 8.2283048927783984 8.9790390580892545 4.3096086531877544 4.0848732441663733 9.7853903472423589 4.0765202045440612
leaf_count=25 26 29 21 39 20 20 20 20 33 36 21 20 48 20
internal_value=0 0.0323023 -0.0526109 0.039569 0.0417765 0.0425476 -0.0577771 0.042201 -0.0574281 -0.0571721 0.0420167 0.0419868 0.0419784 0.0419685
internal_weight=0 55.2583 33.8203 48.382 40.1076 34.9573 27.4343 30.5625 22.1898 17.2073 26.3397 22.0301 17.9452 13.8619
internal_count=398 262 136 233 194 169 110 149 89 69 129 108 88 68
is_linear=0
shrinkage=0.03


Tree=10
num_leaves=16
num_cat=0
split_feature=7 21 13 1 13 22 22 26 28 28 21 25 1 28 13
split_gain=159.988 15.0288 6.13923 1.33605 1.06336 0.0569513 0.0160391 0.00131056 6.2087e-05 3.70663e-05 1.13266e-05 7.2333e-06 2.04867e-06 7.92311e-07 5.7616e-07
threshold=1.0000000180025095e-35 -0.45876730702859814 -0.16131827510787736 0.52250836486829877 -0.33535179835772694 0.7011225165366356 -0.2058562634032606 0.41743979849464419 0.15408436283642243 -1.0746200115178703 0.12909878011698947 -1.0181418958141844 -1.1425081641136787 0.19371998781559285 -0.42269858562724688
decision_type=2 2 2 2 2 2 2 2 2 2 2 2 2 2 2
left_child=2 -2 3 6 -3 -6 9 -7 -9 -1 11 -11 -13 14 -14
right_child=1 4 -4 -5 5 7 -8 8 -10 10 -12 12 13 -15 -16
leaf_value=0.041589660963709835 -0.005773145466829342 -0.041512553483025481 0.0036802285775754621 0.028315940502099207 -0.058834738457259776 -0.056227468177641779 0.043467419806760513 -0.055741898161418627 -0.055611008117485115 0.041521373198964678 0.041538985500055262 0.041496475402723082 0.041473142398476597 0.041482160626392039 0.04145887096885343
leaf_weight=4.0201684236526445 6.991029128432273 4.9024672955274609 4.8322883099317542 8.1769498288631421 7.9609599560499218 4.9739440828561809 4.2384077757596961 5.2193138599395743 8.6954781860113126 4.0096906423568717 4.0121889114379874 4.0057883262634304 7.0038618892431304 5.204680159687995 3.9999763667583546
leaf_count=20 29 20 21 39 32 20 20 21 35 20 20 20 35 26 20
internal_value=0 -0.0455932 0.0358019 0.0392766 -0.0543606 -0.0567065 0.0417324 -0.0558095 -0.0556601 0.0415044 0.0414923 0.0414846 0.0414773 0.0414725 0.041468
internal_weight=0 38.7432 49.504 44.6717 31.7522 26.8497 36.4948 18.8887 13.9148 32.2564 28.2362 24.224 20.2143 16.2085 11.0038
internal_count=398 157 241 220 128 108 181 76 56 161 141 121 101 81 55
is_linear=0
shrinkage=0.03


Tree=11
num_leaves=16
num_cat=0
split_feature=7 22 13 22 1 21 22 12 8 28 21 25 1 28 13
split_gain=151.831 14.6735 5.9877 2.5704 1.32898 0.0406532 0.014192 0.000921378 5.62214e-05 3.27096e-05 1.00033e-05 6.38365e-06 1.80854e-06 6.99401e-07 5.08399e-07
threshold=1.0000000180025095e-35 -0.10309512084849394 -0.16131827510787736 0.25880281597481442 0.52250836486829877 -0.032930792378816666 -0.2058562634032606 0.32025548607036936 0.02877443878543923 -1.0746200115178703 0.12909878011698947 -1.0181418958141844 -1.1425081641136787 0.19371998781559285 -0.42269858562724688
decision_type=2 2 2 2 2 2 2 2 2 2 2 2 2 2 2
left_child=2 -2 4 -3 6 -5 9 -7 -9 -1 11 -11 -13 14 -14
right_child=1 3 -4 5 -6 7 -8 8 -10 10 -12 12 13 -15 -16
leaf_value=0.041117541852662462 0.0052526209383784595 -0.033749951626343443 0.0035735044528130179 -0.056977488577535575 0.027786916784957361 -0.05470137127468197 0.042899223030313703 -0.054350106415763502 -0.054222623839840306 0.04105278670623113 0.041069507080221154 0.041029178321882555 0.041007046748382896 0.041015600992513557 0.040993513641024937
leaf_weight=3.945468768477439 4.7155054360628119 6.1928173452615729 4.8273825049400321 7.7092273384332684 8.0840642750263196 6.6827187985181835 4.166791886091235 4.9458925724029532 8.4034673869609815 3.9349254965782192 3.9374425560235968 3.9310007244348588 6.8729455620050475 5.1074387282133094 3.9251543432474074
leaf_count=20 20 25 21 31 39 27 20 20 34 20 20 20 35 26 20
internal_value=0 -0.0443345 0.035287 -0.0512252 0.0387739 -0.0551262 0.0412534 -0.0544138 -0.0542699 0.0410367 0.0410252 0.0410179 0.041011 0.0410065 0.0410021
internal_weight=0 38.6496 48.7326 33.9341 43.9052 27.7413 35.8212 20.0321 13.3494 31.6544 27.7089 23.7715 19.8365 15.9055 10.7981
internal_count=398 157 241 137 220 112 181 81 54 161 141 121 101 81 55
is_linear=0
shrinkage=0.03


Tree=12
num_leaves=16
num_cat=0
split_feature=27 22 22 1 25 13 1 7 13 8 0 23 11 28 10
split_gain=144.798 20.8063 3.80745 1.24394 0.187657 0.0410728 0.0197852 0.0114433 0.00824221 9.5364e-05 8.014e-05 4.89538e-05 5.29644e-06 4.56932e-06 3.56416e-08
threshold=0.40950071152477102 1.0000000180025095e-35 0.19327397144713707 0.52250836486829877 -1.0892305091370347 -0.24756497689541343 -0.17677530663286753 -0.36315723976629771 0.11249300135791009 -0.058848202769691389 -0.24206295339456593 1.3675099569690448 0.56996991745232772 -0.56097466740004587 -0.49688736485973944
decision_type=2 2 2 2 2 2 2 2 2 2 2 2 2 2 2
left_child=1 3 -2 4 -1 7 -4 10 -8 -10 12 -11 13 -6 -15
right_child=2 -3 6 -5 5 -7 8 -9 9 11 -12 -13 -14 14 -16
leaf_value=0.034962665558644045 -0.027981338263548036 -0.017846702307394893 -0.055350307362535572 0.027438313497346396 0.040604902463714392 0.044000003741663934 -0.054339342218765845 0.042326375153172405 -0.053078979308675445 -0.05284930112876747 0.04072894050301637 -0.052973328863296455 0.040615145062268834 0.04056877017509334 0.040565335692596016
leaf_weight=4.8976301699876776 6.4145909398794165 6.8500403463840476 5.2024311572313335 8.0087671726942045 3.8591657876968446 4.2692355364561108 5.1640108525753048 4.0520193725824347 4.9149057716131272 4.9084215164184517 4.0730086416006115 6.8768347203731537 3.8608011007308951 9.2470509707927739 3.8523371964693007
leaf_count=25 26 29 21 39 20 20 21 20 20 20 21 28 20 48 20
internal_value=0 0.03094 -0.0487625 0.0381861 0.0404447 0.0412531 -0.0536875 0.0408479 -0.0532919 -0.052968 0.0406072 -0.0529217 0.0405834 0.0405762 0.0405678
internal_weight=0 52.9701 33.4812 46.12 38.1112 33.2136 27.0666 28.9444 21.8642 16.7002 24.8924 11.7853 20.8194 16.9586 13.0994
internal_count=398 262 136 233 194 169 110 149 89 68 129 48 108 88 68
is_linear=0
shrinkage=0.03


Tree=13
num_leaves=16
num_cat=0
split_feature=7 21 13 1 13 22 23 26 25 28 17 24 19 23 20
split_gain=137.67 13.7125 6.79783 1.32722 0.912919 0.0634421 0.0241806 0.00102102 0.000345791 3.93288e-05 7.90931e-06 4.89655e-06 1.72671e-06 9.09289e-07 1.52171e-07
threshold=1.0000000180025095e-35 -0.45876730702859814 -0.14811724932407078 0.52250836486829877 -0.33535179835772694 0.7011225165366356 -0.24511126858227195 0.41743979849464419 -1.0661068304409667 0.25438676074289551 0.21312126444233154 0.47261254090744442 -0.016039319388093953 -0.43347161557940894 -0.73497520461578925
decision_type=2 2 2 2 2 2 2 2 2 2 2 2 2 2 2
left_child=2 -2 3 6 -3 -6 8 -7 -1 -9 11 12 13 14 -10
right_child=1 4 -4 -5 5 7 -8 9 10 -11 -12 -13 -14 -15 -16
leaf_value=0.040447179796037451 -0.004133107471716687 -0.03878006588406771 -0.0014038744585619131 0.026879684804411472 -0.055134360582116688 -0.052292934982471874 0.042651689165724406 -0.051850851704439774 0.040140677514356342 -0.05174658458995611 0.040198885537466741 0.040178808044813552 0.040163327684560213 0.040127889697194385 0.04014828876523073
leaf_weight=4.3970661610364905 6.9651027321815482 4.8997773975133923 4.3445704877376548 7.9087696224451056 7.8796224892139461 4.8861039429903057 4.1050488650798824 5.3640908896923056 3.9649440795183235 8.2837291806936246 3.9760522693395606 5.10703320801258 3.7802828550338772 3.7737696617841712 5.8551992326974869
leaf_count=23 29 20 19 39 32 20 20 22 21 34 21 27 20 20 31
internal_value=0 -0.0422048 0.0343539 0.0379779 -0.0506732 -0.0528795 0.0404886 -0.0519208 0.0402008 -0.0517876 0.0401599 0.040153 0.0401454 0.0401404 0.0401452
internal_weight=0 38.2784 47.2127 42.8682 31.3133 26.4135 34.9594 18.5339 30.8543 13.6478 26.4573 22.4812 17.3742 13.5939 9.82014
internal_count=398 157 241 222 128 108 183 76 163 56 140 119 92 72 52
is_linear=0
shrinkage=0.03


Tree=14
num_leaves=18
num_cat=0
split_feature=27 22 21 13 17 4 22 21 23 1 22 28 20 28 25 7 27
split_gain=131.465 17.301 9.92194 3.76113 0.594211 0.862277 0.211352 0.167303 0.0120256 0.00263401 0.000725559 0.000696494 0.000205157 4.51895e-05 1.58586e-05 1.71145e-06 1.23511e-07
threshold=-0.057194498334265077 -0.16713467345508776 -0.61102625203721983 -0.12776566790736907 -0.2743187806097544 -0.27792106219346552 0.39730696463558668 1.00926947292084 -0.27807213191588204 0.28980165222231996 0.98706656538468196 -1.0746200115178703 -1.035244873115224 0.023853023619147096 -0.95176071639369753 -0.46659110890258731 -0.74832975365242627
decision_type=2 2 2 2 2 2 2 2 2 2 2 2 2 2 2 2 2
left_child=3 -2 -3 7 -4 -6 -7 8 9 11 -8 -1 -13 -12 -14 16 -16
right_child=1 2 4 -5 5 6 10 -9 -10 -11 13 12 14 -15 15 -17 -18
leaf_value=0.040223561143744736 0.015443311849378574 -0.0053478409720542682 -0.061361819032404417 0.011373901206778128 -0.038382373716584206 -0.057904508862097588 -0.051152005548514221 0.033653078963370026 0.041719285916669284 0.040695023760582962 -0.050785600298384914 0.039996347142108687 0.039809104350064163 -0.050668052337621165 0.039741316081854543 0.039722846666539816 0.039747949599696436
leaf_weight=3.9617969691753414 4.7360416054725638 4.7993040829896918 4.8099645823240307 4.8126128166913977 4.7933395504951504 4.9224036335945156 4.844759643077853 3.9604933708906165 3.9498952776193645 3.8502846807241431 5.076958552002905 3.7353887557983425 3.7137225121259752 7.0040474385023117 3.7006946802139336 3.8819587677717093 7.9592748582363129
leaf_count=21 22 20 20 21 20 20 20 20 20 20 21 20 20 29 20 21 43
internal_value=0 -0.0384812 -0.0455262 0.0363858 -0.0516572 -0.0499051 -0.0524331 0.0394951 0.0401609 0.039961 -0.0508418 0.0398562 0.0397929 -0.0507175 0.0397534 0.0397401 0.0397458
internal_weight=0 40.9868 36.2508 43.5261 31.4515 26.6415 21.8482 38.7135 34.753 30.8031 16.9258 26.9528 22.991 12.081 19.2557 15.5419 11.66
internal_count=398 172 150 226 130 110 90 205 185 165 70 145 124 50 104 84 63
is_linear=0
shrinkage=0.03


Tree=15
num_leaves=16
num_cat=0
split_feature=27 13 22 27 21 21 7 13 13 1 19 24 13 18 11
split_gain=125.64 19.2265 3.61415 1.54143 0.171817 0.0360096 0.012453 0.00775787 0.00184433 0.000776272 0.000287574 0.000155082 5.4363e-05 1.00195e-05 1.44757e-06
threshold=0.40950071152477102 -0.12336532597943352 0.19327397144713707 -0.057194498334265077 1.00926947292084 -0.18274708051564223 -0.34742291054606417 0.084550830115519574 -0.31698037080859615 0.0082265299206854998 -0.7666791077777213 0.30384435922073755 0.65978552864489004 0.13290802231269824 -0.46284534606766686
decision_type=2 2 2 2 2 2 2 2 2 2 2 2 2 2 2
left_child=1 3 -2 4 6 -4 8 -7 9 10 -1 -9 -13 14 -12
right_child=2 -3 5 -5 -6 7 -8 11 -10 -11 13 12 -14 -15 -16
leaf_value=0.039668457839697781 -0.025424944513740069 -0.017071633194890155 -0.052842109547146715 0.02206041652678244 0.033162984141032872 -0.051051412146486633 0.041408100430650671 -0.049806299969469996 0.040208876178796947 0.03986685302327219 0.039363626252187568 -0.049543666448089919 -0.049678856961173322 0.039420825681386606 0.039384446769147832
leaf_weight=4.0439835786819485 6.4219766855239859 6.8382890820503226 4.8828542530536678 5.4341044127941123 3.8993804752826682 4.8051856011152294 3.8792989253997829 5.9880464524030712 3.9494057297706595 4.6401165574789038 6.7077101171016746 5.0160533636808378 5.7409087270498276 5.8193217515945426 5.4449985474348068
leaf_count=22 26 29 20 26 20 20 20 25 21 25 37 21 24 32 30
internal_value=0 0.0297135 -0.0456115 0.0370148 0.0391319 -0.0505159 0.0398068 -0.0499888 0.0396039 0.0395142 0.0394399 -0.0496839 -0.0496158 0.0393885 0.039373
internal_weight=0 50.6566 32.855 43.8183 38.3842 26.433 34.4848 21.5502 30.6055 26.6561 22.016 16.745 10.757 17.972 12.1527
internal_count=398 262 136 233 207 110 187 90 167 146 121 70 45 99 67
is_linear=0
shrinkage=0.03


Tree=16
num_leaves=17
num_cat=0
split_feature=27 13 13 26 17 22 21 7 1 13 21 19 24 27 16 1
split_gain=119.847 15.9701 4.36616 2.70165 0.412891 0.413714 0.176019 0.0106058 0.00845248 0.00414469 0.000720251 0.000247798 0.00019259 1.08444e-05 1.15139e-06 1.39927e-07
threshold=-0.057194498334265077 -0.36516411491949002 -0.10081357359876396 -0.012418309551156883 1.2788387672683561 0.33475670395007656 1.00926947292084 -0.34742291054606417 1.0000000180025095e-35 -0.30278926809100409 0.12909878011698947 -0.68970495966117351 0.38494075821305129 -0.97977403390878326 -0.019354296223560715 -0.68756654089079072
decision_type=2 2 2 2 2 2 2 2 2 2 2 2 2 2 2 2
left_child=2 -2 6 -3 5 -5 7 9 -7 10 11 -1 -10 -13 15 -15
right_child=1 3 -4 4 -6 8 -8 -9 12 -11 -12 13 -14 14 -16 -17
leaf_value=0.039248092250026574 0.0019265010395293489 -0.025088230319207604 0.0064218721581303009 -0.058897009330273503 -0.041452998410182795 -0.050176981482714052 0.032686845858830582 0.04095649499890238 -0.048847198993775091 0.040210867111637509 0.039535371673882741 0.039066397278221601 -0.048616160047367643 0.039007043901161463 0.039024002301870947 0.038999619419207703
leaf_weight=5.9305938929319444 7.7543625533580771 4.7672244608402243 4.1670567095279685 4.9173891246318879 4.7367521524429312 4.7868531048297909 3.8384220302104941 3.8055276721715954 5.4500825405120841 3.739157259464263 3.6457887738943091 3.9206669926643434 8.0337008982896787 5.5052757114172035 3.5553498715162162 3.9052331298589706
leaf_count=33 35 20 18 20 20 20 20 20 23 20 20 22 34 31 20 22
internal_value=0 -0.0367799 0.0355675 -0.0459608 -0.0495242 -0.0511729 0.0387766 0.039464 -0.049094 0.0392759 0.0391438 0.0390813 -0.0487095 0.0390227 0.0390095 0.039004
internal_weight=0 40.4464 42.0131 32.692 27.9248 23.188 37.846 34.0076 18.2706 30.2021 26.4629 22.8171 13.4838 16.8865 12.9659 9.41051
internal_count=398 172 226 137 117 97 208 188 77 168 148 128 57 95 73 53
is_linear=0
shrinkage=0.03


Tree=17
num_leaves=16
num_cat=0
split_feature=7 21 13 1 28 7 4 15 22 12 27 25 18 22 12
split_gain=114.587 12.2509 6.06808 1.33022 0.791422 0.151564 0.144645 0.101098 0.0299636 0.000171293 7.01134e-05 3.73289e-05 5.20809e-06 7.46669e-06 8.67293e-07
threshold=1.0000000180025095e-35 -0.45876730702859814 -0.14811724932407078 0.52250836486829877 -0.35228096853012608 0.40511652388068103 0.84969536553124336 0.424026175965173 -0.18202759266592347 -0.14977607876526527 -0.24455777916021729 -1.0661068304409667 -0.28662899252479856 -0.62092192180925243 -0.43120098093383646
decision_type=2 2 2 2 2 2 2 2 2 2 2 2 2 2 2
left_child=2 -2 3 8 -3 -6 7 -7 9 10 11 -1 13 -13 -14
right_child=1 4 -4 -5 5 6 -8 -9 -10 -11 -12 12 14 -15 -16
leaf_value=0.038772246354194025 -0.0026353356542525392 -0.036515049773594196 -0.00091812976214710395 0.02504715187332705 -0.053652913488438939 -0.048096451524132194 -0.051256520106745806 -0.042483737242805901 0.041593768264352113 0.038921820239164601 0.038827311224643841 0.038716023513578987 0.038657506434980421 0.038658071887414089 0.038639162977298032
leaf_weight=3.5011745691299501 6.9090077728033057 5.422870576381686 4.3447222411632529 7.5128938406705847 5.319149017333987 7.5062956809997576 7.3840129822492591 4.6947536319494247 3.7188955545425442 3.6984898149967185 3.5099610090255728 3.4884246736764908 5.9091272503137642 4.6927050948143059 3.8190287798643006
leaf_count=20 29 23 19 39 22 32 31 20 19 21 20 20 34 27 22
internal_value=0 -0.0386874 0.0327481 0.0364186 -0.0469007 -0.0491621 -0.0479424 -0.0459368 0.0390605 0.0387313 0.038703 0.0386827 0.0386651 0.0386828 0.0386503
internal_weight=0 37.2361 44.1954 39.8507 30.3271 24.9042 19.5851 12.201 32.3378 28.6189 24.9204 21.4105 17.9093 8.18113 9.72816
internal_count=398 157 241 222 128 105 83 52 183 164 143 123 103 47 56
is_linear=0
shrinkage=0.03


Tree=18
num_leaves=17
num_cat=0
split_feature=27 22 21 13 21 25 21 22 12 18 1 22 24 25 28 27
split_gain=109.888 15.3394 12.1316 4.51675 0.181845 0.130112 0.0173737 0.0123598 0.00606229 0.000591036 0.000583258 0.000203253 0.000193586 1.71423e-05 2.04508e-06 1.50664e-06
threshold=-0.057194498334265077 0.25880281597481442 -0.34559087196871352 -0.075071573320341214 1.00926947292084 -0.14418134625178661 -0.032930792378816666 -0.22581277514578049 -0.14977607876526527 -0.6377566528505535 0.16879416164641112 -1.0438808273969871 0.58220226927543595 -0.98636671697323253 -0.62973034338432121 -0.34672824761549076
decision_type=2 2 2 2 2 2 2 2 2 2 2 2 2 2 2 2
left_child=3 2 -2 4 7 -3 -7 8 10 -8 11 -1 -11 -13 -15 -16
right_child=1 5 -4 -5 -6 6 9 -9 -10 12 -12 13 -14 14 15 -17
leaf_value=0.038596864735389862 0.030684353294108999 -0.053062975118870301 -0.029582792931213249 0.0043137344150810291 0.031856298304795666 -0.049204918326945749 -0.047384482497608238 0.040478545377249577 0.039607266116177972 -0.04713794901491062 0.038804955002357679 0.038404813753021114 -0.046884470917960386 0.038350063881898759 0.038331145862142924 0.038306876119770863
leaf_weight=3.4451352655887666 4.5413144677877435 4.7862806171178844 8.8920965641736949 3.9357185512781134 3.7282000035047522 4.7222973257303265 6.0363668501377168 3.7092448323965099 4.8599698543548575 5.5527237802743858 3.4997906088829032 3.4189722836017671 5.2997935116291046 3.4064632803201738 7.1444884687662178 3.3964971303939642
leaf_count=20 20 20 39 17 20 20 26 20 27 24 20 20 23 20 42 20
internal_value=0 -0.0353066 -0.00920881 0.0348523 0.0381354 -0.0485875 -0.0475963 0.0388474 0.03864 -0.0471465 0.0384466 0.0383864 -0.0470142 0.0383446 0.0383299 0.0383233
internal_weight=0 39.8309 13.4334 40.5445 36.6088 26.3975 21.6112 32.8806 29.1713 16.8889 24.3113 20.8116 10.8525 17.3664 13.9474 10.541
internal_count=398 172 59 226 209 113 93 189 169 73 142 122 47 102 82 62
is_linear=0
shrinkage=0.03


Tree=19
num_leaves=18
num_cat=0
split_feature=27 22 21 13 17 4 22 21 23 12 20 19 25 28 4 27 1
split_gain=104.861 15.0157 8.51364 4.44415 0.568458 0.808717 0.184612 0.184343 0.0111148 0.00551661 0.000708672 0.000430781 0.000198303 0.000103589 1.41663e-05 1.8503e-06 3.80982e-07
threshold=-0.057194498334265077 -0.16713467345508776 -0.61102625203721983 -0.075071573320341214 -0.2743187806097544 -0.27792106219346552 0.39730696463558668 1.00926947292084 -0.27807213191588204 -0.14977607876526527 0.92582668598108475 0.34140819889268109 -1.0661068304409667 0.023853023619147096 -0.94794369816873481 -0.39179897587593931 -0.29778279720877626
decision_type=2 2 2 2 2 2 2 2 2 2 2 2 2 2 2 2 2
left_child=3 -2 -3 7 -4 -6 -7 8 9 11 -8 12 -1 -12 -14 16 -16
right_child=1 2 4 -5 5 6 10 -9 -10 -11 13 -13 14 -15 15 -17 -18
leaf_value=0.038276987985760659 0.015914766179458546 -0.0038902166744408453 -0.056791551830576464 0.0041884052437945055 -0.034064950940880828 -0.053104582871667354 -0.046712338586399942 0.031414249075892638 0.040032666180685961 0.03923969382711421 -0.046372601725694969 0.038432258866619752 0.038080633545964318 -0.046190446662808964 0.038022197701179636 0.037992195218213669 0.038009964095324936
leaf_weight=3.3857991248369279 4.6802395135164252 4.727281540632247 4.6911795139312771 3.9319396913051596 4.6153029501438168 4.8031575381755856 4.5867176353931418 3.6681542098522177 3.8153804838657406 4.7598445862531653 5.0247152298688871 3.4055739343166342 3.3416333198547425 6.3742203563451767 6.6588505357503944 3.3221793323755149 3.4928173124790192
leaf_count=20 22 20 20 17 20 20 20 20 21 27 22 20 20 28 40 20 21
internal_value=0 -0.034537 -0.0413178 0.0344655 -0.0471968 -0.0454251 -0.0479471 0.0377862 0.0385125 0.038308 -0.0463974 0.0381201 0.0380675 -0.0462707 0.0380253 0.0380116 0.038018
internal_weight=0 39.5028 34.8226 39.7822 30.0953 25.4041 20.7888 35.8502 32.1821 28.3667 15.9857 23.6069 20.2013 11.3989 16.8155 13.4738 10.1517
internal_count=398 172 150 226 130 110 90 209 189 168 70 141 121 50 101 81 61
is_linear=0
shrinkage=0.03


Tree=20
num_leaves=16
num_cat=0
split_feature=7 20 13 1 13 21 22 24 27 28 25 18 20 10 27
split_gain=100.54 11.2145 5.66739 1.30574 0.941342 0.103594 0.0312007 0.00781818 0.000435965 0.000165762 0.000164597 7.11073e-06 9.90927e-06 2.96475e-06 6.21398e-07
threshold=1.0000000180025095e-35 -0.023646714067128389 -0.14811724932407078 0.52250836486829877 -0.12776566790736907 -0.073641740242084489 -0.18202759266592347 0.078089518782675907 -0.22978797969648926 0.19371998781559285 -1.0661068304409667 -0.28662899252479856 -0.64489430406595882 -0.22890352087049007 -0.59827163642042624
decision_type=2 2 2 2 2 2 2 2 2 2 2 2 2 2 2
left_child=2 -2 3 6 -3 -6 8 -7 10 -9 -1 12 -12 14 -13
right_child=1 4 -4 -5 5 7 -8 9 -10 -11 11 13 -14 -15 -16
leaf_value=0.037935657125362399 -0.002610076522963438 -0.032408610116241389 -0.00084009000722914636 0.023986164323247884 -0.050162617801203131 -0.046924531649933619 0.040791002282515004 -0.045598687374356822 0.038113688674270806 -0.045381946526985045 0.037781655443119296 0.037721308889495798 0.037713703903105487 0.037681213310391287 0.037704382402277775
leaf_weight=3.7958064973354402 7.0581333041191092 4.6678113937377956 4.3245060592889777 7.2540754228830329 7.0996572077274349 4.5875827968120602 3.5594510138034847 5.8509947657585126 3.505923017859458 6.9455905556678772 3.270114079117775 4.8838053494691911 4.7182420492172321 3.4080880582332478 3.2516344040632239
leaf_count=23 30 20 19 39 30 20 19 26 21 31 20 30 29 21 20
internal_value=0 -0.0365401 0.0316861 0.0354223 -0.0447552 -0.047109 0.0381519 -0.045862 0.0378018 -0.045481 0.0377549 0.0377198 0.0377415 0.0377047 0.0377145
internal_weight=0 36.2098 41.9716 37.6471 29.1516 24.4838 30.3931 17.3842 26.8336 12.7966 23.3277 19.5319 7.98836 11.5435 8.13544
internal_count=398 157 241 222 127 107 183 77 164 57 143 120 49 71 50
is_linear=0
shrinkage=0.03


Tree=21
num_leaves=17
num_cat=0
split_feature=27 22 21 13 21 25 1 13 6 1 4 29 19 15 13 25
split_gain=96.4266 13.9334 11.2593 4.21099 0.188581 0.10952 0.0145406 0.0107225 0.00725092 0.000372616 0.000320211 0.000281765 0.000132137 4.67735e-06 2.27324e-06 1.99739e-06
threshold=-0.057194498334265077 0.25880281597481442 -0.34559087196871352 -0.075071573320341214 1.00926947292084 -0.14418134625178661 -0.026679476976211387 -0.26362622493237803 -0.26973496423102933 0.054767872449881488 0.76073856309161647 0.43718551270289552 -0.7666791077777213 -0.765303223153882 -0.43292938060969699 -0.36428568817309509
decision_type=2 2 2 2 2 2 2 2 2 2 2 2 2 2 2 2
left_child=3 2 -2 4 7 -3 -7 8 9 12 11 -8 -1 -14 15 -15
right_child=1 5 -4 -5 -6 6 10 -9 -10 -11 -12 -13 13 14 -16 -17
leaf_value=0.037629316076656032 0.030290242043382491 -0.050464792359491098 -0.028087394934623103 0.0043836214609798063 0.030640184657031593 -0.046874728797511152 -0.044918274379713276 0.039486560415770804 0.038924705432832281 0.037811747664953661 -0.044759752952713526 -0.045224132927298585 0.037467630032835486 0.037457669690013344 0.037411566150883854 0.037426567596119599
leaf_weight=4.1920518577098926 4.4832130968570718 4.6659745872020748 8.829677522182461 3.9260714650154105 3.5602227151393881 4.5600390285253551 6.4312002807855624 3.5364404469728496 3.9218779504299155 3.5958357006311408 5.0828373879194251 4.6857915371656418 3.9893307685852131 3.1890495568513932 3.9714622050523607 4.4535399675369263
leaf_count=26 20 20 39 17 20 20 29 20 23 22 23 21 25 20 25 28
internal_value=0 -0.0332927 -0.0084283 0.0338192 0.0371777 -0.0463117 -0.0453782 0.0379322 0.037731 0.0375308 -0.044957 -0.0450472 0.0374798 0.0374396 0.03743 0.0374395
internal_weight=0 38.7387 13.3129 38.3359 34.4098 25.4258 20.7599 30.8496 27.3131 23.3913 16.1998 11.117 19.7954 15.6034 11.6141 7.64259
internal_count=398 172 59 226 209 113 93 189 169 146 73 50 124 98 73 48
is_linear=0
shrinkage=0.03


Tree=22
num_leaves=16
num_cat=0
split_feature=27 23 22 27 28 21 13 21 13 6 24 1 13 23 25
split_gain=92.2055 16.1086 3.17894 2.19458 0.709733 0.227863 0.113419 0.0301697 0.0078817 0.00736069 0.000383281 0.000260892 7.8425e-05 2.5929e-05 7.57321e-06
threshold=0.40950071152477102 -0.026251136047101286 0.19327397144713707 -0.057194498334265077 -1.2008068992066587 0.76337534782670236 -0.22622331854492619 -0.18274708051564223 0.084550830115519574 -0.27902564284649384 0.30384435922073755 0.054767872449881488 0.75087260655315502 -0.36965938416553984 -1.0050692246393784
decision_type=2 2 2 2 2 2 2 2 2 2 2 2 2 2 2
left_child=1 3 -2 4 -1 6 9 -4 -9 11 -10 13 -12 14 -6
right_child=2 -3 7 -5 5 -7 -8 8 10 -11 12 -13 -14 -15 -16
leaf_value=0.023776779942167474 -0.02121932664570313 -0.025793691859146029 -0.047238867577663032 0.014027607705020581 0.037207592487633237 0.030042701609532301 0.043006640598521551 -0.045650102749108287 -0.044414292931448031 0.038708559989887668 -0.044013907249166553 0.037471418448024936 -0.044183801395793657 0.037261073245632333 0.037154995279351635
leaf_weight=3.9223357439041129 6.3586556911468533 4.6227344721555701 4.5843315571546617 4.7012521624565116 3.123701408505446 3.4752560108900061 3.7966958135366466 4.4349068552255622 5.4794654697179785 3.5233614444732693 4.774269223213194 3.3428233414888373 5.0129343718290329 3.136510804295539 11.661555916070936
leaf_count=23 26 20 20 23 20 20 19 20 25 21 22 21 23 20 75
internal_value=0 0.0272741 -0.0401027 0.033304 0.0358225 0.0372962 0.0381781 -0.0450469 -0.0445368 0.0374385 -0.0442134 0.0372281 -0.0441009 0.0371827 0.0371661
internal_weight=0 45.3062 30.6446 40.6835 35.9822 32.0599 28.5846 24.2859 19.7016 24.788 15.2667 21.2646 9.7872 17.9218 14.7853
internal_count=398 262 136 242 219 196 176 110 90 157 70 136 45 115 95
is_linear=0
shrinkage=0.03


Tree=23
num_leaves=17
num_cat=0
split_feature=7 21 13 1 28 22 22 24 27 13 28 13 5 10 27 15
split_gain=88.4167 10.5799 5.45889 1.30599 0.895873 0.412955 0.0337767 0.00699956 0.000735038 0.000453563 0.000182816 5.72363e-05 9.35174e-06 3.75018e-06 2.93203e-06 7.28954e-07
threshold=1.0000000180025095e-35 -0.34559087196871352 -0.14811724932407078 0.52250836486829877 -0.34095650425036339 0.20816689065797281 -0.18202759266592347 0.10658284815835294 -0.22978797969648926 0.11249300135791009 -1.0454999605127655 0.89960416371737539 -0.96872352180009269 -0.22890352087049007 -0.73218956042402239 -0.2969488827113218
decision_type=2 2 2 2 2 2 2 2 2 2 2 2 2 2 2 2
left_child=2 -2 3 6 -3 -6 8 -7 10 -9 -1 -11 -12 14 -14 -16
right_child=1 4 -4 -5 5 7 -8 9 -10 11 12 -13 13 -15 15 -17
leaf_value=0.037146298939638132 -0.0039839631429857327 -0.031852852659687084 -0.0013310834286653702 0.022916172012645699 -0.053819443843758911 -0.044961566194988478 0.04018192350515358 -0.04382952892752167 0.037418499610522217 -0.043375042096486141 0.036938132226576652 -0.04352843703476663 0.036922164120148052 0.03686030920975622 0.036895942147454633 0.036876965591172789
leaf_weight=3.2532947957515779 7.8433194011449805 4.8520597070455578 4.2793356329202643 6.9928423613309851 4.8511323928833034 4.3953143060207394 3.4153307974338558 4.3147113770246497 3.3125315010547629 4.2652382254600507 4.8809651434421619 4.4978633970022202 3.1983321607112947 3.0294300019740925 4.2551496177911821 3.1858330667018819
leaf_count=21 34 22 19 39 20 20 19 20 21 20 32 21 21 20 28 21
internal_value=0 -0.0346779 0.030679 0.034535 -0.0435364 -0.0460758 0.0373828 -0.0439258 0.0370021 -0.0435777 0.0369389 -0.0434538 0.0369025 0.0368898 0.0368981 0.0368878
internal_weight=0 35.0196 39.803 35.5237 27.1763 22.3243 28.5309 17.4731 25.1155 13.0778 21.803 8.7631 18.5497 13.6687 10.6393 7.44098
internal_count=398 157 241 222 123 101 183 81 164 61 143 41 122 90 70 49
is_linear=0
shrinkage=0.03


Tree=24
num_leaves=18
num_cat=0
split_feature=27 22 21 13 17 4 21 22 13 27 1 20 28 28 14 15 13
split_gain=84.9746 13.0022 7.70667 5.02044 0.546147 0.78991 0.205587 0.18239 0.031852 0.00721789 0.000759381 0.000567064 0.000182189 2.80998e-05 9.72159e-06 4.98942e-06 9.91182e-07
threshold=-0.057194498334265077 -0.16713467345508776 -0.61102625203721983 -0.024137615504487696 -0.2743187806097544 -0.27792106219346552 1.00926947292084 0.39730696463558668 -0.23766420755755852 -0.24455777916021729 0.0082265299206854998 0.92582668598108475 -0.014973711054326501 -0.5973747311564267 -0.51268042305609252 -0.72701888864276576 -0.43083921819392762
decision_type=2 2 2 2 2 2 2 2 2 2 2 2 2 2 2 2 2
left_child=3 -2 -3 6 -4 -6 8 -7 9 10 13 -9 -13 14 -1 -15 -17
right_child=1 2 4 -5 5 7 -8 11 -10 -11 -12 12 -14 15 -16 16 -18
leaf_value=0.036769565736472588 0.015802944945506329 -0.0022435504515418117 -0.053576293799625231 -0.001643247964141071 -0.030653974116503495 -0.049963623381352899 0.029514146050287328 -0.0434366341754382 0.040138112221296512 0.038222118227777768 0.037123312780813419 -0.043178727120271043 -0.04292447843021268 0.036684615640018486 0.03669767051562111 0.036647883658654755 0.036626253229473875
leaf_weight=3.0033549815416336 4.583715394139289 4.6304857432842246 4.4995283186435726 3.4309830814599982 4.3696657270193127 4.634470701217654 3.39916968345642 4.2622772455215445 3.188889995217326 3.5405521988868704 4.3199562132358542 4.2403611093759572 6.3129550665616936 3.1290160417556843 3.8787985891103824 5.3457063287496629 2.9636629968881456
leaf_count=20 22 20 20 15 20 20 20 20 18 22 28 20 30 21 26 36 20
internal_value=0 -0.0315381 -0.0381239 0.0328839 -0.0439907 -0.04218 0.0364989 -0.0447694 0.0373073 0.0369625 0.0367655 -0.0431446 -0.0430266 0.0366811 0.036729 0.0366523 0.0366402
internal_weight=0 37.5335 32.9497 36.2001 28.3193 23.8197 32.7691 19.4501 29.3699 26.181 22.6405 14.8156 10.5533 18.3205 6.88215 11.4384 8.30937
internal_count=398 172 150 226 130 110 211 90 191 173 151 70 50 123 46 77 56
is_linear=0
shrinkage=0.03


Tree=25
num_leaves=16
num_cat=0
split_feature=27 23 22 27 11 21 10 21 6 8 8 28 4 14 23
split_gain=81.2685 14.6703 3.22651 2.05833 0.717142 0.24916 0.091945 0.0399003 0.00690999 0.00604328 0.000226971 0.000130721 9.55116e-05 3.61399e-05 2.17495e-06
threshold=0.40950071152477102 -0.026251136047101286 0.19327397144713707 -0.057194498334265077 1.5206861196209307 0.55004998102317881 -0.030757890769348092 -0.18274708051564223 -0.26973496423102933 -0.17385291981080037 0.82102915617974559 -0.97755317483418702 0.40846962543069426 -0.65218607921459426 -0.52532255473573553
decision_type=2 2 2 2 2 2 2 2 2 2 2 2 2 2 2
left_child=1 3 -2 4 5 6 8 -4 11 -9 12 -1 -11 -13 -15
right_child=2 -3 7 -5 -6 -7 -8 9 -10 10 -12 13 -14 14 -16
leaf_value=0.036638380905215366 -0.01919989549697676 -0.024379701382707619 -0.045965084002962758 0.013615418407206066 0.021925284375917835 0.028590087586602708 0.04182106820319683 -0.043806357053513163 0.037888735884268575 -0.042536443690548827 -0.042676534546820646 0.036498441345760295 -0.042343214244484444 0.036409570179385682 0.036380082975612731
leaf_weight=3.257995739579207 6.2944106161594418 4.5820133835077277 4.4609239101409974 4.617764323949813 3.4130216836929312 3.2606584131717673 3.6151216477155712 4.2312950193882068 3.622203826904296 4.1554645448922987 5.2166798263788232 4.9722792506218054 5.1623248159885406 8.7029271721839994 3.0368117839097826
leaf_count=22 26 20 20 23 20 20 19 20 23 20 25 34 25 60 21
internal_value=0 0.0263655 -0.0382518 0.032405 0.0349659 0.0364267 0.0373659 -0.0434148 0.0366832 -0.0428086 -0.0425181 0.0364645 -0.0424294 0.0364307 0.0364019
internal_weight=0 43.0808 29.5211 38.4988 33.881 30.468 27.2073 23.2267 23.5922 18.7658 14.5345 19.97 9.31779 16.712 11.7397
internal_count=398 262 136 242 219 199 179 110 160 90 70 137 45 115 81
is_linear=0
shrinkage=0.03


Tree=26
num_leaves=18
num_cat=0
split_feature=7 21 23 1 18 28 22 25 13 27 24 13 21 13 28 15 17
split_gain=77.8606 9.92282 5.61922 1.12256 1.97661 0.852505 0.369113 0.253179 0.03968 0.0102469 0.00680177 0.000278554 9.50277e-05 5.41835e-05 1.02403e-05 2.58862e-06 5.24222e-07
threshold=1.0000000180025095e-35 -0.34559087196871352 -0.077054813398638872 0.52250836486829877 -0.20005786247896606 -0.34095650425036339 0.20816689065797281 -1.0661068304409667 -0.28881818246980884 -0.20565382284080988 0.10658284815835294 0.11249300135791009 0.046862665433188323 0.89960416371737539 -0.66855707805779485 -0.71332595148185562 -0.56808048496560359
decision_type=2 2 2 2 2 2 2 2 2 2 2 2 2 2 2 2 2
left_child=2 -2 3 7 -5 -3 -7 -1 9 12 -8 -12 14 -13 -9 -16 -17
right_child=1 5 -4 4 -6 6 10 8 -10 -11 11 13 -14 -15 15 16 -18
leaf_value=0.028416118789067961 -0.0031594931769433261 -0.030239169789896936 -0.0090370142302597795 0.0067715082019951982 0.038804479987623347 -0.051738287387855603 -0.043308157540730981 0.036232416614721034 0.039898784542549137 0.038120953529980503 -0.042114151827639869 -0.041733071999337248 0.036378903262011 -0.041886344247952345 0.036198390471756915 0.036174424076898373 0.036158661688694818
leaf_weight=3.5358681976795188 7.7447972744703284 4.6792422384023693 3.086982548236846 3.5496114641427994 3.3888487368822089 4.7636950016021755 4.2019320279359844 3.8446556031704011 3.6389835923910168 2.9936218261718741 4.0930018723011008 4.0416636317968351 2.8815820366144171 4.267622634768486 3.1217824667692247 3.5387518703937593 4.0980080664157761
leaf_count=24 34 22 14 20 20 20 20 27 21 19 20 20 20 21 22 25 29
internal_value=0 -0.0329726 0.029745 0.0332059 0.0224169 -0.0418372 -0.0443769 0.035913 0.0370121 0.0364991 -0.042265 -0.0419116 0.0362215 -0.0418118 0.0361904 0.0361754 0.036166
internal_weight=0 33.792 37.6787 34.5917 6.93846 26.0472 21.3679 27.6533 24.1174 20.4784 16.6042 12.4023 17.4848 8.30929 14.6032 10.7585 7.63676
internal_count=398 157 241 227 40 123 101 187 163 142 81 61 123 41 103 76 54
is_linear=0
shrinkage=0.03


Tree=27
num_leaves=17
num_cat=0
split_feature=27 22 21 13 21 25 7 21 10 21 18 28 24 9 17 27
split_gain=74.8973 12.3596 9.87431 4.86253 0.212438 0.0966326 0.029194 0.0186641 0.00471481 0.000497659 0.000373299 0.000245851 0.000195407 2.15519e-05 4.32639e-06 8.2057e-07
threshold=-0.057194498334265077 0.25880281597481442 -0.34559087196871352 -0.024137615504487696 1.00926947292084 -0.14418134625178661 -0.3013806520901347 -0.032930792378816666 -0.10979959020860146 0.24390365309140447 -0.6377566528505535 -0.92093085343537184 0.58220226927543595 -0.55394435669547082 -0.83588864282949504 -0.45582681788106971
decision_type=2 2 2 2 2 2 2 2 2 2 2 2 2 2 2 2
left_child=3 2 -2 4 6 -3 8 -7 9 11 -9 -1 -12 -13 -15 -16
right_child=1 5 -4 -5 -6 7 -8 10 -10 -11 12 13 -14 14 15 -17
leaf_value=0.036249682751959826 0.029994748123726715 -0.046999606150182734 -0.025242068209715193 -0.0021321438783635858 0.028505231836630191 -0.043819847672144481 0.039260687127443891 -0.041760835811126926 0.037387476717629639 0.036463527258374345 -0.041578342829073474 0.036051544183269481 -0.041304562687726122 0.035995865607882933 0.03595921601847734 0.035939267044358111
leaf_weight=3.9683834016323205 4.4124024659395227 4.4059180617332485 8.5694871395826304 3.3842421621084204 3.2518014907836905 4.2338929921388653 3.300577953457835 5.2550914287567165 2.9007024616003028 2.8987214863300315 4.8200701624154991 3.2109899222850915 4.5715867877006531 2.7762620300054648 5.6685520410537809 2.7589488327502885
leaf_count=28 20 20 39 15 20 20 20 26 19 20 24 23 23 20 41 20
internal_value=0 -0.029923 -0.00646768 0.031998 0.0357561 -0.042999 0.0366141 -0.0420655 0.0362528 0.0360982 -0.0415584 0.0360406 -0.0414451 0.035983 0.0359634 0.0359527
internal_weight=0 36.2684 12.9819 34.1192 30.7349 23.2866 27.4831 18.8806 24.1826 21.2819 14.6467 18.3831 9.39166 14.4148 11.2038 8.4275
internal_count=398 172 59 226 211 113 191 93 171 152 73 132 47 104 81 61
is_linear=0
shrinkage=0.03


Tree=28
num_leaves=17
num_cat=0
split_feature=27 22 21 13 21 25 13 21 27 21 18 24 25 28 15 7
split_gain=71.6867 12.0256 9.31873 5.27653 0.219026 0.0861013 0.0370678 0.0165838 0.00826233 0.000536114 0.000329927 0.000172646 0.000141749 1.0804e-05 2.68922e-06 1.15969e-06
threshold=-0.057194498334265077 0.25880281597481442 -0.34559087196871352 -0.0099465127868955932 1.00926947292084 -0.14418134625178661 -0.21896275436383258 -0.032930792378816666 -0.20565382284080988 0.24390365309140447 -0.6377566528505535 0.58220226927543595 -1.0661068304409667 -0.66855707805779485 -0.72701888864276576 -0.54100674791959358
decision_type=2 2 2 2 2 2 2 2 2 2 2 2 2 2 2 2
left_child=3 2 -2 4 6 -3 8 -7 9 12 -9 -12 -1 -14 -15 -16
right_child=1 5 -4 -5 -6 7 -8 10 -10 -11 11 -13 13 14 15 -17
leaf_value=0.035979789659170043 0.029302278128168227 -0.046263982664513668 -0.024480798544253592 -0.0051084226749792631 0.028130360933574999 -0.043238269005138261 0.039721337823471085 -0.041280162438653706 0.037571953289407045 0.036240610306782002 -0.041106960390192564 -0.040847174251724315 0.035799988314543445 0.035770145529535308 0.035743434195432904 0.035719510946128019
leaf_weight=3.1837323904037591 4.3816446661949167 4.342651620507243 8.5708640068769419 3.1730863302946082 3.1971131414175025 4.1631853729486492 2.7702521383762386 5.1582589447498348 2.8635667860507956 2.8327175974845877 4.7304385602474159 4.4853978008031845 4.3435475081205484 2.7055231779813864 5.6642597317695706 2.6896064579486527
leaf_count=23 20 20 39 14 20 20 16 26 19 20 24 23 32 20 42 20
internal_value=0 -0.0293854 -0.00628677 0.0316955 0.035556 -0.0424617 0.0364336 -0.041571 0.0360585 0.0358562 -0.041088 -0.0409805 0.0357976 0.0357599 0.0357442 0.0357357
internal_weight=0 35.8324 12.9525 33.4234 30.2503 22.8799 27.0532 18.5373 24.283 21.4194 14.3741 9.21584 18.5867 15.4029 11.0594 8.35387
internal_count=398 172 59 226 212 113 192 93 176 157 73 47 137 114 82 62
is_linear=0
shrinkage=0.03


Tree=29
num_leaves=16
num_cat=0
split_feature=7 20 20 13 15 21 21 27 26 1 18 25 27 27 1
split_gain=68.9649 9.33312 5.6095 1.25689 0.943745 0.436349 0.155012 0.0214494 0.00791343 0.000390052 0.000271554 5.95973e-05 8.91532e-06 1.09398e-05 2.42465e-06
threshold=1.0000000180025095e-35 -0.023646714067128389 0.050902996732731541 -0.17561938637366775 -0.40062397835821312 0.71696486726257691 -0.073641740242084489 -0.14855408264598496 0.46733404317853178 0.0082265299206854998 -0.578428186105857 -1.0661068304409667 -0.3704817395365379 -0.50637912120022122 -0.55841431537227215
decision_type=2 2 2 2 2 2 2 2 2 2 2 2 2 2 2
left_child=2 -2 3 5 -3 7 -6 9 -8 11 -10 -1 13 14 -13
right_child=1 4 -4 -5 6 -7 8 -9 10 -11 -12 12 -14 -15 -16
leaf_value=0.035704285295203239 -0.00029481466912609032 -0.028073533902414575 -0.010989729251574461 0.014369680616296478 -0.046872390856417562 0.026113003884110104 -0.042176712344123374 0.038297526590567392 -0.040827229841015722 0.03590332338939916 -0.040515563267114564 0.035557861240689395 0.035501983477510858 0.035612436059715612 0.035526374574329236
leaf_weight=2.6839676946401676 6.8037196844816199 4.968660935759547 2.9135508686304084 3.1297114491462699 5.6454317271709487 4.8310849964618674 4.051610350608823 3.1127463579177883 3.8943630158901232 3.9633395075798026 7.1089268028736079 5.8019634634256416 2.7498457133769927 2.9201304465532294 3.5465415120124817
leaf_count=20 30 24 13 16 26 29 20 20 20 29 37 44 21 22 27
internal_value=0 -0.0315345 0.0288999 0.0324497 -0.0398148 0.0343608 -0.042633 0.0359689 -0.0410432 0.0356343 -0.0406259 0.0355741 0.0355508 0.0355617 0.0355459
internal_weight=0 32.4727 35.6529 32.7393 25.669 29.6096 20.7003 24.7785 15.0549 21.6658 11.0033 17.7024 15.0185 12.2686 9.3485
internal_count=398 157 241 228 127 212 103 183 77 163 57 134 114 93 71
is_linear=0
shrinkage=0.03


Tree=30
num_leaves=16
num_cat=0
split_feature=27 20 13 10 21 17 29 3 27 21 20 12 24 28 23
split_gain=66.2123 15.0555 3.11786 3.03728 0.877867 0.47231 0.242071 0.161422 0.101068 0.00722542 0.00419394 0.0015088 0.000300184 0.000122379 1.93024e-05
threshold=0.40950071152477102 0.28490625563229127 -0.12336532597943352 -0.39402487928810831 0.71696486726257691 1.2788387672683561 0.67685892323663288 0.26495914868250331 -0.073943755458080337 0.065589701450291568 -0.19759603926680089 -0.14977607876526527 0.30384435922073755 -0.97755317483418702 -0.77485826408005287
decision_type=2 2 2 2 2 2 2 2 2 2 2 2 2 2 2
left_child=1 2 4 -2 6 7 8 -5 10 -9 11 13 -11 -1 -15
right_child=3 -3 -4 5 -6 -7 -8 9 -10 12 -12 -13 -14 14 -16
leaf_value=0.035574248572780742 -0.013107875420653281 -0.039590433547714056 0.0050126955897249791 -0.047203518606604267 0.021949931085703825 -0.03110062550721053 0.027210061425118174 -0.041688691566436516 0.041479824902049642 -0.04039507976445688 0.036784095862028972 0.036167149434008693 -0.04006075797110982 0.035432879402792203 0.035345815438176116
leaf_weight=3.1643687635660269 4.4955041557550457 3.0048928260803214 3.9264584481716147 4.3357342779636445 5.1545159816741934 4.2971785366535178 2.877290427684783 3.9646188467741004 3.090269789099696 3.8203706443309766 2.6947717964649192 2.7545992061495808 6.5807648003101349 2.9836032986641028 9.8839718848466749
leaf_count=24 20 13 18 20 31 21 20 20 17 20 19 20 35 23 77
internal_value=0 0.0249585 0.0302682 -0.0356609 0.0333098 -0.0400693 0.035443 -0.0421301 0.0364071 -0.0405989 0.0356773 0.0355185 -0.0401836 0.0354071 0.035366
internal_weight=0 39.5347 36.5298 27.4942 32.6034 22.9987 27.4489 18.7015 24.5716 14.3658 21.4813 18.7865 10.4011 16.0319 12.8676
internal_count=398 262 249 136 231 116 200 95 180 75 163 144 55 124 100
is_linear=0
shrinkage=0.03


Tree=31
num_leaves=18
num_cat=0
split_feature=27 22 21 13 4 22 21 13 27 21 1 18 11 8 25 14 8
split_gain=63.7941 11.0078 6.92217 6.8888 0.492589 0.42081 0.241108 0.089507 0.00755594 0.00076694 0.000650888 0.000294142 0.000132413 5.80458e-05 3.24444e-05 5.34264e-06 3.06032e-06
threshold=-0.057194498334265077 -0.16713467345508776 -0.61102625203721983 0.084550830115519574 -0.42879179913107229 0.33475670395007656 1.00926947292084 -0.16131827510787736 -0.20565382284080988 1.0000000180025095e-35 0.28980165222231996 -0.66802627874070486 0.090075956624855277 -1.2198482033751727 -1.0465773411433246 -0.65218607921459426 -0.54077273132291004
decision_type=2 2 2 2 2 2 2 2 2 2 2 2 2 2 2 2 2
left_child=3 -2 -3 6 -4 -6 7 8 10 -7 13 -11 -13 -1 -15 -16 -17
right_child=1 2 4 -5 5 9 -8 -9 -10 11 -12 12 -14 14 15 16 -18
leaf_value=0.035341073127969767 0.015942036617313138 -0.00012802001556824264 -0.031106924504040671 -0.016611024253183362 -0.049363409388374586 -0.040287744059488102 0.027131987534495167 0.041414273394085946 0.036963008455743462 -0.040016784913730362 0.035710296431794998 -0.039584183623899684 -0.039827357457597024 0.035279210376383867 0.035202117774434251 0.035129673115878501 0.035166551935756851
leaf_weight=2.5572912916541251 4.4449266493320456 4.4528393596410778 4.0806588232517269 2.5195465534925452 5.8215758204460171 3.7777867168188086 3.0515481531620017 2.5243788957595852 2.6925096958875647 3.7479209750890776 2.673689365386962 4.4033218324184347 3.7160526812076569 2.7985355406999739 2.8959262594580784 2.8676387071609621 6.8930474147200158
leaf_count=20 22 20 20 11 26 20 20 13 19 20 20 24 20 22 23 23 55
internal_value=0 -0.0281172 -0.0346452 0.0309678 -0.0406614 -0.0424777 0.035108 0.0360476 0.0354681 -0.0399155 0.0352735 -0.039797 -0.0396955 0.0352087 0.0351868 0.0351663 0.0351557
internal_weight=0 34.4451 30.0002 31.4741 25.5473 21.4667 28.9546 25.903 23.3786 15.6451 20.6861 11.8673 8.11937 18.0124 15.4551 12.6566 9.76069
internal_count=398 172 150 226 130 110 215 195 182 84 163 64 44 143 123 101 78
is_linear=0
shrinkage=0.03


Tree=32
num_leaves=17
num_cat=0
split_feature=27 22 21 13 21 13 25 21 27 21 18 24 25 18 13 13
split_gain=61.1141 10.9336 8.59318 6.68716 0.244501 0.0801145 0.0663663 0.0129893 0.00686808 0.000586816 0.000372191 0.000180951 9.12837e-05 5.0023e-06 2.8579e-06 1.35204e-06
threshold=-0.057194498334265077 0.25880281597481442 -0.34559087196871352 0.084550830115519574 1.00926947292084 -0.16131827510787736 -0.14418134625178661 -0.032930792378816666 -0.20565382284080988 0.36359383980941212 -0.6377566528505535 0.58220226927543595 -1.0661068304409667 -0.83087686602971877 -0.43446950028447445 -0.51961611659002649
decision_type=2 2 2 2 2 2 2 2 2 2 2 2 2 2 2 2
left_child=3 2 -2 4 5 8 -3 -8 9 12 -9 -12 -1 -14 15 -15
right_child=1 6 -4 -5 -6 -7 7 10 -10 -11 11 -13 13 14 -16 -17
leaf_value=0.035178961149174445 0.028914725178875725 -0.044174559597062853 -0.023261101717784758 -0.016071901732923364 0.026776947367082575 0.040959959560805476 -0.041457484226941885 -0.039699585943105541 0.036720767573214304 0.035511164438733304 -0.039503489826400236 -0.039226838395734161 0.035036462749069443 0.034989273851180641 0.034970634032471408 0.035014708869059386
leaf_weight=3.0096969529986533 4.2979835718870154 4.1161493360996273 8.3799528926610929 2.5258430391550055 3.0000323057174674 2.4765309393405941 3.8965500295162228 4.7938725948333767 2.6299098879098883 2.6034371405839911 4.3814176470041222 4.1369450837373734 2.4611605256796034 4.1568710282445087 4.5111950412392323 3.435331255197525
leaf_count=24 20 20 39 11 20 13 20 26 19 20 24 23 20 34 37 28
internal_value=0 -0.0276358 -0.00557283 0.0306978 0.0348744 0.0358352 -0.0407526 -0.039934 0.0352788 0.0350908 -0.0394881 -0.0393691 0.0350286 0.0349975 0.0349895 0.0350008
internal_weight=0 34.0029 12.6779 30.81 28.2842 25.2841 21.3249 17.2088 22.8076 20.1777 13.3122 8.51836 17.5743 14.5646 12.1034 7.5922
internal_count=398 172 59 226 215 195 113 93 182 163 73 47 143 119 99 62
is_linear=0
shrinkage=0.03


Tree=33
num_leaves=18
num_cat=0
split_feature=7 21 13 1 20 28 22 20 24 12 27 10 25 13 11 28 13
split_gain=58.7315 8.73345 6.16199 1.95842 3.20467 0.827628 0.311925 0.0729471 0.00449528 0.00403827 0.000967883 0.000309122 7.48797e-05 3.27251e-05 1.3415e-05 2.77996e-06 6.25731e-07
threshold=1.0000000180025095e-35 -0.34559087196871352 -0.024137615504487696 0.52250836486829877 -0.47612204211627657 -0.34095650425036339 0.20816689065797281 -0.0060446990171613459 0.10658284815835294 -0.12923230842226499 -0.24455777916021729 0.12173123257806998 -1.0661068304409667 0.89960416371737539 0.46292362751349647 -0.66855707805779485 -0.44921064574305841
decision_type=2 2 2 2 2 2 2 2 2 2 2 2 2 2 2 2 2
left_child=2 -2 3 7 -5 -3 -7 9 -8 10 12 -10 -1 -13 15 -14 -17
right_child=1 5 -4 4 -6 6 8 -9 11 -11 -12 13 14 -15 -16 16 -18
leaf_value=0.035007403205695051 -0.0013779433881630154 -0.026759818901164259 -0.015442405934216925 0.036873138329780855 -0.005668351787037812 -0.048313248988115384 -0.040215901259005579 0.040408124001531764 -0.039233347715822139 0.036254045439242599 0.035483570638609623 -0.03882716770269265 0.034848355054241748 -0.038954874790686954 0.034901168781861877 0.034819387421720985 0.034801080045484385
leaf_weight=2.8107321858406182 7.3911283165216473 4.2054424583911958 2.7146382033824912 3.4116807132959366 2.9907073378562918 4.5535159707069388 3.7104827612638465 2.6186482086777714 3.5910626351833326 2.4262980744242659 2.6652810275554648 3.512599304318428 2.8739601150155165 3.7167557030916214 2.4100650027394304 5.7240556776523679 2.3784480169415261
leaf_count=23 34 22 12 23 17 20 20 15 20 18 21 20 24 21 20 48 20
internal_value=0 -0.0297903 0.0278588 0.0317369 0.017001 -0.0388071 -0.0414618 0.0356832 -0.0393148 0.035102 0.0349538 -0.0390058 0.0348666 -0.0388928 0.0348371 0.034823 0.034814
internal_weight=0 30.681 33.0245 30.3099 6.40239 23.2899 19.0844 23.9075 14.5309 21.2888 18.8625 10.8204 16.1973 7.22936 13.3865 10.9765 8.1025
internal_count=398 157 241 229 40 123 101 189 81 174 156 61 135 41 112 92 68
is_linear=0
shrinkage=0.03


Tree=34
num_leaves=16
num_cat=0
split_feature=27 20 20 13 21 15 21 27 7 26 8 18 13 10 26
split_gain=56.5708 13.4574 3.82379 3.05548 0.988516 0.154458 0.114244 0.0998392 0.00710878 0.00123898 0.000626884 0.000291134 0.000154921 3.43383e-05 5.98957e-06
threshold=0.35773028041479638 0.28490625563229127 1.0000000180025095e-35 -0.12336532597943352 0.71696486726257691 -0.37351755173355428 -0.14529300848143575 -0.013798695786198037 -0.34742291054606417 0.54553367667347097 -1.2198482033751727 -0.578428186105857 -0.33535179835772694 -0.4570055941381071 -0.96328747266139958
decision_type=2 2 2 2 2 2 2 2 2 2 2 2 2 2 2
left_child=1 3 -2 4 7 -4 -7 8 10 -8 -1 -11 13 14 -12
right_child=2 -3 5 -5 -6 6 9 -9 -10 11 12 -13 -14 -15 -16
leaf_value=0.03518212168639611 -0.010942844392831941 -0.037114753704527839 -0.03352681363533553 0.004792851327350859 0.020915689660684432 -0.044671477280754268 -0.039394076898551289 0.041285681255875686 0.03649567295097908 -0.038957689093537008 0.034705543611372423 -0.038615209883558869 0.03494577465447489 0.034775889681383718 0.034651025059134664
leaf_weight=3.3330607414245703 5.4832491725683239 2.9351014345884314 3.7103784680366578 3.8574925959110251 4.9178474992513648 4.0643712431192478 3.5983250141143701 2.5397384613752392 2.5390962138772002 3.5367062091827446 2.3438133671879866 6.064457133412354 2.5256881341338078 3.1923112645745269 8.0177003592252714
leaf_count=27 24 13 20 18 31 20 20 14 19 20 20 35 21 27 69
internal_value=0 0.024464 -0.0332487 0.029897 0.0331898 -0.03908 -0.0402735 0.0356544 0.0350029 -0.0389193 0.0348077 -0.0387414 0.0347301 0.0346899 0.0346634
internal_weight=0 36.2019 26.4575 33.2667 29.4093 20.9742 17.2639 24.4914 21.9517 13.1995 19.4126 9.60116 16.0795 13.5538 10.3615
internal_count=398 259 139 246 228 115 95 197 183 75 164 55 137 116 89
is_linear=0
shrinkage=0.03


Tree=35
num_leaves=17
num_cat=0
split_feature=27 23 6 13 21 27 13 21 27 1 18 24 8 25 10 14
split_gain=54.5545 10.2125 8.07085 6.12633 0.256044 0.0960862 0.0736952 0.0216582 0.00659646 0.000541277 0.000205711 0.000102502 3.7216e-05 2.16216e-05 4.25264e-06 1.94193e-06
threshold=-0.057194498334265077 0.084233677847159696 -1.0000000180025095e-35 0.084550830115519574 1.00926947292084 0.61201445674908339 -0.16131827510787736 -0.073641740242084489 -0.20565382284080988 0.28980165222231996 -0.6377566528505535 0.53179099422615994 -1.2198482033751727 -1.0465773411433246 -0.22890352087049007 -0.65218607921459426
decision_type=2 2 2 2 2 2 2 2 2 2 2 2 2 2 2 2
left_child=3 2 -2 4 6 -3 8 -7 9 12 -9 -12 -1 -14 15 -15
right_child=1 5 -4 -5 -6 7 -8 10 -10 -11 11 -13 13 14 -16 -17
leaf_value=0.034638034752657913 0.023474939120069781 -0.044306404446921743 -0.025025590688272901 -0.014605456084320827 0.02584798232104649 -0.041030510878083279 0.040335484185545993 -0.038593425691377629 0.036237844088555272 0.035005989025993979 -0.038451992189238497 -0.038229790711932159 0.034587442954016882 0.034522571454153307 0.034455731961327729 0.034491447136371672
leaf_weight=2.3117201030254515 5.1215579807758331 3.9213978350162533 7.7768110930919629 2.5236550867557517 2.8654403984546652 3.8071976751089087 2.3928826302289989 4.4947108924388868 2.4720266908407202 2.4364064112305632 3.5999221801757812 3.8847114145755768 2.5301187857985648 2.5039354041218882 2.476663529872865 6.455704353749752
leaf_count=20 26 20 36 11 20 20 13 26 19 20 21 23 22 22 22 57
internal_value=0 -0.0265209 -0.00576748 0.0300541 0.0343159 -0.0401035 0.035345 -0.0390594 0.0347813 0.034589 -0.038433 -0.0383367 0.0345265 0.0345081 0.0344905 0.0345001
internal_weight=0 32.6063 12.8984 28.9686 26.4449 19.7079 23.5795 15.7865 21.1866 18.7145 11.9793 7.48463 16.2781 13.9664 11.4363 8.95964
internal_count=398 172 62 226 215 110 195 90 182 163 70 44 143 123 101 79
is_linear=0
shrinkage=0.03


Tree=36
num_leaves=18
num_cat=0
split_feature=27 23 21 6 13 21 27 13 21 27 1 18 24 8 25 10 14
split_gain=52.3252 9.94947 7.91243 6.55253 5.95631 0.259863 0.0872638 0.066133 0.0193758 0.00600656 0.000488293 0.000183508 9.13702e-05 3.36449e-05 1.94956e-05 3.83368e-06 1.75181e-06
threshold=-0.057194498334265077 0.084233677847159696 -0.34559087196871352 0.18142792231858851 0.084550830115519574 1.00926947292084 0.61201445674908339 -0.16131827510787736 -0.073641740242084489 -0.20565382284080988 0.28980165222231996 -0.6377566528505535 0.53179099422615994 -1.2198482033751727 -1.0465773411433246 -0.22890352087049007 -0.65218607921459426
decision_type=2 2 2 2 2 2 2 2 2 2 2 2 2 2 2 2 2
left_child=4 2 -2 -4 5 7 -3 9 -8 10 13 -10 -13 -1 -15 16 -16
right_child=1 6 3 -5 -6 -7 8 -9 11 -11 -12 12 -14 14 15 -17 -18
leaf_value=0.034480324276151261 0.028167339609419476 -0.043761444134242156 0.0062939990030709565 -0.046175980496556038 -0.014141286625505515 0.025507926633950552 -0.04059679071266295 0.039935295170131099 -0.03826832286651502 0.036025739749439914 0.034834109616309353 -0.038133233739210695 -0.0379211343070728 0.034431503212594521 0.034369115664001242 0.03430482755133122 0.034339173058421678
leaf_weight=2.2535043358802911 4.1946572810411462 3.8521715849638012 3.9631539434194529 4.6616170704364777 2.5282247811555854 2.8172644525766364 3.7335502803325644 2.3450788557529476 4.3983651697635633 2.4128775149583808 2.3758896216750136 3.5222878009080887 3.800120010972023 2.466294445097458 2.4406182542443364 2.4138797223567741 6.292270265519619
leaf_count=20 20 20 20 22 11 20 20 13 26 19 20 21 23 22 22 22 57
internal_value=0 -0.0261174 -0.00562882 -0.0220656 0.0298043 0.0341077 -0.0397217 0.0351611 -0.0387147 0.0346191 0.034433 -0.0381152 -0.0380232 0.034373 0.0343552 0.0343383 0.0343475
internal_weight=0 32.1259 12.8194 8.62477 28.3459 25.8177 19.3065 23.0004 15.4543 20.6553 18.2425 11.7208 7.32241 15.8666 13.6131 11.1468 8.73289
internal_count=398 172 62 42 226 215 110 195 90 182 163 70 44 143 123 101 79
is_linear=0
shrinkage=0.03


Tree=37
num_leaves=19
num_cat=0
split_feature=22 21 24 26 15 16 2 10 7 26 13 21 26 21 11 1 28 8
split_gain=50.4798 11.3584 4.0257 3.08019 0.97128 2.44067 0.539038 0.446487 0.0796862 0.0466309 0.0226705 0.0094812 0.000667275 0.000499809 0.000422508 8.16652e-05 3.36696e-05 1.33261e-06
threshold=-0.16713467345508776 -0.78689754680653679 -0.42163964257536451 0.54553367667347097 -0.75188973369013323 -0.64452996374811133 0.094571324328383097 -0.14426754590014801 -0.20271866968457172 0.40208772320729408 -0.29519867826531537 0.58261873931379327 0.81995202243485299 -1.0000000180025095e-35 -0.13762420248231969 0.8750590345269561 -0.68230821325464996 0.043378212377960919
decision_type=2 2 2 2 2 2 2 2 2 2 2 2 2 2 2 2 2 2
left_child=3 -2 -3 4 5 14 -4 -8 10 -9 11 13 -11 16 -1 -14 -6 -18
right_child=1 2 6 -5 8 -7 7 9 -10 12 -12 -13 15 -15 -16 -17 17 -19
leaf_value=0.034306996710465443 0.017471522506951491 -0.0068339154976480871 -0.04802974997920216 -0.0027059677921328191 0.034324830409066164 -0.0028273987659565721 -0.027267587504395962 -0.041832453573315088 0.0407785744451983 -0.038181534792716049 0.038011459837004817 0.036364004993148 -0.037581608282963377 0.034721847657991349 0.034852654947101394 -0.037794420453791867 0.034177271120128722 0.034204918629798804
leaf_weight=2.5169085711240768 4.5732245221734074 4.2204627394676271 4.5213240087032309 2.4829245507717124 2.1958860754966771 2.2652131766080918 3.7723723649978735 3.6030927747487942 2.6686426922678903 3.9984296560287458 2.1754756495356551 2.5350084081292144 3.2193731367588043 2.2897075340151796 2.5927477702498436 3.2725899815559387 3.7548581585288048 2.6953267082571983
leaf_count=23 23 25 21 12 20 18 20 20 17 24 15 18 20 20 22 20 35 25
internal_value=0 -0.0262029 -0.0337095 0.0292016 0.0322855 0.0230929 -0.0387762 -0.0364343 0.0359871 -0.038888 0.0351698 0.0347109 -0.0378767 0.0343277 0.0345839 -0.0376889 0.0342234 0.0341888
internal_weight=0 31.1809 26.6076 28.1727 25.6898 7.37487 22.3872 17.8659 18.3149 14.0935 15.6463 13.4708 10.4904 10.9358 5.10966 6.49196 8.64607 6.45018
internal_count=398 173 150 225 213 63 125 104 150 84 133 118 64 100 45 40 80 60
is_linear=0
shrinkage=0.03


Tree=38
num_leaves=16
num_cat=0
split_feature=27 20 1 20 25 21 7 11 13 13 27 26 13 0 15
split_gain=48.562 15.3185 4.61332 6.26492 0.813886 0.735328 0.582604 0.335557 0.133871 0.019026 0.0054713 0.000293205 0.000108724 6.00564e-05 3.00475e-05
threshold=0.5229388620451566 0.28490625563229127 0.47480348877587297 -0.37775784036646182 0.38985794577982763 -0.28289601225928113 -0.022676673033374461 1.0652858014065805 -0.17561938637366775 -0.25141527608235698 -0.17976860728582264 0.50835286933692025 0.75087260655315502 -0.12987734591386677 -0.72701888864276576
decision_type=2 2 2 2 2 2 2 2 2 2 2 2 2 2 2
left_child=1 2 4 -4 6 -2 7 9 -7 10 13 -10 -13 14 -1
right_child=5 -3 3 -5 -6 8 -8 -9 11 -11 -12 12 -14 -15 -16
leaf_value=0.03415230145431114 -0.024854612921348586 -0.035712561982706004 0.031574549096377198 -0.02153199461897224 0.016360817260726801 -0.043681346286728304 0.047509236396838538 0.022187707503726756 -0.037754724533737224 0.037373947461341005 0.035710121368676823 -0.03732149375931184 -0.037526105504679365 0.034253226967386488 0.034048983672809174
leaf_weight=3.8417634740471884 4.0742693394422558 3.8857234567403784 4.4025141894817352 3.6623270809650403 2.2681623548269263 4.2147323340177598 3.0067963898181942 2.1629746630787841 3.4084211289882616 2.1083837747573879 2.2494909018278113 4.4138282090425474 4.9679499566555023 2.2721291184425345 7.4387005940079698
leaf_count=36 20 19 31 20 14 21 14 18 21 15 18 28 31 21 71
internal_value=0 0.0206647 0.027221 0.00745832 0.0335087 -0.0363018 0.0351939 0.0333492 -0.0390444 0.0346971 0.0343399 -0.0375164 -0.0374298 0.0341125 0.0340842
internal_weight=0 37.299 33.4132 8.06484 25.3484 21.0792 23.0802 20.0734 17.0049 17.9105 15.8021 12.7902 9.38178 13.5526 11.2805
internal_count=398 277 258 51 207 121 193 179 101 161 146 80 59 128 107
is_linear=0
shrinkage=0.03


Tree=39
num_leaves=18
num_cat=0
split_feature=27 23 21 6 13 21 27 13 21 27 21 18 24 25 15 28 16
split_gain=46.691 9.32172 7.12725 5.98331 5.67614 0.274807 0.0695952 0.0554672 0.0197942 0.00485579 0.000426923 0.000136248 8.41277e-05 4.81006e-05 9.96756e-06 4.24178e-06 2.13416e-06
threshold=-0.057194498334265077 0.084233677847159696 -0.34559087196871352 0.18142792231858851 0.084550830115519574 1.00926947292084 0.61201445674908339 -0.16131827510787736 -0.073641740242084489 -0.20565382284080988 0.36359383980941212 -0.6377566528505535 0.53179099422615994 -1.0661068304409667 -0.765303223153882 -0.66855707805779485 -0.15181660286692214
decision_type=2 2 2 2 2 2 2 2 2 2 2 2 2 2 2 2 2
left_child=4 2 -2 -4 5 7 -3 9 -8 10 13 -10 -13 -1 -15 -16 -17
right_child=1 6 3 -5 -6 -7 8 -9 11 -11 -12 12 -14 14 15 16 -18
leaf_value=0.034091881673522395 0.027196072606588385 -0.042504747448588925 0.0062049100519839858 -0.044703696292858502 -0.013871329773730531 0.024535889941021981 -0.039826373405365371 0.039191349791287307 -0.037390814918260136 0.035511951048649376 0.034419403748581483 -0.037281504280635321 -0.037071071460485751 0.033995644862247036 0.03396453513366389 0.033906838739895279 0.033942520080512649
leaf_weight=2.531512781977665 4.1097026839852324 3.6795281022787121 3.8795196413993853 4.4739344418048859 2.5022511184215537 2.6792330816388121 3.5698923617601421 2.2418357729911831 4.1169314533472079 2.2581866011023513 2.2162563651800147 3.2988415807485509 3.5496933311223984 3.0065212622285005 2.6792321577668288 4.1796457618475058 2.3607599511742272
leaf_count=24 20 20 20 22 11 20 20 13 26 19 20 21 23 29 26 41 23
internal_value=0 -0.02514 -0.0051481 -0.0210607 0.0291394 0.0335953 -0.0388191 0.0347256 -0.0378861 0.034205 0.0340312 -0.0372544 -0.0371724 0.0339729 0.0339482 0.0339327 0.0339197
internal_weight=0 30.678 12.4632 8.35345 26.6554 24.1532 18.2149 21.474 14.5354 19.2321 16.9739 10.9655 6.84853 14.7577 12.2262 9.21964 6.54041
internal_count=398 172 62 42 226 215 110 195 90 182 163 70 44 143 119 90 64
is_linear=0
shrinkage=0.03


Tree=40
num_leaves=19
num_cat=0
split_feature=22 21 26 7 15 16 2 7 11 25 1 11 21 11 28 27 27 1
split_gain=45.0517 10.1802 4.35907 4.17855 1.01817 2.48215 0.23388 0.091984 0.0912583 0.0253598 0.0217288 0.00305328 0.00101511 0.000353068 0.000157028 9.8698e-05 2.07934e-06 4.5258e-07
threshold=-0.15373104616533551 -0.78689754680653679 0.61965541517020772 -1.0000000180025095e-35 -0.75188973369013323 -0.63657227824262774 0.1168140324572858 -0.16015859884295636 0.46292362751349647 0.011036744582893413 0.47480348877587297 0.61805003072993825 0.17550926068111453 -0.13762420248231969 -0.61517031788176857 1.3170059156878557 -0.35563580708588333 -0.64800639974097429
decision_type=2 2 2 2 2 2 2 2 2 2 2 2 2 2 2 2 2 2
left_child=2 -2 4 -3 5 13 -5 10 9 -8 11 14 -11 -1 -6 -14 17 -16
right_child=1 3 -4 6 7 -7 8 -9 -10 12 -12 -13 15 -15 16 -17 -18 -19
leaf_value=0.033886520762466871 0.016544710809749216 -0.004298817026462151 -0.0096755475761729545 -0.044828039019426336 0.034071423122707452 -0.004393815980931466 -0.040096619940891871 0.04093338959182391 -0.032239480555768203 -0.037601432661195824 0.036762491454732815 0.03499838853277655 -0.036845829684540379 0.034398987536035194 0.033791883611930279 -0.03707094650691873 0.03374517564520052 0.033772796240917134
leaf_weight=2.4296643137931824 4.354155175387862 3.8138107880950036 2.5118097439408293 4.1330196410417548 2.0651645362377211 2.1828090474009576 3.5615709424018887 2.5631779730319932 3.1268339157104483 3.1693081110715848 3.7435599192976943 2.7198524326086035 3.6284589618444443 2.410241536796093 2.1915986090898554 3.3908300846815109 1.972915053367611 2.2822795733809476
leaf_count=24 22 21 12 21 20 18 20 16 20 20 27 24 24 22 22 22 20 23
internal_value=0 -0.0257664 0.0279672 -0.0331879 0.0318168 0.0221641 -0.0384319 0.0356819 -0.0368655 -0.0379175 0.0347831 0.0341234 -0.0371558 0.0341417 0.0338438 -0.0369546 0.0337708 0.0337821
internal_weight=0 29.178 27.0731 24.8238 24.5613 7.02271 21.01 17.5385 16.877 13.7502 14.9754 11.2318 10.1886 4.83991 8.51196 7.01929 6.44679 4.47388
internal_count=398 170 228 148 216 64 127 152 106 86 136 109 66 46 85 46 65 45
is_linear=0
shrinkage=0.03


Tree=41
num_leaves=17
num_cat=0
split_feature=23 25 1 4 1 20 7 11 7 18 29 7 29 15 22 17
split_gain=43.4947 13.1118 2.28207 3.03549 1.96266 1.0663 0.5299 0.333021 0.226266 0.00407498 0.00304223 0.00033506 0.000103477 5.52599e-05 1.69202e-05 3.44425e-06
threshold=-0.026251136047101286 0.85805677715000994 0.47480348877587297 -0.4159820195797661 -0.20120951146069535 -1.0000000180025095e-35 -0.022676673033374461 1.0652858014065805 0.40511652388068103 0.81034224973428415 -0.22253979421135675 -0.41848533186039766 0.38509464428631429 -0.77256886328007912 -0.71147087061113379 -0.53685512434246674
decision_type=2 2 2 2 2 2 2 2 2 2 2 2 2 2 2 2
left_child=1 2 5 -4 -2 6 7 9 -6 11 -10 13 -12 14 -1 -15
right_child=4 -3 3 -5 8 -7 -8 -9 10 -11 12 -13 -14 15 -16 -17
leaf_value=0.033743173499549417 -0.017485187171563093 -0.027949715043000894 0.029370184519026291 -0.011793535004851363 -0.045378044705945128 0.013629751296159917 0.045378037832055851 0.021079485460450093 -0.037757228526880189 0.035216947235088406 -0.036587935454631515 0.034136080124011953 -0.036803298099701141 0.033651111706199707 0.033862487904971358 0.033694274980093572
leaf_weight=2.0698607042431831 4.9870578348636654 4.3189872503280631 3.9294986128807068 2.7341007590293875 3.8492260426282909 2.4411350041627911 3.422413393855094 2.0408556014299384 3.6422690302133587 2.0634057819843283 3.2464385479688591 2.0601791441440609 5.2631822377443314 4.2558665946126046 2.2137781828641954 2.7318326160311628
leaf_count=21 28 22 28 18 20 14 17 18 23 18 22 20 35 44 22 28
internal_value=0 0.020918 0.027962 0.0124806 -0.0339179 0.0323897 0.0345852 0.0324667 -0.0390395 0.0339763 -0.0370317 0.0337843 -0.0367211 0.03372 0.0338048 0.033668
internal_weight=0 34.2819 29.9629 6.6636 20.9882 23.2993 20.8582 17.4358 16.0011 15.3949 12.1519 13.3315 8.50962 11.2713 4.28364 6.9877
internal_count=398 270 248 46 128 202 188 171 100 153 80 135 57 115 43 72
is_linear=0
shrinkage=0.03


Tree=42
num_leaves=16
num_cat=0
split_feature=27 20 1 20 25 21 7 11 13 13 27 26 0 13 15
split_gain=41.8232 13.161 4.35544 5.70429 0.836199 0.724362 0.471647 0.35836 0.102393 0.0146637 0.00488543 0.000187264 0.000100163 7.18904e-05 4.38641e-05
threshold=0.5229388620451566 0.28490625563229127 0.47480348877587297 -0.37775784036646182 0.38985794577982763 -0.28289601225928113 -0.022676673033374461 1.0652858014065805 -0.17561938637366775 -0.25141527608235698 -0.17976860728582264 0.50835286933692025 -0.12987734591386677 0.75087260655315502 -0.77256886328007912
decision_type=2 2 2 2 2 2 2 2 2 2 2 2 2 2 2
left_child=1 2 4 -4 6 -2 7 9 -7 10 12 -10 14 -13 -1
right_child=5 -3 3 -5 -6 8 -8 -9 11 -11 -12 13 -14 -15 -16
leaf_value=0.033670040950412254 -0.023473341944755765 -0.033562612354124097 0.03070283351110208 -0.021113982407507934 0.01499770666883102 -0.042065164424641997 0.045745234468328733 0.020753839846829197 -0.036684901296602651 0.036616596174415088 0.035191675589616167 -0.036320807340799247 0.033806492532559587 -0.036495037554882585 0.033535908359763632
leaf_weight=3.2004515454173177 3.9163334816694286 3.7109790742397299 4.1147174835205078 3.5718817338347426 2.1875325962901107 3.9664911180734661 2.8887165337801006 2.0111452043056479 3.111209318041797 1.9512819722294814 2.0725723654031762 4.0231434255838376 2.0810842439532271 4.532855749130249 6.979173369705677
leaf_count=33 20 19 31 20 14 21 14 18 21 15 18 28 21 31 74
internal_value=0 0.0198338 0.0262138 0.0066241 0.0326564 -0.035011 0.0344799 0.0327012 -0.0379012 0.0341767 0.0338446 -0.0364856 0.0336168 -0.0364131 0.0335781
internal_weight=0 34.7695 31.0586 7.6866 23.372 19.55 21.1844 18.2957 15.6337 16.2846 14.3333 11.6672 12.2607 8.556 10.1796
internal_count=398 277 258 51 207 121 193 179 101 161 146 80 128 59 107
is_linear=0
shrinkage=0.03


Tree=43
num_leaves=17
num_cat=0
split_feature=27 23 24 13 21 27 13 21 23 1 20 24 18 25 7 9
split_gain=40.3285 8.52348 6.0131 5.34076 0.358215 0.053645 0.0442469 0.020163 0.00393881 0.00117236 0.000199696 9.01404e-05 3.12053e-05 3.01793e-05 7.55655e-06 5.06845e-06
threshold=-0.057194498334265077 0.084233677847159696 0.23151513849786329 0.084550830115519574 1.2185237449380366 0.61201445674908339 -0.16131827510787736 -0.073641740242084489 -0.26638201238689507 0.32936179337213634 -1.0652718399651675 0.30384435922073755 -0.43071241176191871 -0.95176071639369753 -0.4233861885027656 0.30087088998516404
decision_type=2 2 2 2 2 2 2 2 2 2 2 2 2 2 2 2
left_child=3 2 -2 4 6 -3 8 -7 9 10 -1 -9 -13 -12 15 -15
right_child=1 5 -4 -5 -6 7 -8 11 -10 -11 13 12 -14 14 -16 -17
leaf_value=0.033777970416124341 0.021231133396054567 -0.041142042101125612 -0.022105990493432794 -0.013767176848434705 0.021352232942624741 -0.038949016708992472 0.03835178741780234 -0.036386428870631718 0.034996197483490268 0.034270433895280644 0.033546536594197318 -0.036259580427336929 -0.036128176160533071 0.033424525553748939 0.033371657984701673 0.033478918223915362
leaf_weight=1.9539033398032266 4.8196093589067477 3.436420992016795 7.1656907126307487 2.4415820538997641 2.1495847702026358 3.3610351532697704 2.108090020716193 3.4694074392318672 2.0413718447089186 2.0225113779306403 2.3621601983904918 3.4241434335708636 3.0981125682592374 5.5166029632091584 1.8158767521381225 2.1399152129888535
leaf_count=20 25 20 37 11 17 20 13 24 18 19 25 24 22 60 20 23
internal_value=0 -0.0240038 -0.00467898 0.0283386 0.0329883 -0.0377993 0.0342414 -0.036939 0.033756 0.0335959 0.033497 -0.0362629 -0.0361972 0.0334506 0.0334267 0.0334397
internal_weight=0 28.7744 11.9853 24.5516 22.11 16.7891 19.9604 13.3527 17.8523 15.811 13.7885 9.99166 6.52226 11.8346 9.47239 7.65652
internal_count=398 172 62 226 215 110 198 90 185 167 148 70 46 128 103 83
is_linear=0
shrinkage=0.03


Tree=44
num_leaves=18
num_cat=0
split_feature=22 21 24 24 15 7 2 10 28 7 26 1 12 26 11 4 19
split_gain=38.8147 9.43774 3.33873 2.50811 1.01515 2.52961 0.472363 0.484695 0.121069 0.114078 0.0327394 0.0182594 0.00197352 0.000478362 0.000273772 4.00166e-05 4.16162e-06
threshold=-0.16713467345508776 -0.78689754680653679 -0.42163964257536451 1.3120698602062582 -0.75188973369013323 -0.73729895343758944 0.10363316838089898 -0.0273291412502937 0.52617390345720894 -0.20271866968457172 0.41743979849464419 0.47480348877587297 -0.18368567559648283 0.81995202243485299 -0.13762420248231969 0.25653140686381187 -0.29140629643402421
decision_type=2 2 2 2 2 2 2 2 2 2 2 2 2 2 2 2 2
left_child=3 -2 -3 4 5 14 -4 -8 9 11 -9 12 15 -12 -1 16 -6
right_child=1 2 6 -5 8 -7 7 10 -10 -11 13 -13 -14 -15 -16 -17 -18
leaf_value=0.033407564583064854 0.016686800630025183 -0.0061130782941895747 -0.045304171987916815 -0.004158437085750628 0.033295238983620405 -0.0069208269781454992 -0.024563100208094425 -0.039692582038766529 0.028147561323599926 0.041732603690558416 -0.036413451296627986 0.036234705120876468 0.034483453501068975 -0.035947663961778377 0.033892271361124097 0.033483055573896268 0.033354571173902149
leaf_weight=2.0086676701903343 4.3145603537559536 3.8733816444873872 4.352991819381713 2.0423929393291465 2.5859735459089319 2.0599181652069154 3.6497142612934175 3.1644741743802944 2.2887630909681311 2.2778583243489221 3.1433784365653974 3.4073322191834441 1.8500918745994575 5.3818936944007874 2.194566123187542 1.9463000297546384 1.8077142834663393
leaf_count=22 23 25 22 14 29 18 22 20 20 15 22 26 18 39 22 21 20
internal_value=0 -0.0241056 -0.0315741 0.0276688 0.0305672 0.0203136 -0.0365821 -0.0341069 0.0345402 0.0355947 -0.0370867 0.0343892 0.0336214 -0.0361194 0.0336606 0.0333698 0.0333197
internal_weight=0 27.8804 23.5658 24.4696 22.4272 6.26315 19.6925 15.3395 16.164 13.8753 11.6897 11.5974 8.19008 8.52527 4.20323 6.33999 4.39369
internal_count=398 173 150 225 211 62 125 103 149 129 81 114 88 61 44 70 49
is_linear=0
shrinkage=0.03


Tree=45
num_leaves=17
num_cat=0
split_feature=23 27 1 20 1 25 11 7 7 13 18 21 18 15 7 6
split_gain=37.5232 11.6443 3.63704 4.90213 1.89334 1.06189 0.469357 0.350007 0.178329 0.0093535 0.00272356 0.000891939 0.000160481 4.23109e-05 8.11913e-05 1.18231e-05
threshold=-0.026251136047101286 0.86553730321410638 0.47480348877587297 -0.37775784036646182 -0.20120951146069535 0.45124542842551046 1.1433025889891184 -0.022676673033374461 0.40511652388068103 -0.26362622493237803 0.16257225568504655 0.046862665433188323 -0.71282532505812879 -0.59204565091379402 -0.69460991268433281 -0.62786551491498221
decision_type=2 2 2 2 2 2 2 2 2 2 2 2 2 2 2 2
left_child=1 2 5 -4 -2 6 7 9 -6 11 12 13 -10 14 -1 -15
right_child=4 -3 3 -5 8 -7 -8 -9 10 -11 -12 -13 -14 15 -16 -17
leaf_value=0.033251787277499084 -0.016256183543203628 -0.043550324719910258 0.029968050592299015 -0.019225716614890222 -0.043774903861502089 0.012570303140291067 0.022105336881588177 0.045973179082696887 -0.036017960087886304 0.035654366232193035 -0.03691298988896579 0.034008202824820873 -0.035743142189900837 0.033283472497805604 0.033486180182664485 0.033189747153124727
leaf_weight=3.527078099548826 4.760051533579829 2.3937589526176444 3.8870924264192581 3.4333783835172644 3.6452461481094351 2.4342442080378524 2.7677380889654151 2.4277506023645428 3.0517992973327628 1.872155740857125 2.9211408942937842 1.772732891142369 5.1221558004617682 1.8598022088408468 2.1352055817842488 3.4740030616521826
leaf_count=40 28 12 31 20 20 15 22 12 22 16 20 18 38 21 23 40
internal_value=0 0.0200921 0.0252404 0.00689565 -0.032706 0.0312704 0.0335652 0.0354234 -0.0380181 0.0336741 -0.0361267 0.0333837 -0.0358457 0.0332831 0.0333402 0.0332224
internal_weight=0 31.9849 29.5912 7.32047 19.5004 22.2707 19.8365 17.0687 14.7403 14.641 11.0951 12.7688 8.17396 10.9961 5.66228 5.33381
internal_count=398 270 258 51 128 207 192 170 100 158 80 142 60 124 63 61
is_linear=0
shrinkage=0.03


Tree=46
num_leaves=16
num_cat=0
split_feature=27 20 1 27 25 21 7 11 22 23 18 27 9 9 15
split_gain=36.2295 11.289 4.19804 5.15238 0.831393 0.673927 0.400176 0.38352 0.0842627 0.0124177 0.00289335 0.000350527 9.91457e-05 8.13054e-05 6.56037e-05
threshold=0.5229388620451566 0.28490625563229127 0.47480348877587297 -0.32716206997539737 0.38985794577982763 -0.24137084543874782 -0.022676673033374461 1.0652858014065805 0.39730696463558668 -0.22955374108880808 0.81034224973428415 -0.22978797969648926 -0.89346052846995205 0.088230281358140122 -0.77256886328007912
decision_type=2 2 2 2 2 2 2 2 2 2 2 2 2 2 2
left_child=1 2 4 -4 6 -2 7 9 -7 10 11 14 -10 -14 -1
right_child=5 -3 3 -5 -6 8 -8 -9 12 -11 -12 -13 13 -15 -16
leaf_value=0.033256872840710765 -0.02306119674566114 -0.031457694650101092 0.02858556823945101 -0.021880477939385364 0.014057662789763503 -0.040968331552651588 0.044423336748339634 0.019319487327800058 -0.035792812729285944 0.036025509017357023 0.03453693062564852 0.033628853599533513 -0.035508107124684572 -0.035708934036041806 0.033094664442083581
leaf_weight=3.6090213581919715 4.0128467679023769 3.5461520403623572 4.0094127878546715 3.3354587107896796 2.1134419068694106 3.584323748946189 2.7726362273097065 1.8715966492891301 2.8425153195858002 1.8586570397019393 1.7521758899092681 1.6559048369526852 4.7160613536834699 2.9487727880477905 5.9330240264534959
leaf_count=41 22 19 33 18 14 20 14 18 21 15 17 18 36 22 70
internal_value=0 0.0190603 0.0252567 0.00566789 0.031928 -0.0339077 0.0338695 0.0321152 -0.0369964 0.0337324 0.0334033 0.0332259 -0.0356415 -0.0355854 0.033156
internal_weight=0 32.4575 28.9113 7.34487 21.5665 18.1045 19.453 16.6804 14.0917 14.8088 12.9501 11.198 10.5073 7.66483 9.54205
internal_count=398 277 258 51 207 121 193 179 99 161 146 129 79 58 111
is_linear=0
shrinkage=0.03


Tree=47
num_leaves=17
num_cat=0
split_feature=7 20 13 1 20 15 21 22 22 12 25 24 25 9 3 25
split_gain=34.8453 6.78264 6.19945 1.73252 2.9411 0.868744 0.138553 0.0609791 0.008172 0.0029649 0.000778888 6.60118e-05 7.24571e-05 6.17788e-05 1.85714e-05 6.00541e-06
threshold=1.0000000180025095e-35 -0.023646714067128389 0.019205752485677182 0.52250836486829877 -0.37775784036646182 -0.37351755173355428 -0.14529300848143575 -0.039055568241900332 0.66389021850954666 -0.094085135064360698 0.031711285370299581 0.50110587028312215 -0.93840178234645044 -0.51921305728639044 -0.24143332167636142 -0.52491096659832748
decision_type=2 2 2 2 2 2 2 2 2 2 2 2 2 2 2 2
left_child=2 -2 3 7 -5 -3 -7 9 -8 10 11 12 -1 -10 15 -14
right_child=1 5 -4 4 -6 6 8 -9 13 -11 -12 -13 14 -15 -16 -17
leaf_value=0.033201851404450859 0.0025496099997651977 -0.021696588142430164 -0.023701939975532722 0.034915340233685949 -0.0089901083360832846 -0.042463907738766439 -0.037282893615660305 0.038950317884063217 -0.035543346774484758 0.034496529128370521 0.033812741372920056 0.033266881672228236 0.033042693847722557 -0.035363839257507274 0.033113645894139204 0.032976788932749294
leaf_weight=3.0397635772824314 5.8877747878432301 3.8275083974003854 2.1683329492807379 2.9834408089518547 2.5440567508339873 4.0544596910476729 2.956411458551873 1.9632244557142282 2.6302693933248547 1.7685447484254826 1.6073463931679715 2.0201848000288001 1.9217263087630296 5.0162860453128788 1.6976484879851339 3.5303930267691612
leaf_count=35 30 25 10 26 15 23 20 12 20 17 17 23 23 39 20 43
internal_value=0 -0.0254919 0.0247971 0.0293543 0.0147077 -0.0344237 -0.0377471 0.0339676 -0.0359435 0.03334 0.0331919 0.0331102 0.0330792 -0.0354256 0.033027 0.033
internal_weight=0 24.3727 25.2447 23.0763 5.5275 18.4849 14.6574 17.5488 10.603 15.5856 13.8171 12.2097 10.1895 7.64656 7.14977 5.45212
internal_count=398 157 241 231 41 127 102 190 79 178 161 144 121 59 86 66
is_linear=0
shrinkage=0.03


Tree=48
num_leaves=16
num_cat=0
split_feature=27 20 1 27 25 21 11 27 22 2 12 21 9 15 9
split_gain=33.6758 10.4697 4.06143 4.85946 0.823943 0.716923 0.400371 0.257702 0.0792484 0.02541 0.00587655 0.000283557 0.000101693 6.03536e-05 5.78885e-05
threshold=0.5229388620451566 0.28490625563229127 0.47480348877587297 -0.32716206997539737 0.38985794577982763 -0.24137084543874782 1.2621421142601938 0.11715004172726716 0.39730696463558668 0.05276327108609364 -0.094085135064360698 0.046862665433188323 -0.89346052846995205 -0.77256886328007912 0.088230281358140122
decision_type=2 2 2 2 2 2 2 2 2 2 2 2 2 2 2
left_child=1 2 4 -4 6 -2 7 9 -7 10 11 13 -10 -1 -14
right_child=5 -3 3 -5 -6 8 -8 -9 12 -11 -12 -13 14 -15 -16
leaf_value=0.033067433060882945 -0.022032656382489618 -0.03052033839024542 0.028197424921872896 -0.02124697661019908 0.013635498168471675 -0.040516663801879606 0.020397820458866251 0.045722285623469208 -0.03542305301815124 0.037009647369578735 0.034899435214852954 0.033398595162262477 -0.035141293521154561 0.032910156140544385 -0.035314942645946187
leaf_weight=3.3542279601097187 3.9084075167775181 3.4605967700481406 3.8807470425963402 3.318869784474372 2.0737494751811019 3.488379254937171 1.8672515228390683 1.8135983422398556 2.716575987637043 1.8757815212011326 1.7369424924254477 1.5734505578875531 4.4943425059318525 6.3589080795645723 2.8068308979272842
leaf_count=40 22 19 33 18 14 20 17 9 21 14 16 18 36 79 22
internal_value=0 0.0186931 0.0248075 0.00540461 0.0315711 -0.033348 0.0335729 0.0350449 -0.0366224 0.0337452 0.033275 0.033025 -0.0352664 0.0329645 -0.0352081
internal_weight=0 31.3141 27.8535 7.19962 20.6539 17.4145 18.5802 16.7129 13.5061 14.8993 13.0235 11.2866 10.0177 9.71314 7.30117
internal_count=398 277 258 51 207 121 193 176 99 167 153 137 79 119 58
is_linear=0
shrinkage=0.03


Tree=49
num_leaves=17
num_cat=0
split_feature=27 23 24 13 21 27 13 21 3 1 20 9 25 18 9 25
split_gain=32.3936 7.59176 5.18775 4.79856 0.396047 0.0362688 0.0333054 0.0173854 0.00338819 0.000889566 0.000250141 6.9431e-05 2.79113e-05 1.59377e-05 9.14465e-06 4.86669e-06
threshold=-0.057194498334265077 0.084233677847159696 0.23151513849786329 0.084550830115519574 1.2185237449380366 0.61201445674908339 -0.16131827510787736 -0.073641740242084489 -0.15767449970462002 0.32936179337213634 -1.0652718399651675 -0.77579939169633227 -0.95176071639369753 -0.43071241176191871 0.30087088998516404 -0.57739249321251218
decision_type=2 2 2 2 2 2 2 2 2 2 2 2 2 2 2 2
left_child=3 2 -2 4 6 -3 8 -7 9 10 -1 -9 -12 -13 15 -14
right_child=1 5 -4 -5 -6 7 -8 11 -10 -11 12 13 14 -15 -16 -17
leaf_value=0.033239843452621091 0.020607058896873174 -0.039412586521503146 -0.020681443137746912 -0.013136749294165227 0.019361346902964559 -0.037712163099364905 0.037341810521113607 -0.035209969140032438 0.034442105627343365 0.033608283497548935 0.032949895822916506 -0.035079303825550995 0.032839768907475884 -0.034981448809481522 0.032873255591790301 0.032782934856602622
leaf_weight=1.711610965430739 4.610256955027582 3.1010307073593131 6.747021809220314 2.3607877343893042 1.9512413069605816 3.0473864898085585 1.9212878867983842 2.516770623624323 1.6401018723845471 1.8685311526060093 1.9533004090189958 2.5968398898839933 2.1312019377946867 3.5399894788861292 2.3882294669747353 3.7279173433780639
leaf_count=20 25 20 37 11 17 20 13 20 16 20 24 21 27 29 30 48
internal_value=0 -0.0223715 -0.00392121 0.0272354 0.0321754 -0.036528 0.0336172 -0.0357635 0.0331531 0.0329997 0.0329042 -0.0350773 0.0328479 -0.0350229 0.0328238 0.0328036
internal_weight=0 26.1593 11.3573 21.6542 19.2934 14.802 17.3422 11.701 15.4209 13.7808 11.9123 8.6536 10.2006 6.13683 8.24735 5.85912
internal_count=398 172 62 226 215 110 198 90 185 169 149 70 129 50 105 75
is_linear=0
shrinkage=0.03


Tree=50
num_leaves=19
num_cat=0
split_feature=22 21 7 24 15 17 11 22 28 7 1 21 12 24 11 27 9 24
split_gain=31.2676 8.2968 2.93951 2.40722 1.14095 3.31878 0.30445 0.143703 0.139656 0.113999 0.0181128 0.00919773 0.00140922 0.000211696 0.000192066 5.85566e-05 4.5711e-05 4.62825e-06
threshold=-0.16713467345508776 -0.78689754680653679 -1.0000000180025095e-35 1.3712483135249729 -0.75188973369013323 -0.50773848937180133 0.71148874143925689 0.33475670395007656 0.60706293402694522 -0.033381175699598996 0.47480348877587297 -0.073641740242084489 -0.1549739001773498 0.24904949503674242 -0.13762420248231969 1.2020451054289414 0.2214850627644088 -0.21122736410882156
decision_type=2 2 2 2 2 2 2 2 2 2 2 2 2 2 2 2 2 2
left_child=3 -2 -3 4 5 14 7 -4 9 10 12 -9 16 -13 -1 -15 17 -6
right_child=1 2 6 -5 8 -7 -8 11 -10 -11 -12 13 -14 15 -16 -17 -18 -19
leaf_value=0.032825547678261291 0.016650866087663894 -0.0061895988140873376 -0.042540242217427485 -0.0064607388026279916 0.032742991307084642 -0.018030053293282531 -0.026254941932308842 -0.036907837809685901 0.025864489200306977 0.041702299605496096 0.03564760562642471 -0.035187153849634493 0.033803430376722093 -0.034746760195396124 0.033248927643616824 -0.034942870282370704 0.032889306402544401 0.032674838054971789
leaf_weight=1.9600317850708961 4.0603248924016979 3.7791927158832612 3.3744530677795401 1.8279869928956021 2.2242509573698057 1.6291734278202099 2.7648334503173819 2.9846140295267167 1.6960135251283652 1.9506027624010993 3.3546094372868538 2.6211288124322802 1.52172538638115 2.3571632206439972 1.898339107632637 3.2730628848075867 2.1465734243392944 1.5026067197322843
leaf_count=25 23 22 19 13 29 15 20 21 17 12 28 21 17 20 22 27 27 20
internal_value=0 -0.022629 -0.0301682 0.0264847 0.0295134 0.0178737 -0.0353837 -0.0371112 0.0339502 0.03503 0.0338192 -0.0354807 0.0329898 -0.0349644 0.0330339 -0.0348608 0.032779 0.0327155
internal_weight=0 25.2148 21.1544 21.7119 19.8839 5.48754 17.3753 14.6104 14.3964 12.7004 10.7498 11.236 7.39516 8.25135 3.85837 5.63023 5.87343 3.72686
internal_count=398 173 150 225 212 62 128 108 150 133 121 89 93 68 47 47 76 49
is_linear=0
shrinkage=0.03


Tree=51
num_leaves=16
num_cat=0
split_feature=27 20 1 20 25 21 11 7 22 20 18 27 9 15 9
split_gain=30.2336 9.40074 4.00948 4.68358 0.891914 0.727559 0.417536 0.218831 0.068471 0.0128561 0.00238839 0.000306913 6.8996e-05 5.93799e-05 5.21786e-05
threshold=0.5229388620451566 0.28490625563229127 0.47480348877587297 -0.37775784036646182 0.45124542842551046 -0.24137084543874782 1.2621421142601938 -0.022676673033374461 0.39730696463558668 -0.043319554417091115 0.8648275763365566 -0.22978797969648926 -0.89346052846995205 -0.77256886328007912 0.088230281358140122
decision_type=2 2 2 2 2 2 2 2 2 2 2 2 2 2 2
left_child=1 2 4 -4 6 -2 7 9 -7 10 11 13 -10 -1 -14
right_child=5 -3 3 -5 -6 8 -8 -9 12 -11 -12 -13 14 -15 -16
leaf_value=0.03279200208562999 -0.021053117508779307 -0.029340634588239892 0.028915671391091868 -0.02038040683860461 0.011512705209712591 -0.039763537719570863 0.019433104610354492 0.043137221305069112 -0.034880297269370544 0.035721238267309011 0.034042951937252194 0.033149580583897137 -0.034630597783202842 0.032629858576548237 -0.034801644987562455
leaf_weight=3.2569170966744467 3.7731656953692463 3.3332073241472235 3.5093060880899429 3.4299470856785765 1.887229062616824 3.3227750286459914 1.7779104039072979 2.3867892548441931 2.5209948867559433 1.6930259913206089 1.4982301294803626 1.5466049388051022 4.1679437309503538 5.4081265479326257 2.6103770732879639
leaf_count=42 22 19 31 20 13 20 17 13 21 14 16 19 36 73 22
internal_value=0 0.0181324 0.0241276 0.00454951 0.0311108 -0.0326118 0.0332161 0.0347681 -0.0360671 0.0332777 0.0329244 0.0327603 -0.0347463 0.0326908 -0.0346965
