tree
version=v3
num_class=1
num_tree_per_iteration=1
label_index=0
max_feature_idx=9
objective=regression
feature_names=0 1 2 3 4 5 6 7 8 9
feature_infos=[-2.2542898093478119:2.3278950411085355] -1:0:1 [-1.7846309025055587:3.5857182848509574] [-2.3630663088855806:2.7760706907739912] [-2.2893501670474983:3.235850513412311] [-2.4306255188982404:4.1792781500803411] [-2.1508825636987541:3.8090716128062962] [-1.6061024655415046:3.8943311549870439] [-2.6510457154044689:2.8087577071629291] [-2.8963900541276471:2.8510754692389022]
tree_sizes=990 1100 1090 1016 1095 1016 1099 1015 1097 1112 1095 1183 1117 1020 1022 1100 1023 1036 1023 1025 1037 1021 1027 1182 1181 1042 942 1026 1119 1185 1185 1109 1210 1026 1187 1127 1050 1109 1132 1192 1129 1052 1131 1054 1117 1131 1131 1212 1118 1137 1052 1201 1139 1135 1198 1201 1059 1203 1122 1056 1136 1051 1123 1120 1058 1218 1194 1058 1039 1124 1126 1122 1058 1060 1042 1138 1045 1140 1046 1126 1046 1137 1044 1043 1121 1128 1131 1124 1127 1122 1122 1125 1048 1130 1119 1127 968 1057 1132 1129

Tree=0
num_leaves=11
num_cat=0
split_feature=8 2 2 3 6 8 5 3 6 8
split_gain=617089 207612 120893 65761.9 48210.3 34015 24737.6 14760 11583 4739.32
threshold=0.45532178030249587 0.10745414873607927 0.3113914596483523 0.49603103599544746 0.44208451309240837 -0.90988369165371152 0.47931215210627115 -0.38461920091478324 -0.71894552129169387 -0.6727614429756178
decision_type=2 2 2 2 2 2 2 2 2 2
left_child=1 4 8 -3 5 -1 -4 -7 -2 -6
right_child=2 3 6 -5 9 7 -8 -9 -10 -11
leaf_value=150.14364882434651 153.38064886622621 151.98379591700444 155.5343306926504 154.11900601633491 149.82074342852616 152.0017044264599 154.25267057417986 151.0892257780969 152.37186317009119 150.32814884114012
leaf_weight=24 20 34 33 21 37 27 23 39 21 30
leaf_count=24 20 34 33 21 37 27 23 39 21 30
internal_value=152.12 151.213 154.102 152.799 150.657 151.111 155.008 151.463 152.864 150.048
internal_weight=0 212 97 55 157 90 56 66 41 67
internal_count=309 212 97 55 157 90 56 66 41 67
is_linear=0
shrinkage=1


Tree=1
num_leaves=12
num_cat=0
split_feature=8 2 2 3 6 8 5 3 6 9 0
split_gain=580619 195342 113748 61875.4 45361.1 32004.7 23275.6 13887.7 10898.4 4729.83 6275.26
threshold=0.45532178030249587 0.10745414873607927 0.3113914596483523 0.49603103599544746 0.44208451309240837 -0.90988369165371152 0.47931215210627115 -0.38461920091478324 -0.71894552129169387 -1.0241096184855099 1.0000000180025095e-35
decision_type=2 2 2 2 2 2 2 2 2 2 2
left_child=1 4 8 -3 5 -1 -4 -7 -2 -6 -11
right_child=2 3 6 -5 9 7 -8 -9 -10 10 -12
leaf_value=-1.9168094164133072 1.2230805705785752 -0.13186680089024935 3.3121518516540527 1.9392870140075682 -1.6610135414289391 -0.11449557463328043 2.0689416298658951 -0.99959984999436602 0.24455837794712609 -2.5501575643366032 -1.8336171731081876
leaf_weight=24 20 34 33 21 23 27 23 39 21 22 22
leaf_count=24 20 34 33 21 23 27 23 39 21 22 22
internal_value=0 -0.879642 1.92252 0.658937 -1.41863 -0.978658 2.80155 -0.637512 0.721886 -2.00965 -2.19189
internal_weight=0 212 97 55 157 90 56 66 41 67 44
internal_count=309 212 97 55 157 90 56 66 41 67 44
is_linear=0
shrinkage=0.03


Tree=2
num_leaves=12
num_cat=0
split_feature=8 2 2 3 6 8 5 3 6 9 0
split_gain=546305 183797 107025 58218.5 42680.3 30113.2 21900 13067 10254.3 4450.3 5904.39
threshold=0.45532178030249587 0.10745414873607927 0.3113914596483523 0.49603103599544746 0.44208451309240837 -0.90988369165371152 0.47931215210627115 -0.38461920091478324 -0.71894552129169387 -1.0241096184855099 1.0000000180025095e-35
decision_type=2 2 2 2 2 2 2 2 2 2 2
left_child=1 4 8 -3 5 -1 -4 -7 -2 -6 -11
right_child=2 3 6 -5 9 7 -8 -9 -10 10 -12
leaf_value=-1.8593051433563232 1.186388122200966 -0.12791080366162691 3.2127873771840876 1.8811083384922571 -1.6111831768699314 -0.11106068266762628 2.0068734243641728 -0.96961181493905868 0.23722163336617605 -2.47365288474343 -1.7786087192595004
leaf_weight=24 20 34 33 21 23 27 23 39 21 22 22
leaf_count=24 20 34 33 21 23 27 23 39 21 22 22
internal_value=0 -0.853252 1.86484 0.639169 -1.37608 -0.949298 2.7175 -0.618386 0.70023 -1.94936 -2.12613
internal_weight=0 212 97 55 157 90 56 66 41 67 44
internal_count=309 212 97 55 157 90 56 66 41 67 44
is_linear=0
shrinkage=0.03


Tree=3
num_leaves=11
num_cat=0
split_feature=8 2 2 3 6 8 5 3 6 8
split_gain=514018 172935 100700 54777.8 40157.9 28333.5 20605.7 12294.7 9648.31 4388.28
threshold=0.45532178030249587 0.10745414873607927 0.3113914596483523 0.49603103599544746 0.44208451309240837 -0.90988369165371152 0.47931215210627115 -0.38461920091478324 -0.71894552129169387 -0.6727614429756178
decision_type=2 2 2 2 2 2 2 2 2 2
left_child=1 4 8 -3 5 -1 -4 -7 -2 -6
right_child=2 3 6 -5 9 7 -8 -9 -10 -11
leaf_value=-1.8035259675979614 1.1507964953184127 -0.12407351816401763 3.1164037175612012 1.824675099509103 -2.1094973566725446 -0.10772889322704739 1.9466671794393788 -0.94052345275878901 0.23010501044137135 -1.6212452594041824
leaf_weight=24 20 34 33 21 37 27 23 39 21 30
leaf_count=24 20 34 33 21 37 27 23 39 21 30
internal_value=0 -0.827655 1.80889 0.619994 -1.33479 -0.920819 2.63598 -0.599835 0.679223 -1.89088
internal_weight=0 212 97 55 157 90 56 66 41 67
internal_count=309 212 97 55 157 90 56 66 41 67
is_linear=0
shrinkage=0.03


Tree=4
num_leaves=12
num_cat=0
split_feature=8 2 2 3 6 8 5 4 3 9 0
split_gain=483640 162715 94810.7 51540.4 37784.5 26659 15215.2 11838.1 11568.1 4208.43 5500.71
threshold=0.45532178030249587 0.10745414873607927 0.3793705632857764 0.49603103599544746 0.44208451309240837 -0.90988369165371152 0.47931215210627115 0.9939497137492993 -0.38461920091478324 -1.0241096184855099 1.0000000180025095e-35
decision_type=2 2 2 2 2 2 2 2 2 2 2
left_child=1 4 7 -3 5 -1 -4 -2 -7 -6 -11
right_child=2 3 6 -5 9 8 -8 -9 -10 10 -12
leaf_value=-1.7494202876091003 1.1744544506072998 -0.12035129228058984 3.0209797675721348 1.7699348122732979 -1.5052944145513616 -0.10449701176749335 1.9817454028129577 0.18620023441314698 -0.91230776126568136 -2.3414848136901854 -1.670620929219506
leaf_weight=24 24 34 32 21 23 27 21 20 39 22 22
leaf_count=24 24 34 32 21 23 27 21 20 39 22 22
internal_value=0 -0.802825 1.75463 0.601394 -1.29475 -0.893195 2.60921 0.725248 -0.58184 -1.83415 -2.00605
internal_weight=0 212 97 55 157 90 53 44 66 67 44
internal_count=309 212 97 55 157 90 53 44 66 67 44
is_linear=0
shrinkage=0.03


Tree=5
num_leaves=11
num_cat=0
split_feature=8 2 2 3 6 8 5 3 6 8
split_gain=455057 153098 89439.3 48494.4 35551.5 25083.5 18280.1 10884.4 8945.12 4096.57
threshold=0.45532178030249587 0.10745414873607927 0.3113914596483523 0.49603103599544746 0.44208451309240837 -0.90988369165371152 0.47931215210627115 -0.38461920091478324 -0.71894552129169387 -0.6727614429756178
decision_type=2 2 2 2 2 2 2 2 2 2
left_child=1 4 8 -3 5 -1 -4 -7 -2 -6
right_child=2 3 6 -5 9 7 -8 -9 -10 -11
leaf_value=-1.6969376790523527 1.0914156013727188 -0.1167407415894901 2.9339608227122911 1.7168367876325334 -1.9903552027127229 -0.10136210732989841 1.8322098252047663 -0.88493852917964644 0.20490970339093889 -1.5186103110313414
leaf_weight=24 20 34 33 21 37 27 23 39 21 30
leaf_count=24 20 34 33 21 37 27 23 39 21 30
internal_value=0 -0.77874 1.70199 0.583352 -1.25591 -0.866399 2.48146 -0.564385 0.637352 -1.77913
internal_weight=0 212 97 55 157 90 56 66 41 67
internal_count=309 212 97 55 157 90 56 66 41 67
is_linear=0
shrinkage=0.03


Tree=6
num_leaves=12
num_cat=0
split_feature=8 2 2 3 6 8 5 3 6 9 0
split_gain=428163 144050 84153.5 45628.4 33450.4 23601 17199.7 10241.1 8416.46 3979.57 5124.58
threshold=0.45532178030249587 0.10745414873607927 0.3113914596483523 0.49603103599544746 0.44208451309240837 -0.90988369165371152 0.47931215210627115 -0.38461920091478324 -0.71894552129169387 -1.0241096184855099 1.0000000180025095e-35
decision_type=2 2 2 2 2 2 2 2 2 2 2
left_child=1 4 8 -3 5 -1 -4 -7 -2 -6 -11
right_child=2 3 6 -5 9 7 -8 -9 -10 10 -12
leaf_value=-1.6460295492410659 1.058673135459423 -0.11323854351744932 2.8459420247511429 1.6653317001887729 -1.4059628046077228 -0.098321244981553826 1.7772434526357961 -0.85839044499855777 0.19876240594046457 -2.2166759360920301 -1.5691543663631786
leaf_weight=24 20 34 33 21 23 27 23 39 21 22 22
leaf_count=24 20 34 33 21 23 27 23 39 21 22 22
internal_value=0 -0.755378 1.65093 0.565852 -1.21823 -0.840407 2.40701 -0.547453 0.618231 -1.72575 -1.89292
internal_weight=0 212 97 55 157 90 56 66 41 67 44
internal_count=309 212 97 55 157 90 56 66 41 67 44
is_linear=0
shrinkage=0.03


Tree=7
num_leaves=11
num_cat=0
split_feature=8 2 2 3 6 8 3 4 3 8
split_gain=402858 135537 79376.3 42931.7 31473.4 22206.2 12653.1 10770.7 9635.89 3859.49
threshold=0.45532178030249587 0.10745414873607927 0.3793705632857764 0.49603103599544746 0.44208451309240837 -0.90988369165371152 1.1354072366899819 0.9939497137492993 -0.38461920091478324 -0.82275266269071601
decision_type=2 2 2 2 2 2 2 2 2 2
left_child=1 4 7 -3 5 -1 -4 -2 -7 -6
right_child=2 3 6 -5 9 8 -8 -9 -10 -11
leaf_value=-1.5966485953330993 1.0880038761347532 -0.10984134517171804 1.9928415876434693 1.6153716823032924 -1.9193486747434061 -0.095371623833974198 2.9335734506086868 0.14535794949531555 -0.8326387224059838 -1.4626899290084838
leaf_weight=24 24 34 31 21 31 27 22 20 39 36
leaf_count=24 24 34 31 21 31 27 22 20 39 36
internal_value=0 -0.732717 1.6014 0.548876 -1.18168 -0.815195 2.38333 0.659528 -0.531029 -1.67398
internal_weight=0 212 97 55 157 90 53 44 66 67
internal_count=309 212 97 55 157 90 53 44 66 67
is_linear=0
shrinkage=0.03


Tree=8
num_leaves=12
num_cat=0
split_feature=8 2 2 3 6 8 5 3 6 9 0
split_gain=379049 127526 74737.5 40394.5 29613.4 20893.8 15965.2 9066.4 7800.6 3778.36 4802.62
threshold=0.45532178030249587 0.10745414873607927 0.3113914596483523 0.49603103599544746 0.44208451309240837 -0.90988369165371152 0.47931215210627115 -0.38461920091478324 -0.71894552129169387 -1.0241096184855099 1.0000000180025095e-35
decision_type=2 2 2 2 2 2 2 2 2 2 2
left_child=1 4 8 -3 5 -1 -4 -7 -2 -6 -11
right_child=2 3 6 -5 9 7 -8 -9 -10 10 -12
leaf_value=-1.5487491223216057 1.004170610770583 -0.10654611655017908 2.6887729549407955 1.5669105311802456 -1.3121598747502201 -0.092510468694898818 1.6591416447058969 -0.80765954187283151 0.1763190950666155 -2.1000677750327368 -1.4732173087380149
leaf_weight=24 20 34 33 21 23 27 23 39 21 22 22
leaf_count=24 20 34 33 21 23 27 23 39 21 22 22
internal_value=0 -0.710735 1.55336 0.53241 -1.14623 -0.790739 2.26589 -0.515099 0.580149 -1.62376 -1.78664
internal_weight=0 212 97 55 157 90 56 66 41 67 44
internal_count=309 212 97 55 157 90 56 66 41 67 44
is_linear=0
shrinkage=0.03


Tree=9
num_leaves=12
num_cat=1
split_feature=8 2 2 2 9 3 6 8 6 1 8
split_gain=356715 123614 70622.7 34393.8 30168.7 26483.8 15546.1 11864.5 11737.1 6983.54 3945.91
threshold=1.0000000180025095e-35 0.3113914596483523 0.13011384994855388 1.4670362214845618 0.71754660071647347 0.77349618037592671 0.67429051996922873 -0.90988369165371152 -0.33193550983032655 0 -0.82275266269071601
decision_type=2 2 2 2 2 2 2 2 2 1 2
left_child=2 4 6 5 8 -3 7 -1 -2 -9 -8
right_child=1 3 -4 -5 -6 -7 10 9 -10 -11 -12
leaf_value=-1.4852568184004888 0.215403213260526 0.93288220243735442 0.28192789944735436 3.0421397895812987 1.2026385171072824 2.3182050282022226 -1.897294565268925 -0.30633367669514633 -0.6918568965366908 -1.0392029617309568 -1.3980026613432783
leaf_weight=27 33 27 33 20 21 23 28 22 21 25 29
leaf_count=27 33 27 33 20 21 23 28 22 21 25 29
internal_value=0 1.08403 -0.958439 1.9907 0.237796 1.57013 -1.2709 -0.984072 -0.13742 -0.696158 -1.64327
internal_weight=0 145 164 70 75 50 131 74 54 47 57
internal_count=309 145 164 70 75 50 131 74 54 47 57
cat_boundaries=0 1
cat_threshold=1
is_linear=0
shrinkage=0.03


Tree=10
num_leaves=12
num_cat=0
split_feature=8 2 2 3 6 8 5 4 6 9 0
split_gain=338496 113016 65726.1 37371.7 26035.1 18302 11577.3 9786.23 8457.6 3538.51 4513.09
threshold=0.45532178030249587 0.10745414873607927 0.3793705632857764 0.49603103599544746 0.44208451309240837 -0.90988369165371152 0.47931215210627115 0.9939497137492993 -0.33193550983032655 -1.0241096184855099 1.0000000180025095e-35
decision_type=2 2 2 2 2 2 2 2 2 2 2
left_child=1 4 7 -3 5 -1 -4 -2 -7 -6 -11
right_child=2 3 6 -5 9 8 -8 -9 -10 10 -12
leaf_value=-1.4577289676666261 1.0192696592211723 -0.11593857311588876 2.5386314427852628 1.4936878258841377 -1.2278143003712529 -0.12946069882762049 1.6321103528567722 0.12073552179336547 -0.80991977732522147 -1.9908204434134742 -1.3831586551666259
leaf_weight=24 24 34 32 21 23 31 21 20 35 22 22
leaf_count=24 24 34 32 21 23 31 21 20 35 22 22
internal_value=0 -0.67164 1.46791 0.498646 -1.08161 -0.748289 2.17944 0.610845 -0.49031 -1.52936 -1.68699
internal_weight=0 212 97 55 157 90 53 44 66 67 44
internal_count=309 212 97 55 157 90 53 44 66 67 44
is_linear=0
shrinkage=0.03


Tree=11
num_leaves=13
num_cat=0
split_feature=8 2 2 3 8 6 5 4 3 6 9 3
split_gain=318491 106337 61996.6 35163.1 24587.9 14106.1 14067.9 9261.04 8140.47 7047.1 4646.95 3546.87
threshold=0.45532178030249587 0.10745414873607927 0.3113914596483523 0.49603103599544746 -0.21889338587640617 0.67429051996922873 0.47931215210627115 -0.5970766602051002 -0.15540886536985141 -0.71894552129169387 -0.50161275272491423 -0.58970213294671758
decision_type=2 2 2 2 2 2 2 2 2 2 2 2
left_child=1 4 9 -3 5 7 -4 10 -6 -2 -1 -7
right_child=2 3 6 -5 8 11 -8 -9 -10 -11 -12 -13
leaf_value=-1.5858846407644449 0.94051650112867347 -0.11246042217840166 2.4697985389015886 1.4488771642957414 -0.029707640842957926 -1.9178744745254517 1.5032812898055368 -0.5166027109324931 -0.86597329616546626 0.15366309302193776 -0.94692653162138807 -1.412123319185697
leaf_weight=20 20 34 33 21 22 24 23 24 20 21 21 26
leaf_count=20 20 34 33 21 22 24 23 24 20 21 21 26
internal_value=0 -0.651491 1.42388 0.483687 -1.04916 -1.27605 2.07284 -0.98464 -0.427929 0.537494 -1.25861 -1.65488
internal_weight=0 212 97 55 157 115 56 65 42 41 41 50
internal_count=309 212 97 55 157 115 56 65 42 41 41 50
is_linear=0
shrinkage=0.03


Tree=12
num_leaves=12
num_cat=1
split_feature=8 2 2 2 9 3 6 0 8 1 2
split_gain=300143 107959 54000.2 34366.5 29292.6 26856.7 14989.3 10387.1 9362.61 6925.03 2216.09
threshold=-0.098445687675753582 0.3113914596483523 0.13011384994855388 1.4670362214845618 0.71754660071647347 0.77349618037592671 0.67429051996922873 0.53320597467980002 -0.90988369165371152 0 -1.1388294179500296
decision_type=2 2 2 2 2 2 2 2 2 1 2
left_child=2 4 6 5 7 -3 8 -2 -1 -10 -8
right_child=1 3 -4 -5 -6 -7 10 -9 9 -11 -12
leaf_value=-1.3595686798294386 0.13608776581258727 0.76051490491834184 0.2110353751182556 2.8343424510955808 1.1482809434618269 2.1172048115730284 -1.8238986151559011 -0.69147552004882273 -0.23764031392335891 -0.99349426984786993 -1.4296727405894887
leaf_weight=27 39 29 30 20 21 24 21 21 20 24 33
leaf_count=27 39 29 30 20 21 24 21 21 20 24 33
internal_value=0 0.93802 -0.931968 1.77472 0.183955 1.37487 -1.20629 -0.153559 -0.919789 -0.649924 -1.58298
internal_weight=0 154 155 73 81 53 125 60 71 44 54
internal_count=309 154 155 73 81 53 125 60 71 44 54
cat_boundaries=0 1
cat_threshold=1
is_linear=0
shrinkage=0.03


Tree=13
num_leaves=11
num_cat=0
split_feature=8 2 3 2 3 6 8 3 3 5
split_gain=284724 94187.8 55417.5 38053.8 32465.7 21698.4 18272.4 8518.55 3385.43 3592.88
threshold=0.45532178030249587 0.10745414873607927 1.2439805535841988 0.3113914596483523 0.49603103599544746 0.5194865153846826 -0.90988369165371152 -0.38461920091478324 -0.73446655547234019 -0.23171334216632428
decision_type=2 2 2 2 2 2 2 2 2 2
left_child=1 5 3 -2 -3 6 -1 -8 -7 -10
right_child=2 4 -4 -5 -6 8 7 -9 9 -11
leaf_value=-1.3859455234050748 0.25295639718706542 -0.12044977317399838 2.56318331451416 1.6328697081633976 1.3798079933438983 -1.7232347052437917 -0.03632055797747203 -0.7221722544156588 -0.98917705926028154 -1.5313603279807348
leaf_weight=25 37 34 25 35 21 21 28 39 22 22
leaf_count=25 37 34 25 35 21 21 28 39 22 22
internal_value=0 -0.615988 1.34628 0.923748 0.452376 -0.990255 -0.693808 -0.435548 -1.40984 -1.26027
internal_weight=0 212 97 72 55 157 92 67 65 44
internal_count=309 212 97 72 55 157 92 67 65 44
is_linear=0
shrinkage=0.03


Tree=14
num_leaves=11
num_cat=0
split_feature=8 2 3 2 3 6 9 6 9 0
split_gain=267897 88621.3 52142.3 35804.8 30547 20419.3 14804.3 4557.93 3222.33 4080.39
threshold=0.45532178030249587 0.10745414873607927 1.2439805535841988 0.3113914596483523 0.49603103599544746 0.44208451309240837 -0.67577837464511326 -0.33193550983032655 -1.0241096184855099 1.0000000180025095e-35
decision_type=2 2 2 2 2 2 2 2 2 2
left_child=1 5 3 -2 -3 6 -1 -8 -7 -10
right_child=2 4 -4 -5 -6 8 7 -9 9 -11
leaf_value=-1.1710317001559516 0.24536768691161193 -0.11683628352468504 2.4862878295898434 1.5838836174692426 1.3384137657710484 -1.0693164502019468 -0.079663907977250897 -0.61827437893036874 -1.7963963543285022 -1.2185986804962157
leaf_weight=33 37 34 25 35 21 23 26 31 22 22
leaf_count=33 37 34 25 35 21 23 26 31 22 22
internal_value=0 -0.597508 1.30589 0.896035 0.438805 -0.960548 -0.665353 -0.372592 -1.35708 -1.5075
internal_weight=0 212 97 72 55 157 90 57 67 44
internal_count=309 212 97 72 55 157 90 57 67 44
is_linear=0
shrinkage=0.03


Tree=15
num_leaves=12
num_cat=0
split_feature=8 2 2 2 9 3 6 0 4 5 2
split_gain=253462 89729.1 44594.4 31220.4 25775.3 23103.1 12718.5 9983.36 8252.73 4549.75 1984.1
threshold=-0.098445687675753582 0.3113914596483523 0.13011384994855388 1.4670362214845618 0.71754660071647347 0.77349618037592671 0.67429051996922873 0.53320597467980002 -0.5970766602051002 -0.77485781695788969 -1.1388294179500296
decision_type=2 2 2 2 2 2 2 2 2 2 2
left_child=2 4 6 5 7 -3 8 -2 9 -1 -8
right_child=1 3 -4 -5 -6 -7 10 -9 -10 -11 -12
leaf_value=-0.81669455051422113 0.14189457820585141 0.67387087595873862 0.18226775789260866 2.6347445354461669 1.0791145828792026 1.9321879410743714 -1.6806672954559325 -0.66942759577717093 -0.4289213403065999 -1.4293564124107361 -1.3076460326801647
leaf_weight=24 39 29 30 20 21 24 21 21 27 20 33
leaf_count=24 39 29 30 20 21 24 21 21 27 20 33
internal_value=0 0.861993 -0.856432 1.62479 0.174535 1.24367 -1.10572 -0.142068 -0.841812 -1.09518 -1.45271
internal_weight=0 154 155 73 81 53 125 60 71 44 54
internal_count=309 154 155 73 81 53 125 60 71 44 54
is_linear=0
shrinkage=0.03


Tree=16
num_leaves=11
num_cat=0
split_feature=8 2 3 2 3 8 6 0 0 4
split_gain=239478 78512.1 46571.3 31652.6 28207 18956.7 17247.4 7363.41 6766.13 3914.1
threshold=0.45532178030249587 0.10745414873607927 1.2439805535841988 0.3113914596483523 0.49603103599544746 -0.90988369165371152 -0.33193550983032655 0.45683622717219424 -0.84144948045710533 -0.71278766921996606
decision_type=2 2 2 2 2 2 2 2 2 2
left_child=1 5 3 -2 -3 9 -7 8 -8 -1
right_child=2 4 -4 -5 -6 6 7 -9 -10 -11
leaf_value=-1.1707828397904672 0.23556449638830648 -0.12344559082980543 2.350240704345703 1.4940765172413417 1.2749553939274378 -0.082752500618657757 -0.67153031909465788 -0.44733283724103656 -1.3669290910047642 -1.7090857286453247
leaf_weight=31 37 34 25 35 21 31 20 21 34 20
leaf_count=31 37 34 25 35 21 31 20 21 34 20
internal_value=0 -0.564927 1.23469 0.847341 0.410489 -0.906634 -0.677977 -0.924002 -1.10937 -1.38188
internal_weight=0 212 97 72 55 157 106 75 54 51
internal_count=309 212 97 72 55 157 106 75 54 51
is_linear=0
shrinkage=0.03


Tree=17
num_leaves=11
num_cat=1
split_feature=8 2 2 2 9 3 6 0 1 2
split_gain=225548 79492.9 39245.4 28875.8 23518.7 20785.5 11605.9 9584.98 8195.88 1790.41
threshold=-0.098445687675753582 0.3113914596483523 0.13011384994855388 1.4670362214845618 0.71754660071647347 0.77349618037592671 0.67429051996922873 0.53320597467980002 0 -1.1388294179500296
decision_type=2 2 2 2 2 2 2 2 1 2
left_child=2 4 6 5 7 -3 8 -2 -1 -8
right_child=1 3 -4 -5 -6 -7 9 -9 -10 -11
leaf_value=-0.44377715305848553 0.14189657456599747 0.62411881870236896 0.16651912283897399 2.502405361175537 1.0301591914040702 1.8176531624794006 -1.5897661508832659 -0.65307324617036755 -1.0900254780367802 -1.2354203094135632
leaf_weight=33 39 29 30 20 21 24 21 21 38 33
leaf_count=33 39 29 30 20 21 24 21 21 38 33
internal_value=0 0.813143 -0.807897 1.53111 0.166084 1.16459 -1.04176 -0.136343 -0.789657 -1.37322
internal_weight=0 154 155 73 81 53 125 60 71 54
internal_count=309 154 155 73 81 53 125 60 71 54
cat_boundaries=0 1
cat_threshold=1
is_linear=0
shrinkage=0.03


Tree=18
num_leaves=11
num_cat=0
split_feature=8 2 3 2 3 8 6 0 9 4
split_gain=214099 69567 41585.9 27980.1 26490.8 17138.9 15380.1 6954.97 6444.47 3589.28
threshold=0.45532178030249587 0.10745414873607927 1.2439805535841988 0.3113914596483523 0.20650219094420424 -0.90988369165371152 -0.33193550983032655 0.45683622717219424 -0.58869556368501319 -0.71278766921996606
decision_type=2 2 2 2 2 2 2 2 2 2
left_child=1 5 3 -2 -3 9 -7 8 -8 -1
right_child=2 4 -4 -5 -6 6 7 -9 -10 -11
leaf_value=-1.1055458414554595 0.22621378540992737 -0.31132934565727527 2.2215885200500485 1.4094667327063424 1.0074275269179507 -0.076309582264192641 -0.71077015399932864 -0.40745549746922083 -1.3666827515193394 -1.6210284562110899
leaf_weight=31 37 26 25 35 29 31 26 21 28 20
leaf_count=31 37 26 25 35 29 31 26 21 28 20
internal_value=0 -0.534155 1.16743 0.801406 0.384015 -0.855808 -0.63839 -0.870716 -1.05087 -1.3077
internal_weight=0 212 97 72 55 157 106 75 54 51
internal_count=309 212 97 72 55 157 106 75 54 51
is_linear=0
shrinkage=0.03


Tree=19
num_leaves=11
num_cat=0
split_feature=8 2 3 2 3 8 6 0 0 4
split_gain=201446 65455.6 39128.2 26326.5 24925.2 16126 14471.2 6543.93 6225.82 3377.15
threshold=0.45532178030249587 0.10745414873607927 1.2439805535841988 0.3113914596483523 0.20650219094420424 -0.90988369165371152 -0.33193550983032655 0.45683622717219424 -0.84144948045710533 -0.71278766921996606
decision_type=2 2 2 2 2 2 2 2 2 2
left_child=1 5 3 -2 -3 9 -7 8 -8 -1
right_child=2 4 -4 -5 -6 6 7 -9 -10 -11
leaf_value=-1.0723794764989325 0.21942740007026776 -0.30198948343785909 2.1549408760070801 1.3671827250889368 0.97720465273692692 -0.074020278569190731 -0.5993490071296691 -0.39523183345794677 -1.2664043241388658 -1.5723976364135741
leaf_weight=31 37 26 25 35 29 31 20 21 34 20
leaf_count=31 37 26 25 35 29 31 20 21 34 20
internal_value=0 -0.518131 1.13241 0.777364 0.372495 -0.830133 -0.619238 -0.844595 -1.01935 -1.26847
internal_weight=0 212 97 72 55 157 106 75 54 51
internal_count=309 212 97 72 55 157 106 75 54 51
is_linear=0
shrinkage=0.03


Tree=20
num_leaves=11
num_cat=1
split_feature=8 2 2 2 9 3 6 0 1 2
split_gain=189659 66247.6 32328.7 26405.5 20898.1 18087.2 10284.5 9321.12 7774.83 1581.24
threshold=-0.098445687675753582 0.3113914596483523 0.13011384994855388 1.4670362214845618 0.71754660071647347 0.77349618037592671 0.67429051996922873 0.53320597467980002 0 -1.1388294179500296
decision_type=2 2 2 2 2 2 2 2 1 2
left_child=2 4 6 5 7 -3 8 -2 -1 -8
right_child=1 3 -4 -5 -6 -7 9 -9 -10 -11
leaf_value=-0.378898607600819 0.14425491768580215 0.54641425116308806 0.14355175918340682 2.3298963375091555 0.96946428435189391 1.6597859549522398 -1.4686197498866489 -0.63969605548041197 -1.0083280130436545 -1.1356151125647804
leaf_weight=33 39 29 30 20 21 24 21 21 38 33
leaf_count=33 39 29 30 20 21 24 21 21 38 33
internal_value=0 0.745649 -0.740838 1.40108 0.154952 1.05058 -0.953091 -0.130128 -0.715776 -1.26512
internal_weight=0 154 155 73 81 53 125 60 71 54
internal_count=309 154 155 73 81 53 125 60 71 54
cat_boundaries=0 1
cat_threshold=1
is_linear=0
shrinkage=0.03


Tree=21
num_leaves=11
num_cat=0
split_feature=8 2 3 3 2 8 6 5 6 0
split_gain=180098 58016.4 34910.4 23365.6 23272 14579.9 13023.8 7613.19 5742.89 3129.04
threshold=0.45532178030249587 0.10745414873607927 1.2439805535841988 0.49603103599544746 0.3113914596483523 -0.90988369165371152 0.5194865153846826 -0.55101645764985041 -0.33193550983032655 -0.76507973294949949
decision_type=2 2 2 2 2 2 2 2 2 2
left_child=1 5 4 -3 -2 9 7 -7 -9 -1
right_child=2 3 -4 -5 -6 6 -8 8 -10 -11
leaf_value=-0.90788019561767574 0.21079186093162844 -0.13737755001467816 2.0365754127502442 1.1353687828100687 1.2899106886727469 0.16082271480560301 -1.0189713380886958 -0.21338251128792762 -0.876768019095711 -1.3891802423231063
leaf_weight=20 37 34 25 21 35 20 39 24 23 31
leaf_count=20 37 34 25 21 35 20 39 24 23 31
internal_value=0 -0.489908 1.07073 0.34858 0.735364 -0.783646 -0.583116 -0.329409 -0.538018 -1.20044
internal_weight=0 212 97 55 72 157 106 67 47 51
internal_count=309 212 97 55 72 157 106 67 47 51
is_linear=0
shrinkage=0.03


Tree=22
num_leaves=11
num_cat=0
split_feature=8 2 3 3 2 8 6 5 5 4
split_gain=169455 54587.6 32847.2 22097.6 21896.6 13718.2 12254.1 7163.25 5485.15 3037.38
threshold=0.45532178030249587 0.10745414873607927 1.2439805535841988 0.20650219094420424 0.3113914596483523 -0.90988369165371152 0.5194865153846826 -0.55101645764985041 0.16000903662274485 -0.71278766921996606
decision_type=2 2 2 2 2 2 2 2 2 2
left_child=1 5 4 -3 -2 9 7 -7 -9 -1
right_child=2 3 -4 -5 -6 6 -8 8 -10 -11
leaf_value=-0.97846203157978673 0.20446809333723945 -0.29695244543827498 1.9754781532287597 0.90750048020790364 1.2512133755002703 0.15599804699420927 -0.98840220726453343 -0.86735934149135241 -0.21785336079597473 -1.4526601839065552
leaf_weight=31 37 26 25 29 35 20 39 22 25 20
leaf_count=31 37 26 25 29 35 20 39 22 25 20
internal_value=0 -0.475211 1.03861 0.338123 0.713303 -0.760137 -0.565622 -0.319527 -0.521877 -1.16442
internal_weight=0 212 97 55 72 157 106 67 47 51
internal_count=309 212 97 55 72 157 106 67 47 51
is_linear=0
shrinkage=0.03


Tree=23
num_leaves=13
num_cat=0
split_feature=8 2 8 4 2 8 3 6 3 4 5 2
split_gain=159927 56330.8 37696.8 36755.7 26650.8 19556.1 11218.8 8756.91 8040.05 7719.09 4185.87 1470.88
threshold=-0.098445687675753582 1.4670362214845618 1.1248151688786534 0.9939497137492993 0.13011384994855388 0.45532178030249587 0.33920291171332789 0.67429051996922873 0.90619689861167352 -0.5970766602051002 -0.77485781695788969 -1.1388294179500296
decision_type=2 2 2 2 2 2 2 2 2 2 2 2
left_child=4 2 3 5 7 6 -2 9 -4 10 -1 -9
right_child=1 -3 8 -5 -6 -7 -8 11 -10 -11 -12 -13
leaf_value=-0.63195090830326073 -0.29825817199690002 2.1698661317825314 0.80908021116256712 -1.0062792763710022 0.1226853256225586 1.1259849077939987 0.61902454648699079 -1.3572055952889577 1.659729693889618 -0.25471000671386718 -1.2196025505065917 -1.0360315990447997
leaf_weight=24 28 20 20 20 30 25 21 21 20 27 20 33
leaf_count=24 28 20 20 20 30 25 21 21 20 27 20 33
internal_value=0 0.684713 0.463049 0.134812 -0.680296 0.443215 0.094863 -0.873011 1.2344 -0.654029 -0.899065 -1.16093
internal_weight=0 154 134 94 155 74 49 125 40 71 44 54
internal_count=309 154 134 94 155 74 49 125 40 71 44 54
is_linear=0
shrinkage=0.03


Tree=24
num_leaves=13
num_cat=0
split_feature=8 2 8 4 2 8 3 6 3 4 5 3
split_gain=150476 53001.6 35468.9 34583.4 25075.8 18400.3 10555.7 8239.37 7564.88 7262.9 3938.49 1404.73
threshold=-0.098445687675753582 1.4670362214845618 1.1248151688786534 0.9939497137492993 0.13011384994855388 0.45532178030249587 0.33920291171332789 0.67429051996922873 0.90619689861167352 -0.5970766602051002 -0.77485781695788969 -0.73446655547234019
decision_type=2 2 2 2 2 2 2 2 2 2 2 2
left_child=4 2 3 5 7 6 -2 9 -4 10 -1 -9
right_child=1 -3 8 -5 -6 -7 -8 11 -10 -11 -12 -13
leaf_value=-0.6129923748970032 -0.28931043850524085 2.1047701263427734 0.78480778455734246 -0.97609090662002573 0.1190047800540924 1.0922053582906723 0.60045381682259691 -1.3256055221557617 1.6099378037452696 -0.24706871509552 -1.1830145015716551 -1.0087511504047058
leaf_weight=24 28 20 20 20 30 25 21 20 20 27 20 34
leaf_count=24 28 20 20 20 30 25 21 20 20 27 20 34
internal_value=0 0.664172 0.449157 0.130768 -0.659887 0.429919 0.0920171 -0.846821 1.19737 -0.634408 -0.872093 -1.1261
internal_weight=0 154 134 94 155 74 49 125 40 71 44 54
internal_count=309 154 134 94 155 74 49 125 40 71 44 54
is_linear=0
shrinkage=0.03


Tree=25
num_leaves=11
num_cat=1
split_feature=8 2 2 5 9 7 9 6 1 4
split_gain=141582 49977.2 23593.8 21687.1 18107.4 9640.09 8609.22 7752.43 7153.68 1382.31
threshold=-0.098445687675753582 0.3113914596483523 0.13011384994855388 0.90724416254811191 0.71754660071647347 0.70578641868629599 -0.066198697924419361 0.67429051996922873 0 -0.10530487189192221
decision_type=2 2 2 2 2 2 2 2 1 2
left_child=2 4 7 5 6 -3 -2 8 -1 -9
right_child=1 3 -4 -5 -6 -7 -8 9 -10 -11
leaf_value=-0.29223499861630525 0.22518464994430543 1.1903279111462255 0.11543464779853821 0.37177933073043817 0.88936960084097727 2.0114498103748666 -0.49353182494640346 -1.2620217293500899 -0.8959978492009012 -0.9565612851381301
leaf_weight=33 30 31 30 20 21 22 30 24 38 30
leaf_count=33 30 31 30 20 21 22 30 24 38 30
internal_value=0 0.644247 -0.64009 1.21353 0.131189 1.53117 -0.134174 -0.821416 -0.615376 -1.09232
internal_weight=0 154 155 73 81 53 60 125 71 54
internal_count=309 154 155 73 81 53 60 125 71 54
cat_boundaries=0 1
cat_threshold=1
is_linear=0
shrinkage=0.03


Tree=26
num_leaves=10
num_cat=0
split_feature=8 2 3 3 2 8 6 0 9
split_gain=134001 43412.7 26990.1 19987.4 17845.1 11555.9 10410.7 4995 7083.57
threshold=0.45532178030249587 0.10745414873607927 1.2439805535841988 0.49603103599544746 0.3113914596483523 -1.1636852524018038 -0.33193550983032655 0.45683622717219424 -0.58869556368501319
decision_type=2 2 2 2 2 2 2 2 2
left_child=1 5 4 -3 -2 -1 -7 8 -8
right_child=2 3 -4 -5 -6 6 7 -9 -10
leaf_value=-1.1321431646535272 0.16935787970955307 -0.14672191605848423 1.7728364627838136 1.0304287225859505 1.1143141569410051 -0.078254638903520329 -0.50956333017349242 -0.32665981354920759 -1.146505702300505
leaf_weight=38 37 34 25 21 35 33 30 23 33
leaf_count=38 37 34 25 21 35 33 30 23 33
internal_value=0 -0.422586 0.923589 0.302736 0.628712 -0.676679 -0.531237 -0.705055 -0.8432
internal_weight=0 212 97 55 72 157 119 86 63
internal_count=309 212 97 55 72 157 119 86 63
is_linear=0
shrinkage=0.03


Tree=27
num_leaves=11
num_cat=0
split_feature=8 2 3 3 2 8 6 0 0 0
split_gain=126082 40847 25395 18806.2 16790.4 10894.1 10105.7 5753.39 5509.62 2931.97
threshold=0.45532178030249587 0.10745414873607927 1.2439805535841988 0.49603103599544746 0.3113914596483523 -0.90988369165371152 -0.33193550983032655 0.45683622717219424 -0.84144948045710533 -0.76507973294949949
decision_type=2 2 2 2 2 2 2 2 2 2
left_child=1 5 4 -3 -2 9 -7 8 -8 -1
right_child=2 3 -4 -5 -6 6 7 -9 -10 -11
leaf_value=-0.73346120996028186 0.16427715675250903 -0.14232026001986334 1.7196513742446897 0.99951582465852995 1.0808847320335251 -0.027420246221365466 -0.44011582714319231 -0.25001443692616054 -1.0676314452115225 -1.1993583118014277
leaf_weight=20 37 34 25 21 35 31 20 21 34 31
leaf_count=20 37 34 25 21 35 31 20 21 34 31
internal_value=0 -0.409908 0.895881 0.293654 0.60985 -0.656379 -0.483039 -0.671361 -0.835218 -1.01665
internal_weight=0 212 97 55 72 157 106 75 54 51
internal_count=309 212 97 55 72 157 106 75 54 51
is_linear=0
shrinkage=0.03


Tree=28
num_leaves=12
num_cat=1
split_feature=8 2 8 4 2 8 3 6 1 3 3
split_gain=119110 45237.9 29753.4 32519 19369.3 15361.6 9258.96 6956.63 6763 5975.8 1273.59
threshold=-0.098445687675753582 1.4670362214845618 1.1248151688786534 0.9939497137492993 0.13011384994855388 0.45532178030249587 0.33920291171332789 0.67429051996922873 0 0.90619689861167352 -0.73446655547234019
decision_type=2 2 2 2 2 2 2 2 1 2 2
left_child=4 2 3 5 7 6 -2 8 -1 -4 -9
right_child=1 -3 9 -5 -6 -7 -8 10 -10 -11 -12
leaf_value=-0.24201931671662763 -0.27513677764151773 1.921823890686035 0.71087067818641658 -0.97265688657760618 0.097452997922897328 0.99587580699920664 0.55818301609584264 -1.1979765300750733 -0.82906411509764821 1.4442339595556257 -0.89627435687710255
leaf_weight=33 28 20 20 20 30 25 21 20 38 20 34
leaf_count=33 28 20 20 20 30 25 21 20 38 20 34
internal_value=0 0.590911 0.392268 0.100657 -0.587099 0.390742 0.0820003 -0.751391 -0.556212 1.07755 -1.00802
internal_weight=0 154 134 94 155 74 49 125 71 40 54
internal_count=309 154 134 94 155 74 49 125 71 40 54
cat_boundaries=0 1
cat_threshold=1
is_linear=0
shrinkage=0.03


Tree=29
num_leaves=13
num_cat=0
split_feature=8 2 8 4 2 8 3 6 4 3 5 4
split_gain=112071 42564.3 27995 30597.1 18224.5 14453.7 8711.75 6545.49 6620.25 5622.63 3737.03 1232.54
threshold=-0.098445687675753582 1.4670362214845618 1.1248151688786534 0.9939497137492993 0.13011384994855388 0.45532178030249587 0.33920291171332789 0.67429051996922873 -0.5970766602051002 0.90619689861167352 -0.77485781695788969 -0.10530487189192221
decision_type=2 2 2 2 2 2 2 2 2 2 2 2
left_child=4 2 3 5 7 6 -2 8 10 -4 -1 -9
right_child=1 -3 9 -5 -6 -7 -8 11 -10 -11 -12 -13
leaf_value=-0.51406472504138945 -0.26688266889325207 1.8641692128181455 0.68954455590248098 -0.94347718620300292 0.094529379606246938 0.96599953780174252 0.54143753051757804 -1.1380185097455979 -0.16972022586398652 1.400906949698925 -1.0693170830011367 -0.8495809571146965
leaf_weight=24 28 20 20 20 30 25 21 24 27 20 20 30
leaf_count=24 28 20 20 20 30 25 21 24 27 20 20 30
internal_value=0 0.573184 0.3805 0.0976374 -0.569486 0.37902 0.0795403 -0.72885 -0.539526 1.04523 -0.766452 -0.977775
internal_weight=0 154 134 94 155 74 49 125 71 40 44 54
internal_count=309 154 134 94 155 74 49 125 71 40 44 54
is_linear=0
shrinkage=0.03


Tree=30
num_leaves=13
num_cat=0
split_feature=8 2 8 4 8 2 8 0 3 6 3 9
split_gain=105448 40048.8 26340.5 28788.8 17647.1 17100.9 13599.5 9771.26 8196.89 5895.39 5290.33 2989.14
threshold=-0.098445687675753582 1.4670362214845618 1.1248151688786534 0.9939497137492993 -0.76679118018626891 0.13011384994855388 0.45532178030249587 -0.91781922796471116 0.33920291171332789 0.5194865153846826 0.90619689861167352 -0.50161275272491423
decision_type=2 2 2 2 2 2 2 2 2 2 2 2
left_child=4 2 3 6 7 9 8 -1 -2 -6 -4 -9
right_child=1 -3 10 -5 5 -7 -8 11 -10 -11 -12 -13
leaf_value=-0.43247587945726185 -0.2588761791586876 1.8082441363334656 0.66885821628570563 -0.91517288374900818 -0.23533886140043084 0.4903663860048566 0.9370195521354675 -1.3636037597289452 0.5251944194521222 -0.83308160808351295 1.358879723601043 -0.88238022123064319
leaf_weight=27 28 20 20 20 33 21 25 26 21 27 20 21
leaf_count=27 28 20 20 20 33 21 25 26 21 27 20 21
internal_value=0 0.555988 0.369085 0.0947083 -0.552401 -0.246441 0.367649 -0.887304 0.0771541 -0.504323 1.01387 -1.14859
internal_weight=0 154 134 94 155 81 74 74 49 60 40 47
internal_count=309 154 134 94 155 81 74 74 49 60 40 47
is_linear=0
shrinkage=0.03


Tree=31
num_leaves=12
num_cat=0
split_feature=8 9 2 8 6 5 9 3 0 8 4
split_gain=99215.6 38074.9 24711.5 16666.8 18974.3 12751.2 8000.96 6909.32 5645.25 7477.41 3528.83
threshold=-0.098445687675753582 0.89171222263667138 0.3113914596483523 -0.6727614429756178 0.20987850621558804 0.38385039593078424 -0.066198697924419361 0.56841324725825937 -1.2232982179951342 -0.90988369165371152 -0.71278766921996606
decision_type=2 2 2 2 2 2 2 2 2 2 2
left_child=3 2 6 8 -5 -4 -2 -3 -1 10 -10
right_child=1 7 5 4 -6 -7 -8 -9 9 -11 -12
leaf_value=-0.39132637739181519 0.2145419945716858 0.85785124880075447 1.247294111251831 0.286972971757253 -0.70126623746226813 0.23504367555890765 -0.45763281336602041 1.6059523876190185 -0.90662805352892184 -0.49416792801448278 -1.4503164065967906
leaf_weight=21 30 20 24 36 34 21 34 25 21 21 22
leaf_count=21 30 20 24 36 34 21 34 25 21 21 22
internal_value=0 0.539309 0.236218 -0.535829 -0.193029 0.774911 -0.142551 1.27346 -0.818136 -0.958182 -1.18479
internal_weight=0 154 109 155 70 45 64 45 85 64 43
internal_count=309 154 109 155 70 45 64 45 85 64 43
is_linear=0
shrinkage=0.03


Tree=32
num_leaves=13
num_cat=1
split_feature=2 7 3 5 2 8 1 0 0 0 0 9
split_gain=93891.3 54197.9 23753.5 22787.5 9000.09 8902.31 12575.5 8650.16 6396.01 6045.01 5188.71 2477.86
threshold=-0.1644622658136172 -0.31439273660214612 0.85794209230950369 0.9467455788965885 1.4670362214845618 -0.21889338587640617 0 0.074987489634165086 -1.2996679655027399 0.074987489634165086 0.83868496471022425 -0.76286118560521332
decision_type=2 2 2 2 2 2 1 2 2 2 2 2
left_child=2 -2 5 4 7 8 -7 -3 -1 11 -9 -10
right_child=1 3 -4 -5 -6 6 -8 10 9 -11 -12 -13
leaf_value=-0.36715505614876742 -0.53082894065163355 0.4360115911960602 0.46245808026194568 0.22026844461758932 1.6802783675193786 0.26737444496154783 -0.79648497623205172 1.5418168036937714 -0.94663788843154906 -0.64690358360608413 0.85845492553710934 -1.4188743302822113
leaf_weight=24 33 20 20 36 20 20 20 20 20 36 20 20
leaf_count=24 33 20 20 36 20 20 20 20 20 36 20 20
internal_value=0 0.541903 -0.504647 0.847077 1.12914 -0.642805 -0.264555 0.945428 -0.794105 -0.928931 1.20014 -1.18276
internal_weight=0 149 160 116 80 140 40 60 100 76 40 40
internal_count=309 149 160 116 80 140 40 60 100 76 40 40
cat_boundaries=0 1
cat_threshold=1
is_linear=0
shrinkage=0.03


Tree=33
num_leaves=11
num_cat=0
split_feature=8 8 2 3 3 2 5 3 0 8
split_gain=89018.9 29408 27285.8 19216 13442.6 12710.5 7671.72 8153.03 5127.07 4469.88
threshold=0.45532178030249587 -0.6727614429756178 0.10745414873607927 1.2439805535841988 0.33920291171332789 0.3113914596483523 -0.51809861069278595 -0.38461920091478324 -0.91781922796471116 -1.1636852524018038
decision_type=2 2 2 2 2 2 2 2 2 2
left_child=1 8 6 5 -4 -2 -3 -8 -1 -10
right_child=3 2 4 -5 -6 -7 7 -9 9 -11
leaf_value=-0.46881339057799309 0.1162870526635969 0.070454336929321293 -0.0095886032581329328 1.4693516811847687 1.0538629040510759 0.91379324626922598 -0.17268271843592325 -0.88054667025804512 -1.2580203711986542 -0.70873260259628301
leaf_weight=31 37 25 20 25 23 35 27 32 24 30
leaf_count=31 37 25 20 25 23 35 27 32 24 30
internal_value=0 -0.34443 -0.0553661 0.752775 0.559234 0.503964 -0.369983 -0.556609 -0.776326 -0.95286
internal_weight=0 212 127 97 43 72 84 59 85 54
internal_count=309 212 127 97 43 72 84 59 85 54
is_linear=0
shrinkage=0.03


Tree=34
num_leaves=13
num_cat=0
split_feature=8 2 3 8 8 4 5 5 4 2 0 0
split_gain=83757.9 27982.5 18080.3 15991.7 12530.1 30009.9 11152.9 14176.3 15626.2 12331.7 7206.38 1896.52
threshold=0.45532178030249587 0.83256458753527018 1.2439805535841988 -0.76679118018626891 1.3705038330481389 0.29968365966010674 -0.91311277417756143 -0.26792297381909475 0.47325017318240531 -0.32308017430094105 -0.76507973294949949 0.30409673215698263
decision_type=2 2 2 2 2 2 2 2 2 2 2 2
left_child=1 3 4 10 5 -2 -5 -8 9 -9 -1 -12
right_child=2 -3 -4 6 -6 -7 7 8 -10 -11 11 -13
leaf_value=-0.44882578876283435 1.0554836693677034 0.58776537950222307 1.4252711305618286 0.39382114237546917 1.0854756363955411 -0.4251529272539275 -0.92678042745590217 -0.30447084064068997 -0.78000589526217912 0.689019346670671 -1.2791355732509067 -0.8709414238929748
leaf_weight=27 22 26 25 20 22 28 30 23 23 22 21 20
leaf_count=27 22 26 25 20 22 28 30 23 23 22 21 20
internal_value=0 -0.334097 0.730192 -0.46296 0.488845 0.226327 -0.251793 -0.383551 -0.14389 0.181235 -0.829397 -1.08002
internal_weight=0 212 97 186 72 50 118 98 68 45 68 41
internal_count=309 212 97 186 72 50 118 98 68 45 68 41
is_linear=0
shrinkage=0.03


Tree=35
num_leaves=12
num_cat=1
split_feature=2 7 3 5 1 8 0 2 6 0 0
split_gain=79159.8 47680.2 21467 20176.6 8649.94 12755.1 13183.8 8219.62 7908.7 6804.4 4142.17
threshold=-0.1644622658136172 -0.31439273660214612 0.85794209230950369 0.9467455788965885 0 -0.21889338587640617 -0.91781922796471116 1.4670362214845618 -0.87374952587624122 -0.26867637415006179 1.0000000180025095e-35
decision_type=2 2 2 2 1 2 2 2 2 2 2
left_child=2 -2 4 7 5 6 -1 8 -3 -6 -8
right_child=1 3 -4 -5 9 -7 10 -9 -10 -11 -12
leaf_value=-0.019015677679668771 -0.50858676520260893 0.40428534507751462 0.45601241397857661 0.19400791759292282 -1.2759372263369353 0.26238636660575865 -1.2386149706840515 1.5759273676872254 1.1264023270973791 -0.61168645354679652 -0.62804501724243156
leaf_weight=22 33 21 20 36 23 20 20 20 39 35 20
leaf_count=22 33 21 20 36 23 20 20 20 39 35 20
internal_value=0 0.497578 -0.46337 0.783815 -0.59471 -0.396388 -0.608896 1.04923 0.873661 -0.875096 -0.93333
internal_weight=0 149 160 116 140 82 62 80 60 58 40
internal_count=309 149 160 116 140 82 62 80 60 58 40
cat_boundaries=0 1
cat_threshold=1
is_linear=0
shrinkage=0.03


Tree=36
num_leaves=11
num_cat=1
split_feature=8 6 3 2 3 6 0 8 1 9
split_gain=75272 25382.2 16565.1 15772.6 14594.4 12979.7 12885.1 4804.75 4035.1 3000.01
threshold=0.45532178030249587 -0.33193550983032655 1.0750887260979363 -0.14180256460114249 0.70111396911311596 -0.71894552129169387 -1.2996679655027399 -1.1636852524018038 0 -0.76286118560521332
decision_type=2 2 2 2 2 2 2 2 1 2
left_child=1 3 5 -1 6 -2 -3 -8 9 -9
right_child=2 4 -4 -5 -6 -7 7 8 -10 -11
leaf_value=-0.26448769862001592 0.92719843681042002 -0.039478009700775141 1.2381800905140963 0.68595561456680298 0.20285058294023786 0.057308004969044729 -1.1513330180828389 -0.24443836280277798 -0.9669486230186054 -0.71878094724246433
leaf_weight=33 26 25 33 30 21 38 26 21 28 28
leaf_count=33 26 25 33 30 21 38 26 21 28 28
internal_value=0 -0.316721 0.692215 0.188104 -0.53017 0.410701 -0.650432 -0.798721 -0.679658 -0.515491
internal_weight=0 212 97 63 149 64 128 103 77 49
internal_count=309 212 97 63 149 64 128 103 77 49
cat_boundaries=0 1
cat_threshold=1
is_linear=0
shrinkage=0.03


Tree=37
num_leaves=12
num_cat=0
split_feature=8 9 2 8 6 5 9 0 0 8 4
split_gain=70903.3 32313.4 18561.3 12889.6 15575.1 11518.8 7444.17 6340.53 4338.09 6061.23 3627.04
threshold=-0.098445687675753582 0.89171222263667138 0.3113914596483523 -0.6727614429756178 0.20987850621558804 0.38385039593078424 -0.066198697924419361 0.68594546969501269 -1.2232982179951342 -0.90988369165371152 -0.71278766921996606
decision_type=2 2 2 2 2 2 2 2 2 2 2
left_child=3 2 6 8 -5 -4 -2 -3 -1 10 -10
right_child=1 7 5 4 -6 -7 -8 -9 9 -11 -12
leaf_value=-0.32708817584174021 0.19286794328689574 0.81373324334621422 1.092536928653717 0.28338044623533887 -0.61197522135341864 0.1304481669834682 -0.45549672370886102 1.5303801019191741 -0.74601757322038931 -0.40623203277587888 -1.297219343402169
leaf_weight=21 30 25 24 36 34 21 34 20 21 21 22
leaf_count=21 30 25 24 36 34 21 34 20 21 21 22
internal_value=0 0.455912 0.176692 -0.45297 -0.151507 0.643562 -0.151576 1.13224 -0.701234 -0.824001 -1.02803
internal_weight=0 154 109 155 70 45 64 45 85 64 43
internal_count=309 154 109 155 70 45 64 45 85 64 43
is_linear=0
shrinkage=0.03


Tree=38
num_leaves=12
num_cat=1
split_feature=2 7 3 5 1 8 0 2 6 0 0
split_gain=67584.3 41835.4 18802.8 18263.2 8217.74 11003.9 11703.6 7525.11 7665.79 6293.24 3968.33
threshold=-0.1644622658136172 -0.31439273660214612 0.85794209230950369 0.9467455788965885 0 -0.21889338587640617 -0.91781922796471116 1.4670362214845618 -0.87374952587624122 -0.26867637415006179 1.0000000180025095e-35
decision_type=2 2 2 2 1 2 2 2 2 2 2
left_child=2 -2 4 7 5 6 -1 8 -3 -6 -8
right_child=1 3 -4 -5 9 -7 10 -9 -10 -11 -12
leaf_value=0.00063063984567468816 -0.48271895235235041 0.3502977316720145 0.43228996896743777 0.16673608373850582 -1.2098554211077484 0.25411524796485901 -1.1596404125690458 1.4843513989448547 1.061238278700755 -0.57104121647562289 -0.56202000832557675
leaf_weight=22 33 21 20 36 23 20 20 20 39 35 20
leaf_count=22 33 21 20 36 23 20 20 20 39 35 20
internal_value=0 0.459761 -0.428152 0.72788 -0.551072 -0.357769 -0.555151 0.980395 0.812409 -0.824364 -0.86083
internal_weight=0 149 160 116 140 82 62 80 60 58 40
internal_count=309 149 160 116 140 82 62 80 60 58 40
cat_boundaries=0 1
cat_threshold=1
is_linear=0
shrinkage=0.03


Tree=39
num_leaves=13
num_cat=0
split_feature=8 2 3 8 4 8 5 5 4 2 0 4
split_gain=64298.7 22129.7 14949.8 12760.5 27517.6 12366.7 10611.9 12399.7 13683.7 10051.6 5986.72 1690.32
threshold=0.45532178030249587 0.83256458753527018 1.0750887260979363 1.3705038330481389 0.29968365966010674 -0.76679118018626891 -0.91311277417756143 -0.26792297381909475 0.47325017318240531 -0.32308017430094105 -0.76507973294949949 -0.71278766921996606
decision_type=2 2 2 2 2 2 2 2 2 2 2 2
left_child=1 5 3 4 -2 10 -7 -8 9 -9 -1 -12
right_child=2 -3 -4 -5 -6 6 7 8 -10 -11 11 -13
leaf_value=-0.38268791543112862 0.89014546036720277 0.52708053533847521 1.1584362573515283 0.97849889499800546 -0.6313880100457564 0.40813403248786922 -0.85819784736633298 -0.2602706063312033 -0.7212737040934355 0.63668202248486605 -0.76060811412334439 -1.1459736674172536
leaf_weight=27 20 26 33 21 23 20 30 23 23 22 20 21
leaf_count=27 20 26 33 21 23 20 30 23 23 22 20 21
internal_value=0 -0.292726 0.639772 0.372335 0.076302 -0.407322 -0.221625 -0.350147 -0.126008 0.17824 -0.729562 -0.95799
internal_weight=0 212 97 64 43 186 118 98 68 45 68 41
internal_count=309 212 97 64 43 186 118 98 68 45 68 41
is_linear=0
shrinkage=0.03


Tree=40
num_leaves=12
num_cat=1
split_feature=8 6 6 3 3 8 4 0 3 5 1
split_gain=60498.6 21337.1 14662 14184.8 11829.5 11212.3 25544.9 11094.4 4486.24 4288.84 2815.02
threshold=0.45532178030249587 -0.33193550983032655 -0.87374952587624122 1.2439805535841988 0.70111396911311596 1.3705038330481389 0.29968365966010674 -1.2996679655027399 -1.0481228043984911 -0.55101645764985041 0
decision_type=2 2 2 2 2 2 2 2 2 2 1
left_child=1 2 -1 5 7 6 -2 -3 -9 -10 -11
right_child=3 4 -4 -5 -6 -7 -8 8 9 10 -12
leaf_value=-0.34955561743842234 0.92346778067675506 -0.021006143474578857 0.57525819460550942 1.2362412606239317 0.18029620170593261 0.97119180890646839 -0.44258644172123496 -1.0752397716522217 -0.30769297877947488 -0.56515364223056364 -1.0116928859800101
leaf_weight=27 22 25 36 25 21 22 28 25 27 27 24
leaf_count=27 22 25 36 25 21 22 28 25 27 27 24
internal_value=0 -0.283944 0.178909 0.620579 -0.479647 0.406807 0.158477 -0.587919 -0.725519 -0.613429 -0.77529
internal_weight=0 212 63 97 149 72 50 128 103 78 51
internal_count=309 212 63 97 149 72 50 128 103 78 51
cat_boundaries=0 1
cat_threshold=1
is_linear=0
shrinkage=0.03


Tree=41
num_leaves=11
num_cat=1
split_feature=2 7 3 5 1 0 2 6 8 0
split_gain=58093.6 36715.6 16442.3 15975.2 7799.67 9520.64 7003.22 7402.79 6683.47 5947.72
threshold=-0.1644622658136172 -0.31439273660214612 0.85794209230950369 0.9467455788965885 0 -0.84144948045710533 1.4670362214845618 -0.87374952587624122 -0.43816143967002336 -0.26867637415006179
decision_type=2 2 2 2 1 2 2 2 2 2
left_child=2 -2 4 6 5 -1 7 -3 -7 -6
right_child=1 3 -4 -5 9 8 -8 -9 -10 -11
leaf_value=0.091044868884548061 -0.45666979789733886 0.29743350982666011 0.40766867351531982 0.15261819849411645 -1.1529077758996382 -0.85145026260806655 1.3997717113494872 0.99607204675674432 -0.14803556871414186 -0.53187762849671505
leaf_weight=31 33 21 20 36 23 31 20 39 20 35
leaf_count=31 33 21 20 36 23 31 20 39 20 35
internal_value=0 0.426258 -0.396953 0.677436 -0.511899 -0.323577 0.913604 0.751549 -0.575601 -0.778148
internal_weight=0 149 160 116 140 82 80 60 51 58
internal_count=309 149 160 116 140 82 80 60 51 58
cat_boundaries=0 1
cat_threshold=1
is_linear=0
shrinkage=0.03


Tree=42
num_leaves=12
num_cat=1
split_feature=2 7 3 5 1 8 0 2 6 0 0
split_gain=54660.2 34545.7 15470.6 15031 7338.71 9192.06 9733.78 6589.33 6965.28 5596.21 3859.31
threshold=-0.1644622658136172 -0.31439273660214612 0.85794209230950369 0.9467455788965885 0 -0.21889338587640617 -0.91781922796471116 1.4670362214845618 -0.87374952587624122 -0.26867637415006179 1.0000000180025095e-35
decision_type=2 2 2 2 1 2 2 2 2 2 2
left_child=2 -2 4 7 5 6 -1 8 -3 -6 -8
right_child=1 3 -4 -5 9 -7 10 -9 -10 -11 -12
leaf_value=0.012585594762455334 -0.44296969673850323 0.28851051058088029 0.39543861436843869 0.14803965697685878 -1.118320546746254 0.24537505888938904 -1.0677183478474617 1.3577785720825193 0.96618989100823027 -0.51592129039764412 -0.4783648234605789
leaf_weight=22 33 21 20 36 23 20 20 20 39 35 20
leaf_count=22 33 21 20 36 23 20 20 20 39 35 20
internal_value=0 0.413471 -0.385045 0.657113 -0.496542 -0.313869 -0.494271 0.886196 0.729002 -0.754804 -0.773042
internal_weight=0 149 160 116 140 82 62 80 60 58 40
internal_count=309 149 160 116 140 82 62 80 60 58 40
cat_boundaries=0 1
cat_threshold=1
is_linear=0
shrinkage=0.03


Tree=43
num_leaves=11
num_cat=1
split_feature=8 8 2 3 6 5 3 1 0 6
split_gain=51998.1 18868.8 18128.9 12926.2 11722.8 6707.87 7897.49 3565.81 8604.97 3556.9
threshold=0.45532178030249587 -0.63364494117142811 0.10745414873607927 1.0750887260979363 -0.71894552129169387 -0.51809861069278595 -0.38461920091478324 0 -0.91781922796471116 -0.40933751212260067
decision_type=2 2 2 2 2 2 2 1 2 2
left_child=1 7 5 4 -2 -3 -7 8 -1 -4
right_child=3 2 9 -5 -6 6 -8 -9 -10 -11
leaf_value=0.03253372635160174 0.81750714870599595 0.12826412229537962 0.76655702829360961 1.0576155666871505 -0.0091937261506130803 -0.066023528766632075 -0.78267668078022612 -0.84698815121781079 -0.72779149575813384 0.20754122972488404
leaf_weight=21 26 25 21 33 38 25 31 32 37 20
leaf_count=21 26 25 21 33 38 25 31 32 37 20
internal_value=0 -0.263241 -0.0201511 0.575331 0.326654 -0.280333 -0.462742 -0.592763 -0.452501 0.493866
internal_weight=0 212 122 97 64 81 56 90 58 41
internal_count=309 212 122 97 64 81 56 90 58 41
cat_boundaries=0 1
cat_threshold=1
is_linear=0
shrinkage=0.03


Tree=44
num_leaves=12
num_cat=0
split_feature=8 6 6 9 2 3 0 5 3 5 6
split_gain=48925.1 17827.4 12903.1 12479.3 11336.1 9697.52 9373.56 5332.38 4368.76 4145.65 2780.71
threshold=0.45532178030249587 -0.33193550983032655 -0.87374952587624122 0.89171222263667138 1.0000000180025095e-35 0.70111396911311596 -1.2996679655027399 0.38385039593078424 -1.0481228043984911 -0.55101645764985041 0.59688851767695572
decision_type=2 2 2 2 2 2 2 2 2 2 2
left_child=1 2 -1 4 -2 6 -3 -6 -8 -10 -11
right_child=3 5 -4 -5 7 -7 8 -9 9 10 -12
leaf_value=-0.32802122963799368 -0.2854433512687683 -0.011164995288848876 0.53955027590195337 1.0109617385183061 0.9368667812347411 0.16329246725354876 -1.0038508352279663 0.26003615579821848 -0.24753778403883592 -0.95167820754258525 -0.50649239020688186
leaf_weight=27 20 25 36 35 20 21 25 22 27 23 28
leaf_count=27 20 25 36 35 20 21 25 22 27 23 28
internal_value=0 -0.255344 0.167734 0.558071 0.302407 -0.434229 -0.53226 0.582336 -0.65874 -0.548127 -0.707262
internal_weight=0 212 63 97 62 149 128 42 103 78 51
internal_count=309 212 63 97 62 149 128 42 103 78 51
is_linear=0
shrinkage=0.03


Tree=45
num_leaves=12
num_cat=1
split_feature=2 7 5 3 1 8 0 2 6 0 0
split_gain=46593.1 30209.3 13902.3 13704.8 6781.82 8261.23 8470.88 6042.1 6628.09 5161.09 3648.29
threshold=-0.1644622658136172 -0.31439273660214612 0.9467455788965885 0.85794209230950369 0 -0.21889338587640617 -0.91781922796471116 1.4670362214845618 -0.87374952587624122 -0.26867637415006179 1.0000000180025095e-35
decision_type=2 2 2 2 1 2 2 2 2 2 2
left_child=3 -2 7 4 5 6 -1 8 -3 -6 -8
right_child=1 2 -4 -5 9 -7 10 -9 -10 -11 -12
leaf_value=0.016976511695168235 -0.41914418415589766 0.24967172622680664 0.11999336083730061 0.3790954878330231 -1.0578068235646123 0.24533927536010738 -1.0024231452047825 1.281470181941986 0.91074404870088277 -0.47930075413840156 -0.42940810275077818
leaf_weight=22 33 21 36 20 23 20 20 20 39 35 20
leaf_count=22 33 21 36 20 23 20 20 20 39 35 20
internal_value=0 0.381742 0.60958 -0.355497 -0.460439 -0.284834 -0.455857 0.829894 0.679369 -0.708708 -0.715916
internal_weight=0 149 116 160 140 82 62 80 60 58 40
internal_count=309 149 116 160 140 82 62 80 60 58 40
cat_boundaries=0 1
cat_threshold=1
is_linear=0
shrinkage=0.03


Tree=46
num_leaves=12
num_cat=1
split_feature=8 8 2 3 8 4 5 5 5 1 0
split_gain=43938.5 16747.7 15685.5 11682.1 11520.6 23149.6 6144.11 7639.55 3477.68 3292.31 7458.86
threshold=0.45532178030249587 -0.63364494117142811 0.10745414873607927 1.0750887260979363 1.3705038330481389 0.29968365966010674 -0.51809861069278595 0.048088356968725494 0.10075691210002867 0 -0.91781922796471116
decision_type=2 2 2 2 2 2 2 2 2 1 2
left_child=1 9 6 4 5 -2 -3 -8 -4 10 -1
right_child=3 2 8 -5 -6 -7 7 -9 -10 -11 -12
leaf_value=0.033924927030290875 0.75763793385028833 0.13607399797439576 0.74828175079822534 0.98735536196015106 0.86842071737561899 -0.63792123369548637 -0.88191317422049387 -0.15813488653727939 0.19552592141287667 -0.79671155255287884 -0.67395722600253849
leaf_weight=21 20 25 20 33 21 23 21 35 21 32 37
leaf_count=21 20 25 20 33 21 23 21 35 21 32 37
internal_value=0 -0.241982 -0.012962 0.528867 0.292459 0.0111761 -0.254976 -0.429552 0.465163 -0.552431 -0.417655
internal_weight=0 212 122 97 64 43 81 56 41 90 58
internal_count=309 212 122 97 64 43 81 56 41 90 58
cat_boundaries=0 1
cat_threshold=1
is_linear=0
shrinkage=0.03


Tree=47
num_leaves=13
num_cat=1
split_feature=2 7 5 3 1 8 0 2 0 0 0 0
split_gain=41557.9 27744.1 12663.4 12589.1 6212.7 7535.38 7660.02 5720.71 6326.1 5153.73 4725.87 3438.13
threshold=-0.1644622658136172 -0.31439273660214612 0.9467455788965885 0.85794209230950369 0 -0.21889338587640617 -0.91781922796471116 1.4670362214845618 0.074987489634165086 0.83868496471022425 -0.26867637415006179 1.0000000180025095e-35
decision_type=2 2 2 2 1 2 2 2 2 2 2 2
left_child=3 -2 7 4 5 6 -1 8 -3 -10 -6 -8
right_child=1 2 -4 -5 10 -7 11 -9 9 -11 -12 -13
leaf_value=0.018053130236538973 -0.40698685830289666 0.20702925395965577 0.11160660405953725 0.36831806802749634 -1.0079978750063023 0.23810313749313353 -0.95701239734888077 1.2285391073226928 1.2010180356502531 0.51996335144340999 -0.45442086042676655 -0.40074648861587048
leaf_weight=22 33 20 36 20 23 20 20 20 20 20 35 20
leaf_count=22 33 20 36 20 23 20 20 20 20 20 35 20
internal_value=0 0.360525 0.578869 -0.335739 -0.436319 -0.268243 -0.431581 0.789137 0.64267 0.860491 -0.673943 -0.678879
internal_weight=0 149 116 160 140 82 62 80 60 40 58 40
internal_count=309 149 116 160 140 82 62 80 60 40 58 40
cat_boundaries=0 1
cat_threshold=1
is_linear=0
shrinkage=0.03


Tree=48
num_leaves=12
num_cat=0
split_feature=8 3 6 2 0 6 0 4 3 5 6
split_gain=39346.4 19915.6 12424.3 10419.4 8508.59 6761.06 6437.77 4386.78 3941.03 4551.02 2757.57
threshold=0.56850410269659535 0.56841324725825937 -0.33193550983032655 0.3793705632857764 -1.2996679655027399 -0.87374952587624122 0.45683622717219424 0.44432242092868851 -1.0481228043984911 -0.55101645764985041 0.75169252226150285
decision_type=2 2 2 2 2 2 2 2 2 2 2
left_child=1 2 5 -2 -4 -1 -3 -5 -6 -10 -11
right_child=3 6 4 7 8 -7 -8 -9 9 10 -12
leaf_value=-0.35878480434417725 0.15117450974204322 0.025997341871261598 1.3326644897460937e-06 1.1685360789299011 -0.93613614809054591 0.34306367552280426 0.74524771281651081 0.5949433192184993 -0.19396110110812717 -0.88483154535293573 -0.45196496144510229
leaf_weight=21 33 24 25 21 26 30 21 28 27 27 26
leaf_count=21 33 24 25 21 26 30 21 28 27 27 26
internal_value=0 -0.203464 -0.34319 0.563249 -0.497847 0.0540672 0.361648 0.840769 -0.615264 -0.510981 -0.672482
internal_weight=0 227 182 82 131 51 45 49 106 80 53
internal_count=309 227 182 82 131 51 45 49 106 80 53
is_linear=0
shrinkage=0.03


Tree=49
num_leaves=12
num_cat=1
split_feature=2 9 7 5 3 1 8 0 2 0 0
split_gain=37353.5 25326.6 17670.5 18239.8 11305.3 5907.57 6874.35 6980.72 4712.52 4463.52 3257.23
threshold=-0.1644622658136172 0.89171222263667138 -0.22129653992183232 -0.26792297381909475 0.85794209230950369 0 -0.21889338587640617 -0.91781922796471116 0.3793705632857764 -0.26867637415006179 1.0000000180025095e-35
decision_type=2 2 2 2 2 1 2 2 2 2 2
left_child=4 2 -2 -4 5 6 7 -1 -5 -7 -9
right_child=1 -3 3 8 -6 9 -8 10 -10 -11 -12
leaf_value=0.023504991531372071 -0.47881270235404372 1.0222972767417495 1.0908289931579069 -0.23435318233966829 0.34888875460624691 -0.96998218494912847 0.23390747022628786 -0.91252456149458883 0.3117000408606096 -0.43198978635243007 -0.37109064388275143
leaf_weight=22 32 37 22 25 20 23 20 20 33 35 20
leaf_count=22 32 37 22 25 20 23 20 20 33 35 20
internal_value=0 0.341802 0.116996 0.355319 -0.318303 -0.413616 -0.24972 -0.405729 0.0763323 -0.645332 -0.641808
internal_weight=0 149 112 80 160 140 82 62 58 58 40
internal_count=309 149 112 80 160 140 82 62 58 58 40
cat_boundaries=0 1
cat_threshold=1
is_linear=0
shrinkage=0.03


Tree=50
num_leaves=11
num_cat=1
split_feature=8 2 3 6 5 0 3 7 1 0
split_gain=35546.8 30752.2 24600.8 11201.6 12726.7 8028.93 5152.45 3295.6 2927.71 6159.02
threshold=-0.63364494117142811 1.4670362214845618 0.77349618037592671 -0.48673951441487373 0.048088356968725494 -0.38323099541147054 0.13411997968139272 0.089024115679214658 0 -0.91781922796471116
decision_type=2 2 2 2 2 2 2 2 1 2
left_child=8 2 3 4 -2 -5 -7 -4 9 -1
right_child=1 -3 7 5 -6 6 -8 -9 -10 -11
leaf_value=0.035514141150883263 -0.34920737836671911 1.2195982962846754 0.91926721495130781 0.093779179586304565 0.55421311172346277 -0.33004221769479603 -0.92229438185691826 0.43058393683698443 -0.7322874344140291 -0.60773721630961919
leaf_weight=21 23 24 23 27 36 39 20 27 32 37
leaf_count=21 23 24 23 27 36 39 20 27 32 37
internal_value=0 0.206272 0.0815555 -0.116314 0.202032 -0.334715 -0.530806 0.655378 -0.50193 -0.374836
internal_weight=0 219 195 145 59 86 59 50 90 58
internal_count=309 219 195 145 59 86 59 50 90 58
cat_boundaries=0 1
cat_threshold=1
is_linear=0
shrinkage=0.03


Tree=51
num_leaves=13
num_cat=0
split_feature=6 2 3 4 6 0 5 8 9 5 0 0
split_gain=33811.5 21224.1 20963.6 14211.4 10629.2 8296.12 5908.48 5820.11 7108.85 5212.47 2865.22 3729.57
threshold=-0.33193550983032655 0.74192578268537146 0.77349618037592671 -0.13423262414563858 -0.87374952587624122 -1.2232982179951342 0.90724416254811191 -0.35862953743766879 1.0000000180025095e-35 0.37068325714795763 0.074987489634165086 -0.68870998544189377
decision_type=2 2 2 2 2 2 2 2 2 2 2 2
left_child=1 3 5 4 -1 -2 -5 10 -9 -3 11 -7
right_child=2 9 -4 6 -6 7 -8 8 -10 -11 -12 -13
leaf_value=-0.79967081665992734 0.042023444175720209 1.186604391181469 0.4752574740041946 0.83749651380947654 0.15591378125277433 -0.54330334818363191 0.11700936126708984 0.077501377509190492 -0.63849970579147342 0.53682762018218633 -0.45705653632509297 -1.1034552165736322
leaf_weight=20 30 25 29 21 22 20 20 26 24 20 29 23
leaf_count=20 30 25 29 21 22 20 20 26 24 20 29 23
internal_value=0 0.373172 -0.2639 0.0887265 -0.299127 -0.404924 0.486039 -0.514829 -0.266179 0.897815 -0.687502 -0.842919
internal_weight=0 128 181 83 42 152 41 122 50 45 72 43
internal_count=309 128 181 83 42 152 41 122 50 45 72 43
is_linear=0
shrinkage=0.03


Tree=52
num_leaves=12
num_cat=1
split_feature=2 9 7 5 3 1 8 0 9 0 0
split_gain=32076.7 22659.7 15422.2 16827.7 9641.39 5615.95 6180.51 5898.28 4356.15 4040.04 2916.46
threshold=-0.1644622658136172 0.89171222263667138 -0.22129653992183232 -0.26792297381909475 0.85794209230950369 0 -0.21889338587640617 -0.91781922796471116 0.19504973495587777 -0.26867637415006179 1.0000000180025095e-35
decision_type=2 2 2 2 2 1 2 2 2 2 2
left_child=4 2 -2 -4 5 6 7 -1 -5 -7 -9
right_child=1 -3 3 8 -6 9 -8 10 -10 -11 -12
leaf_value=0.023442741849205712 -0.45251557040959595 0.96041094189560083 1.0332116920839656 0.30995126771926879 0.32117633843421939 -0.91777488625567882 0.23538672924041748 -0.84428095579147333 -0.21034081310033798 -0.40593944753919325 -0.33195190751552583
leaf_weight=22 32 37 22 30 20 23 20 20 28 35 20
leaf_count=22 32 37 22 30 20 23 20 20 28 35 20
internal_value=0 0.316741 0.1041 0.326746 -0.294965 -0.382985 -0.223185 -0.371112 0.0587758 -0.608909 -0.588116
internal_weight=0 149 112 80 160 140 82 62 58 58 40
internal_count=309 149 112 80 160 140 82 62 58 58 40
cat_boundaries=0 1
cat_threshold=1
is_linear=0
shrinkage=0.03


Tree=53
num_leaves=12
num_cat=1
split_feature=8 2 3 0 6 4 0 4 7 1 0
split_gain=30503 27174.3 21422 9741.83 13148.4 7453.5 5170.13 6563.26 3123.86 2727.91 5224.74
threshold=-0.63364494117142811 1.4670362214845618 0.77349618037592671 -1.1469284704875284 -0.58349201728021582 -0.13423262414563858 1.0000000180025095e-35 0.38646691642125591 0.089024115679214658 0 -0.91781922796471116
decision_type=2 2 2 2 2 2 2 2 2 1 2
left_child=9 2 3 -2 5 -5 -6 -8 -4 10 -1
right_child=1 -3 8 4 6 -7 7 -9 -10 -11 -12
leaf_value=0.035668827806200301 0.50394612729549404 1.1436338949203491 0.86622996553130771 -0.21551906444809654 -0.80362627573013301 0.54160816154479974 0.073053741645812978 -0.59570595783846725 0.39044958737161423 -0.68731703951954837 -0.55678833710180742
leaf_weight=21 20 24 23 22 25 25 25 28 27 32 37
leaf_count=21 20 24 23 22 25 25 25 28 27 32 37
internal_value=0 0.191079 0.0738413 -0.110803 -0.209162 0.187208 -0.448001 -0.280253 0.609309 -0.464959 -0.342278
internal_weight=0 219 195 145 125 47 78 53 50 90 58
internal_count=309 219 195 145 125 47 78 53 50 90 58
cat_boundaries=0 1
cat_threshold=1
is_linear=0
shrinkage=0.03


Tree=54
num_leaves=13
num_cat=0
split_feature=6 2 3 4 6 0 3 5 5 5 5 6
split_gain=29025.7 18385.2 17607.9 12701 10023.3 7259.23 5608.08 5470.32 4925.36 8372.45 4607.67 3086.24
threshold=-0.33193550983032655 0.74192578268537146 0.77349618037592671 -0.13423262414563858 -0.87374952587624122 -1.2232982179951342 -1.0481228043984911 0.90724416254811191 0.53527249193328152 -0.55101645764985041 0.37068325714795763 0.59688851767695572
decision_type=2 2 2 2 2 2 2 2 2 2 2 2
left_child=1 3 5 4 -1 -2 -7 -5 9 -8 -3 -11
right_child=2 10 -4 7 -6 6 8 -9 -10 11 -12 -13
leaf_value=-0.77171804952621459 0.044327997446060183 1.1055690334796904 0.43291034805363621 0.79479727881295337 0.15623427564447576 -0.84080671869475265 -0.057901929749382866 0.10153917217254638 0.054122112035751339 -0.9915151640347073 0.49465090262889866 -0.49818724565505978
leaf_weight=20 30 25 29 21 22 29 27 20 20 21 20 25
leaf_count=20 30 25 29 21 22 29 27 20 20 21 20 25
internal_value=0 0.345754 -0.244511 0.0810159 -0.285648 -0.373756 -0.476564 0.456623 -0.362983 -0.477258 0.83405 -0.723402
internal_weight=0 128 181 83 42 152 122 41 93 73 45 46
internal_count=309 128 181 83 42 152 122 41 93 73 45 46
is_linear=0
shrinkage=0.03


Tree=55
num_leaves=13
num_cat=0
split_feature=8 2 3 0 6 0 0 4 7 9 9 9
split_gain=27750.3 24618.3 19214 9008.22 11665.8 6971.93 4830.03 6294.78 2900.33 2643.44 3692.9 1618.65
threshold=-0.63364494117142811 1.4670362214845618 0.77349618037592671 -1.1469284704875284 -0.58349201728021582 0.22772698464937713 1.0000000180025095e-35 0.38646691642125591 0.089024115679214658 -1.3724408623259057 -0.67577837464511326 1.0000000180025095e-35
decision_type=2 2 2 2 2 2 2 2 2 2 2 2
left_child=9 2 3 -2 5 -5 -6 -8 -4 -1 -11 -12
right_child=1 -3 8 4 6 -7 7 -9 -10 10 11 -13
leaf_value=-0.13931090676784513 0.48694452667236326 1.0889040574245155 0.8253453690072764 -0.18312380746006965 -0.76748724803924562 0.54780855805977535 0.084384076881408684 -0.57055451229214671 0.36690380997127953 -0.86323573384966168 -0.2320978954103258 -0.5787564731524748
leaf_weight=20 20 24 23 24 25 23 25 28 27 21 27 22
leaf_count=20 20 24 23 24 25 23 25 28 27 21 27 22
internal_value=0 0.182253 0.0706654 -0.104204 -0.198788 0.174566 -0.423758 -0.261621 0.577787 -0.443483 -0.530389 -0.387741
internal_weight=0 219 195 145 125 47 78 53 50 90 70 49
internal_count=309 219 195 145 125 47 78 53 50 90 70 49
is_linear=0
shrinkage=0.03


Tree=56
num_leaves=11
num_cat=1
split_feature=2 9 7 5 3 3 8 9 1 3
split_gain=26413.5 19881.9 13078.5 14984.3 7854.97 5360.32 9848.44 4196.3 4073.93 6073.1
threshold=-0.1644622658136172 0.89171222263667138 -0.22129653992183232 -0.26792297381909475 0.85794209230950369 1.0000000180025095e-35 -0.21889338587640617 0.19504973495587777 0 -0.73446655547234019
decision_type=2 2 2 2 2 2 2 2 1 2
left_child=4 2 -2 -4 5 6 8 -5 9 -1
right_child=1 -3 3 7 -6 -7 -8 -9 -10 -11
leaf_value=-0.53800944203452672 -0.42433686241507529 0.89035162113808297 0.95992225316437807 0.28693024587631222 0.28847490620613098 -0.70256932771205904 0.2600565282198099 -0.22372612621103014 -0.71165452003479002 0.086039620828628538
leaf_weight=32 32 37 22 30 20 30 26 28 27 25
leaf_count=32 32 37 22 30 20 30 26 28 27 25
internal_value=0 0.287423 0.0882418 0.293273 -0.267663 -0.347111 -0.250168 0.0404065 -0.408095 -0.264304
internal_weight=0 149 112 80 160 140 110 58 84 57
internal_count=309 149 112 80 160 140 110 58 84 57
cat_boundaries=0 1
cat_threshold=1
is_linear=0
shrinkage=0.03


Tree=57
num_leaves=13
num_cat=0
split_feature=8 2 3 0 6 4 0 4 7 9 9 5
split_gain=24932.7 22560.6 17469.4 8377.66 10508.1 6800.46 4540.91 6038.64 2787.06 2476.04 3480.47 2827.1
threshold=-0.63364494117142811 1.4670362214845618 0.77349618037592671 -1.1469284704875284 -0.58349201728021582 -0.13423262414563858 1.0000000180025095e-35 0.38646691642125591 0.089024115679214658 -1.3724408623259057 -0.15328150888451841 -0.51809861069278595
decision_type=2 2 2 2 2 2 2 2 2 2 2 2
left_child=9 2 3 -2 5 -5 -6 -8 -4 -1 11 -11
right_child=1 -3 8 4 6 -7 7 -9 -10 10 -12 -13
leaf_value=-0.12598327052593231 0.46927252364158628 1.0406860294938087 0.79215814434963727 -0.22235926671461625 -0.73882370209693904 0.5008402034282684 0.090561111831665028 -0.55091403492859436 0.34275749815834888 -0.93988370132446286 -0.26021096444129943 -0.43546402537822726
leaf_weight=20 20 24 23 22 25 25 25 28 27 20 30 20
leaf_count=20 20 24 23 22 25 25 25 28 27 20 30 20
internal_value=0 0.172753 0.0659307 -0.100811 -0.192024 0.162321 -0.40554 -0.248331 0.549482 -0.420366 -0.504475 -0.687674
internal_weight=0 219 195 145 125 47 78 53 50 90 70 40
internal_count=309 219 195 145 125 47 78 53 50 90 70 40
is_linear=0
shrinkage=0.03


Tree=58
num_leaves=12
num_cat=0
split_feature=8 6 3 6 9 4 0 0 2 4 3
split_gain=23758.1 12403.4 10134.9 8221.17 6879.97 6991.25 6581.07 6373.46 4848.37 3364.04 3047.67
threshold=0.56850410269659535 -0.33193550983032655 0.77349618037592671 -0.87374952587624122 0.71754660071647347 0.47325017318240531 -0.76507973294949949 1.0000000180025095e-35 -0.88957270461280802 -0.22101588090678725 -0.15540886536985141
decision_type=2 2 2 2 2 2 2 2 2 2 2
left_child=1 3 6 -1 5 -2 8 -8 -3 -5 -9
right_child=4 2 -4 9 -6 -7 7 10 -10 -11 -12
leaf_value=-0.21203621912002563 0.59655577200651166 -0.45571210904554887 0.32101393926143645 0.16970748833247593 0.73337101512833636 -0.16290315151214599 -0.89621366232633592 -0.57116891026496885 0.14425021198060775 0.70668650797435217 -0.11917435512542725
leaf_weight=30 20 22 20 21 38 24 32 29 27 21 25
leaf_count=30 20 22 20 21 38 24 32 29 27 21 25
internal_value=0 -0.158104 -0.309243 0.167266 0.437677 0.182305 -0.402615 -0.560722 -0.125121 0.438197 -0.361912
internal_weight=0 227 155 72 82 44 135 86 49 42 54
internal_count=309 227 155 72 82 44 135 86 49 42 54
is_linear=0
shrinkage=0.03


Tree=59
num_leaves=11
num_cat=1
split_feature=2 9 7 5 3 3 8 9 1 3
split_gain=22575 17648.7 11656 13731.2 6608.98 5164.11 8587.15 4132.93 3890.84 5692.43
threshold=-0.1644622658136172 0.89171222263667138 -0.22129653992183232 -0.26792297381909475 0.85794209230950369 1.0000000180025095e-35 -0.21889338587640617 0.19504973495587777 0 -0.73446655547234019
decision_type=2 2 2 2 2 2 2 2 1 2
left_child=4 2 -2 -4 5 6 8 -5 9 -1
right_child=1 -3 3 7 -6 -7 -8 -9 -10 -11
leaf_value=-0.4971068526059389 -0.40584565401077272 0.83377665948223412 0.90978333917531096 0.27421061354875564 0.26267536211013792 -0.66921757268905635 0.25125994425553538 -0.23257555450711931 -0.66930112044016521 0.10706798665523529
leaf_weight=32 32 37 22 30 20 30 26 28 27 25
leaf_count=32 32 37 22 30 20 30 26 28 27 25
internal_value=0 0.265719 0.0780569 0.271618 -0.247451 -0.320326 -0.225174 0.0295552 -0.372641 -0.232118
internal_weight=0 149 112 80 160 140 110 58 84 57
internal_count=309 149 112 80 160 140 110 58 84 57
cat_boundaries=0 1
cat_threshold=1
is_linear=0
shrinkage=0.03


Tree=60
num_leaves=12
num_cat=1
split_feature=8 2 3 0 6 4 0 4 7 1 0
split_gain=21424.8 20176.8 15216 7607.81 9027.19 6552.46 4063.14 5758.07 2701.41 2416.54 4441.44
threshold=-0.63364494117142811 1.4670362214845618 0.77349618037592671 -1.1469284704875284 -0.58349201728021582 -0.13423262414563858 1.0000000180025095e-35 0.38646691642125591 0.089024115679214658 0 -0.91781922796471116
decision_type=2 2 2 2 2 2 2 2 2 1 2
left_child=9 2 3 -2 5 -5 -6 -8 -4 10 -1
right_child=1 -3 8 4 6 -7 7 -9 -10 -11 -12
leaf_value=0.074259576797485349 0.44676101374626159 0.98093935959041112 0.74932470622269998 -0.23259220361709593 -0.69658177800178533 0.47729764382243151 0.098315703392028803 -0.52808003936495096 0.3068833170996772 -0.59895745798945421 -0.47198418462598646
leaf_weight=21 20 24 23 22 25 25 25 28 27 32 37
leaf_count=21 20 24 23 22 25 25 25 28 27 32 37
internal_value=0 0.16014 0.0591182 -0.0964983 -0.18342 0.145009 -0.381319 -0.23261 0.510406 -0.389673 -0.274206
internal_weight=0 219 195 145 125 47 78 53 50 90 58
internal_count=309 219 195 145 125 47 78 53 50 90 58
cat_boundaries=0 1
cat_threshold=1
is_linear=0
shrinkage=0.03


Tree=61
num_leaves=11
num_cat=1
split_feature=2 9 7 5 3 3 8 9 1 3
split_gain=20286.4 16256 10645.4 12808 5942.7 4828.04 7803.54 3931.2 3558.64 5393.03
threshold=-0.1644622658136172 0.89171222263667138 -0.22129653992183232 -0.26792297381909475 0.85794209230950369 1.0000000180025095e-35 -0.21889338587640617 0.19504973495587777 0 -0.73446655547234019
decision_type=2 2 2 2 2 2 2 2 1 2
left_child=4 2 -2 -4 5 6 8 -5 9 -1
right_child=1 -3 3 7 -6 -7 -8 -9 -10 -11
leaf_value=-0.47578648835420606 -0.39066390702500936 0.79707315635842246 0.87310206608338781 0.2615908415913582 0.24915638852119443 -0.64102478873729707 0.24250273553224708 -0.23267239962305339 -0.63596359888712561 0.11228496360182762
leaf_weight=32 32 37 22 30 20 30 26 28 27 25
leaf_count=32 32 37 22 30 20 30 26 28 27 25
internal_value=0 0.25189 0.0717848 0.256764 -0.234573 -0.303677 -0.211673 0.022981 -0.352251 -0.21786
internal_weight=0 149 112 80 160 140 110 58 84 57
internal_count=309 149 112 80 160 140 110 58 84 57
cat_boundaries=0 1
cat_threshold=1
is_linear=0
shrinkage=0.03


Tree=62
num_leaves=12
num_cat=2
split_feature=2 8 6 8 3 5 5 1 5 0 1
split_gain=19574.5 18322.5 9461.39 7404.87 11123.6 11967.2 7989.55 7519.3 3992.19 3057.35 2913.58
threshold=1.5123556239095111 1.1248151688786534 1.0613005314305972 -0.63364494117142811 0.77349618037592671 1.0027059187235989 0.048088356968725494 0 0.31801470201665555 0.074987489634165086 1
decision_type=2 2 2 2 2 2 2 1 2 2 1
left_child=1 2 3 10 5 6 7 -5 -3 -4 -1
right_child=-2 8 9 4 -6 -7 -8 -9 -10 -11 -12
leaf_value=-0.16648592673815213 0.86241537695581261 0.20606867694854736 -0.83485002636909478 0.18078739272223579 0.60921223874275499 -0.74431891286373142 0.41993567669391635 -0.5412499165534973 0.79170089331540194 -0.33721043930053707 -0.56759352564811705
leaf_weight=39 22 20 20 27 26 20 35 25 22 25 28
leaf_count=39 22 20 20 27 26 20 35 25 22 25 28
internal_value=0 -0.0661085 -0.165355 -0.0769233 0.0526383 -0.0826039 0.0695145 -0.166346 0.512828 -0.558384 -0.334113
internal_weight=0 287 245 200 133 107 87 52 42 45 67
internal_count=309 287 245 200 133 107 87 52 42 45 67
cat_boundaries=0 1 2
cat_threshold=1 1
is_linear=0
shrinkage=0.03


Tree=63
num_leaves=12
num_cat=2
split_feature=2 8 6 8 3 5 5 1 5 0 1
split_gain=18417.6 17239.7 8902.22 6967.24 10466.2 11260 7517.37 7074.91 3756.25 2876.66 2741.39
threshold=1.5123556239095111 1.1248151688786534 1.0613005314305972 -0.63364494117142811 0.77349618037592671 1.0027059187235989 0.048088356968725494 0 0.31801470201665555 0.074987489634165086 1
decision_type=2 2 2 2 2 2 2 1 2 2 1
left_child=1 2 3 10 5 6 7 -5 -3 -4 -1
right_child=-2 8 9 4 -6 -7 -8 -9 -10 -11 -12
leaf_value=-0.16149135736318734 0.83654292258349328 0.1998866271972656 -0.80980452677607528 0.17536377747853596 0.59093586197266212 -0.72198932976275676 0.40733761208398001 -0.52501242313384999 0.76794987071644172 -0.3270941340923309 -0.55056571534701748
leaf_weight=39 22 20 20 27 26 20 35 25 22 25 28
leaf_count=39 22 20 20 27 26 20 35 25 22 25 28
internal_value=0 -0.0641252 -0.160394 -0.0746156 0.0510592 -0.0801258 0.0674291 -0.161356 0.497444 -0.541632 -0.32409
internal_weight=0 287 245 200 133 107 87 52 42 45 67
internal_count=309 287 245 200 133 107 87 52 42 45 67
cat_boundaries=0 1 2
cat_threshold=1 1
is_linear=0
shrinkage=0.03


Tree=64
num_leaves=11
num_cat=1
split_feature=2 9 7 5 3 3 8 9 1 3
split_gain=17628.5 14477.6 9301.24 12420.2 4836.42 4596.29 6636.04 3646.52 3216.8 5167.89
threshold=-0.1644622658136172 0.89171222263667138 -0.22129653992183232 -0.26792297381909475 0.85794209230950369 1.0000000180025095e-35 -0.21889338587640617 0.19504973495587777 0 -0.73446655547234019
decision_type=2 2 2 2 2 2 2 2 1 2
left_child=4 2 -2 -4 5 6 8 -5 9 -1
right_child=1 -3 3 7 -6 -7 -8 -9 -10 -11
leaf_value=-0.44558737993240355 -0.36742604882223528 0.74930812123659496 0.8446841018850153 0.23733960676193236 0.21772071790695191 -0.61015982824563975 0.22758604226204066 -0.23869127971785409 -0.59061728795369461 0.1300782461643219
leaf_weight=32 32 37 22 30 20 30 26 28 27 25
leaf_count=32 32 37 22 30 20 30 26 28 27 25
internal_value=0 0.23481 0.0648415 0.237749 -0.218667 -0.281008 -0.191239 0.00753159 -0.320875 -0.193102
internal_weight=0 149 112 80 160 140 110 58 84 57
internal_count=309 149 112 80 160 140 110 58 84 57
cat_boundaries=0 1
cat_threshold=1
is_linear=0
shrinkage=0.03


Tree=65
num_leaves=13
num_cat=1
split_feature=2 8 6 8 3 5 5 1 5 0 0 2
split_gain=16855.4 15494 8252.09 6191.22 9693.24 10603.4 7088.79 6663.56 3642.16 2652.38 2485.39 3134.66
threshold=1.5123556239095111 1.1248151688786534 1.0613005314305972 -0.63364494117142811 0.77349618037592671 1.0027059187235989 0.048088356968725494 0 0.31801470201665555 0.074987489634165086 -0.26867637415006179 -0.8669130034003335
decision_type=2 2 2 2 2 2 2 1 2 2 2 2
left_child=1 2 3 10 5 6 7 -5 -3 -4 11 -1
right_child=-2 8 9 4 -6 -7 -8 -9 -10 -11 -12 -13
leaf_value=-0.41133683258836917 0.80027806422927161 0.17802891361713408 -0.77716940724849704 0.17000318527221678 0.56800557072346025 -0.70067056374996894 0.39546343578611098 -0.50970782318115226 0.73739911079406739 -0.31365839052200317 -0.54202289628982547 0.10760048711299895
leaf_weight=22 22 20 20 27 26 20 35 25 22 25 25 20
leaf_count=22 22 20 20 27 26 20 35 25 22 25 25 20
internal_value=0 -0.0613454 -0.15261 -0.0700231 0.0484462 -0.0778019 0.0653863 -0.156781 0.471032 -0.519663 -0.305194 -0.164224
internal_weight=0 287 245 200 133 107 87 52 42 45 67 42
internal_count=309 287 245 200 133 107 87 52 42 45 67 42
cat_boundaries=0 1
cat_threshold=1
is_linear=0
shrinkage=0.03


Tree=66
num_leaves=13
num_cat=0
split_feature=6 2 4 6 3 0 3 3 5 0 3 4
split_gain=15978 11717.8 9814.72 9845.03 8861.07 5558.38 4679.7 4394.01 4276.95 4208.91 4511.92 4075.55
threshold=-0.33193550983032655 0.74192578268537146 -0.13423262414563858 -0.87374952587624122 0.77349618037592671 -1.2232982179951342 -1.0481228043984911 0.20650219094420424 0.90724416254811191 0.22772698464937713 -0.38461920091478324 0.29968365966010674
decision_type=2 2 2 2 2 2 2 2 2 2 2 2
left_child=1 2 3 -1 5 -2 -7 9 -4 10 -8 -3
right_child=4 11 8 -5 -6 6 7 -9 -10 -11 -12 -13
leaf_value=-0.7588704310655594 0.092742245197296139 0.95157055037362226 0.67438139625958038 0.16079116669568147 0.29914677709597964 -0.69579077303409576 -0.033321086168289181 -0.6089521718025207 0.061388179779052726 0.16363136058816541 -0.64942990136146539 0.37929489672183991
leaf_weight=20 30 21 21 22 29 29 23 24 20 26 20 24
leaf_count=20 30 21 21 22 29 29 23 24 20 26 20 24
internal_value=0 0.25653 0.045178 -0.277143 -0.181413 -0.273099 -0.36306 -0.259306 0.37536 -0.137689 -0.319883 0.646357
internal_weight=0 128 83 42 181 152 122 93 41 69 43 45
internal_count=309 128 83 42 181 152 122 93 41 69 43 45
is_linear=0
shrinkage=0.03


Tree=67
num_leaves=11
num_cat=1
split_feature=2 9 7 5 3 3 8 9 1 3
split_gain=15293.6 13084.1 8114.6 11551.4 4021.94 4309.58 5886.1 3378.37 3134.97 4661.31
threshold=-0.1644622658136172 0.89171222263667138 -0.22129653992183232 -0.26792297381909475 0.85794209230950369 1.0000000180025095e-35 -0.21889338587640617 0.19504973495587777 0 -0.73446655547234019
decision_type=2 2 2 2 2 2 2 2 1 2
left_child=4 2 -2 -4 5 6 8 -5 9 -1
right_child=1 -3 3 7 -6 -7 -8 -9 -10 -11
leaf_value=-0.4093428961839527 -0.34662701558321712 0.70781875365489233 0.80395011891018253 0.21780528593063353 0.19427806878089904 -0.57924189186096198 0.22085249782754826 -0.24038867226668767 -0.56197845326529605 0.13738054962158203
leaf_weight=32 32 37 22 30 20 30 26 28 27 25
leaf_count=32 32 37 22 30 20 30 26 28 27 25
internal_value=0 0.218707 0.057126 0.218627 -0.203671 -0.260521 -0.173597 -0.0033918 -0.295689 -0.169552
internal_weight=0 149 112 80 160 140 110 58 84 57
internal_count=309 149 112 80 160 140 110 58 84 57
cat_boundaries=0 1
cat_threshold=1
is_linear=0
shrinkage=0.03


Tree=68
num_leaves=11
num_cat=0
split_feature=2 8 6 3 5 4 9 8 0 0
split_gain=14740 13392 7677.1 6625.47 11829.9 7260.47 5471.37 6089.02 8132.15 2403.93
threshold=1.5123556239095111 1.2347583215047138 1.0613005314305972 1.0027065148351255 0.9467455788965885 0.068261641630375805 1.0000000180025095e-35 -0.41507065415362293 -0.91781922796471116 0.074987489634165086
decision_type=2 2 2 2 2 2 2 2 2 2
left_child=1 2 3 4 5 6 7 8 -1 -4
right_child=-2 -3 9 -5 -6 -7 -8 -9 -10 -11
leaf_value=0.15924382333097786 0.7483774378082968 0.47531967846122947 -0.73618424519151449 0.36184063653429521 -0.71830979409126139 0.43066225056464852 -0.42050779919875297 0.33966625571250914 -0.57908816099166871 -0.29491519653797149
leaf_weight=29 22 37 20 29 26 26 38 32 25 25
leaf_count=29 22 37 20 29 26 26 38 32 25 25
internal_value=0 -0.0573669 -0.136205 -0.058315 -0.127545 -0.0251459 -0.120719 0.0117464 -0.182577 -0.491035
internal_weight=0 287 250 205 176 150 124 86 54 45
internal_count=309 287 250 205 176 150 124 86 54 45
is_linear=0
shrinkage=0.03


Tree=69
num_leaves=12
num_cat=0
split_feature=9 6 9 2 8 0 7 4 0 8 9
split_gain=13945.7 8721.81 9372.98 12146.8 12723.7 5367.11 5057.84 10693 3779.9 2990.09 2478.33
threshold=0.89171222263667138 -0.33193550983032655 1.0000000180025095e-35 -0.52701748521321312 -0.41507065415362293 1.0000000180025095e-35 0.089024115679214658 -0.13423262414563858 0.60957572218740685 -0.95516240910080807 0.19504973495587777
decision_type=2 2 2 2 2 2 2 2 2 2 2
left_child=1 6 3 9 -5 -4 -1 -8 -2 -3 -9
right_child=8 2 5 4 -6 -7 7 10 -10 -11 -12
leaf_value=0.45812469816207885 0.19762155964456754 -0.1868512801453471 -0.96361210012435905 -0.22955875984260013 0.66701793835851642 -0.29819007907062767 -0.53057839424713804 0.51736036062240598 0.69576802040521912 -0.61135869881936478 0.045078760743141169
leaf_weight=30 29 32 20 28 29 24 23 20 26 28 20
leaf_count=30 29 32 20 28 29 24 23 20 26 28 20
internal_value=0 -0.0937834 -0.227393 -0.0870206 0.226594 -0.600655 0.137518 -0.0151511 0.433109 -0.384955 0.28122
internal_weight=0 254 161 117 57 44 93 63 55 60 40
internal_count=309 254 161 117 57 44 93 63 55 60 40
is_linear=0
shrinkage=0.03


Tree=70
num_leaves=12
num_cat=0
split_feature=2 8 6 3 5 4 9 3 2 9 0
split_gain=13636.2 12098.6 6936.93 6071.56 11358.9 6747.28 4962.88 6019.96 12072.8 3126.8 2141.24
threshold=1.5123556239095111 1.2347583215047138 1.0613005314305972 1.0027065148351255 0.9467455788965885 0.068261641630375805 1.0000000180025095e-35 -0.58970213294671758 -0.88957270461280802 -0.67577837464511326 0.074987489634165086
decision_type=2 2 2 2 2 2 2 2 2 2 2
left_child=1 2 3 4 5 6 7 8 -1 -9 -4
right_child=-2 -3 10 -5 -6 -7 -8 9 -10 -11 -12
leaf_value=-0.26281203269958497 0.7198104760863564 0.4511325505295315 -0.69877039754390713 0.34613770840496849 -0.70122812885504504 0.41739961283711285 -0.39965644202734291 -0.49168491287664939 0.73208571848662007 0.026601053595542906 -0.28230826091766359
leaf_weight=21 22 37 20 29 26 26 38 22 23 20 25
leaf_count=21 22 37 20 29 26 26 38 22 23 20 25
internal_value=0 -0.0551771 -0.130111 -0.0560713 -0.122344 -0.0220046 -0.114138 0.0120218 0.257248 -0.244882 -0.467403
internal_weight=0 287 250 205 176 150 124 86 44 42 45
internal_count=309 287 250 205 176 150 124 86 44 42 45
is_linear=0
shrinkage=0.03


Tree=71
num_leaves=12
num_cat=0
split_feature=2 8 6 3 5 4 9 3 2 9 0
split_gain=12830.3 11383.5 6526.96 5712.73 10687.6 6348.52 4669.57 5664.18 11359.3 2942 2014.7
threshold=1.5123556239095111 1.2347583215047138 1.0613005314305972 1.0027065148351255 0.9467455788965885 0.068261641630375805 1.0000000180025095e-35 -0.58970213294671758 -0.88957270461280802 -0.67577837464511326 0.074987489634165086
decision_type=2 2 2 2 2 2 2 2 2 2 2
left_child=1 2 3 4 5 6 7 8 -1 -9 -4
right_child=-2 -3 10 -5 -6 -7 -8 9 -10 -11 -12
leaf_value=-0.25492765575647353 0.698216166713021 0.43759858078247788 -0.67780728828907011 0.33575357609781725 -0.68019130441718378 0.40487761857417914 -0.38766672924945228 -0.47693436416712676 0.71012314174486235 0.025803013086318969 -0.27383900299072267
leaf_weight=21 22 37 20 29 26 26 38 22 23 20 25
leaf_count=21 22 37 20 29 26 26 38 22 23 20 25
internal_value=0 -0.0535218 -0.126208 -0.0543892 -0.118674 -0.0213444 -0.110714 0.0116611 0.249531 -0.237536 -0.45338
internal_weight=0 287 250 205 176 150 124 86 44 42 45
internal_count=309 287 250 205 176 150 124 86 44 42 45
is_linear=0
shrinkage=0.03


Tree=72
num_leaves=11
num_cat=1
split_feature=9 2 5 5 8 6 3 1 0 2
split_gain=12360.7 7669.54 4857.48 10093.3 10360.6 9222.83 5874.75 8408.79 3499.21 2496.91
threshold=0.89171222263667138 0.97985264541635575 0.38385039593078424 -0.55101645764985041 -0.35862953743766879 0.20987850621558804 0.42364882473263671 0 0.60957572218740685 -0.98021150946270696
decision_type=2 2 2 2 2 2 2 1 2 2
left_child=1 2 3 4 9 -4 7 -5 -2 -1
right_child=8 -3 5 6 -6 -7 -8 -9 -10 -11
leaf_value=-0.41806860296262632 0.18117918491363524 0.32406731741768974 0.38344484628949849 -0.0047847077492121099 0.53589618697762487 -0.42413515734672541 -0.86310777021491003 -0.68065602830052374 0.6604727911261411 0.0072967784301094388
leaf_weight=27 29 35 35 37 24 20 23 30 26 23
leaf_count=27 29 35 35 37 24 20 23 30 26 23
internal_value=0 -0.0882933 -0.154196 -0.236017 0.0235335 0.0897794 -0.449424 -0.307414 0.407754 -0.222401
internal_weight=0 254 219 164 74 55 90 67 55 50
internal_count=309 254 219 164 74 55 90 67 55 50
cat_boundaries=0 1
cat_threshold=1
is_linear=0
shrinkage=0.03


Tree=73
num_leaves=11
num_cat=1
split_feature=2 9 7 5 3 3 8 9 1 3
split_gain=11873.1 10565.1 6548.29 10367.3 3157.32 3924.24 4685.54 3018.44 2993.67 4586.51
threshold=-0.1644622658136172 0.89171222263667138 -0.22129653992183232 -0.26792297381909475 0.85794209230950369 1.0000000180025095e-35 -0.21889338587640617 0.19504973495587777 0 -0.73446655547234019
decision_type=2 2 2 2 2 2 2 2 1 2
left_child=4 2 -2 -4 5 6 8 -5 9 -1
right_child=1 -3 3 7 -6 -7 -8 -9 -10 -11
leaf_value=-0.37040739409625528 -0.31519157214090227 0.63221726014001944 0.74709951444105671 0.1913366677761078 0.17313425946235655 -0.53396337765455248 0.20505259391206962 -0.24176174270255224 -0.51602881206406492 0.17191178004909305
leaf_weight=32 32 37 22 30 20 30 26 28 27 25
leaf_count=32 32 37 22 30 20 30 26 28 27 25
internal_value=0 0.192704 0.0475074 0.192587 -0.179455 -0.229825 -0.146879 -0.0177453 -0.25581 -0.132548
internal_weight=0 149 112 80 160 140 110 58 84 57
internal_count=309 149 112 80 160 140 110 58 84 57
cat_boundaries=0 1
cat_threshold=1
is_linear=0
shrinkage=0.03


Tree=74
num_leaves=11
num_cat=0
split_feature=2 8 4 8 8 9 3 3 4 0
split_gain=11377.4 9918.23 6541.29 10015.1 3996.3 6710.02 11749.2 8183.65 4412.31 3932.1
threshold=1.5123556239095111 1.2347583215047138 1.167516227271598 0.45532178030249587 -0.76679118018626891 -0.15328150888451841 0.037610364543674363 -0.58970213294671758 -0.71278766921996606 1.0000000180025095e-35
decision_type=2 2 2 2 2 2 2 2 2 2
left_child=1 2 3 4 8 6 7 -6 -1 -7
right_child=-2 -3 -4 -5 5 9 -8 -9 -10 -11
leaf_value=-0.11243985244861016 0.65749673269011755 0.4080226856792295 -0.63864049199223516 0.43814446449279781 0.26756200313568118 -0.55058056134444022 0.77102111506462101 -0.55411394767463207 -0.58377642196687785 -0.071790816391769208
leaf_weight=39 22 37 20 30 24 26 20 20 33 38
leaf_count=39 22 37 20 30 24 26 20 20 33 38
internal_value=0 -0.0504004 -0.118247 -0.0729955 -0.149666 -0.04909 0.168119 -0.105927 -0.328469 -0.266299
internal_weight=0 287 250 230 200 128 64 44 72 64
internal_count=309 287 250 230 200 128 64 44 72 64
is_linear=0
shrinkage=0.03


Tree=75
num_leaves=12
num_cat=1
split_feature=9 2 3 2 9 1 6 3 2 0 0
split_gain=10759 6668.59 4714.29 11990.7 6378.71 4568.62 5120.23 4731.63 4427.38 3868.35 3220.22
threshold=0.89171222263667138 0.97985264541635575 0.42364882473263671 -0.096483162176193238 -0.066198697924419361 0 1.0613005314305972 -0.90335838187286865 0.22075265479845327 -0.26867637415006179 0.60957572218740685
decision_type=2 2 2 2 2 1 2 2 2 2 2
left_child=1 2 3 5 -4 6 7 -1 -5 -7 -2
right_child=10 -3 4 8 -6 9 -8 -9 -10 -11 -12
leaf_value=-0.17984377098083495 0.16306447653934872 0.30213714592797414 0.032598365038633344 0.69946570730209345 -0.64637638552622356 -0.73237186854535885 -0.40704621206825742 0.40383177194595338 0.075785845177514216 -0.19646567271815407 0.62285474745126868
leaf_weight=25 29 35 20 20 33 22 26 25 21 27 26
leaf_count=25 29 35 20 20 33 22 26 25 21 27 26
internal_value=0 -0.0823744 -0.143826 -0.0651773 -0.390159 -0.211202 -0.0655724 0.111994 0.38002 -0.437077 0.38042
internal_weight=0 254 219 166 53 125 76 50 41 49 55
internal_count=309 254 219 166 53 125 76 50 41 49 55
cat_boundaries=0 1
cat_threshold=1
is_linear=0
shrinkage=0.03


Tree=76
num_leaves=11
num_cat=0
split_feature=2 8 4 8 8 5 5 4 9 4
split_gain=10376.4 9124.69 6232.09 10015.1 3639.6 6333.81 6292.89 7322.54 6488.45 4159.71
threshold=1.5123556239095111 1.3705038330481389 1.167516227271598 0.45532178030249587 -0.76679118018626891 -0.98224025278739624 -0.34692580651604998 0.47325017318240531 -0.066198697924419361 -0.71278766921996606
decision_type=2 2 2 2 2 2 2 2 2 2
left_child=1 2 3 4 9 -6 -7 8 -8 -1
right_child=-2 -3 -4 -5 5 6 7 -9 -10 -11
leaf_value=-0.10341380091813894 0.62790656512433829 0.43797104277918414 -0.58973800497976214 0.41439919278902165 0.44384570565819742 -0.51532554905990069 0.55614358887076376 -0.46352230879393491 -0.092142302773215556 -0.56105992306362495
leaf_weight=39 22 31 22 34 20 29 24 22 33 33
leaf_count=39 22 31 22 34 20 29 24 22 33 33
internal_value=0 -0.0481322 -0.106996 -0.0616103 -0.142532 -0.046549 -0.137363 0.00138303 0.18082 -0.313168
internal_weight=0 287 256 234 200 128 108 79 57 72
internal_count=309 287 256 234 200 128 108 79 57 72
is_linear=0
shrinkage=0.03


Tree=77
num_leaves=12
num_cat=1
split_feature=9 2 3 2 9 1 6 3 2 0 0
split_gain=9875.87 6052.66 4465.43 11113.3 6095.22 4309.29 4658.16 4403.41 4109.68 3635.36 2973.23
threshold=0.89171222263667138 0.97985264541635575 0.42364882473263671 -0.096483162176193238 -0.066198697924419361 0 1.0613005314305972 -0.90335838187286865 0.22075265479845327 -0.26867637415006179 0.60957572218740685
decision_type=2 2 2 2 2 1 2 2 2 2 2
left_child=1 2 3 5 -4 6 7 -1 -5 -7 -2
right_child=10 -3 4 8 -6 9 -8 -9 -10 -11 -12
leaf_value=-0.17223558254241944 0.15561915192110784 0.28740288223539079 0.036047032177448271 0.67544971686601629 -0.62766863649541671 -0.70713712497190995 -0.38576780002850747 0.39083265066146849 0.07456295311450957 -0.18762025899357265 0.59742504770939164
leaf_weight=25 29 35 20 20 33 22 26 25 21 27 26
leaf_count=25 29 35 20 20 33 22 26 25 21 27 26
internal_value=0 -0.0789213 -0.137466 -0.0609216 -0.37721 -0.201502 -0.0600663 0.109299 0.367678 -0.420873 0.364473
internal_weight=0 254 219 166 53 125 76 50 41 49 55
internal_count=309 254 219 166 53 125 76 50 41 49 55
cat_boundaries=0 1
cat_threshold=1
is_linear=0
shrinkage=0.03


Tree=78
num_leaves=11
num_cat=0
split_feature=2 8 4 8 8 5 5 4 9 4
split_gain=9463.67 8396.11 5908.22 9183.12 3314.42 6006.64 5921.26 6913.4 6029.15 3921.61
threshold=1.5123556239095111 1.3705038330481389 1.167516227271598 0.45532178030249587 -0.76679118018626891 -0.98224025278739624 -0.34692580651604998 0.47325017318240531 -0.066198697924419361 -0.71278766921996606
decision_type=2 2 2 2 2 2 2 2 2 2
left_child=1 2 3 4 9 -6 -7 8 -8 -1
right_child=-2 -3 -4 -5 5 6 7 -9 -10 -11
leaf_value=-0.094900775826894324 0.59965477385304189 0.42032587212900963 -0.57246250407262278 0.39756935014444239 0.43342762504890558 -0.4992032422690556 0.53816348284482962 -0.44971497959034007 -0.086756168712269183 -0.53925630493597543
leaf_weight=39 22 31 22 34 20 29 24 22 33 33
leaf_count=39 22 31 22 34 20 29 24 22 33 33
internal_value=0 -0.0459666 -0.102432 -0.0582407 -0.135728 -0.0441336 -0.132571 0.0020157 0.176368 -0.298564
internal_weight=0 287 256 234 200 128 108 79 57 72
internal_count=309 287 256 234 200 128 108 79 57 72
is_linear=0
shrinkage=0.03


Tree=79
num_leaves=12
num_cat=0
split_feature=9 6 9 2 8 0 7 4 8 0 9
split_gain=9066.74 5572.66 7440.51 9479.64 10442.7 4809.51 4686.27 8863.25 3137.53 2744.78 2393.92
threshold=0.89171222263667138 -0.33193550983032655 1.0000000180025095e-35 -0.52701748521321312 -0.35862953743766879 1.0000000180025095e-35 0.089024115679214658 -0.13423262414563858 -0.95516240910080807 0.60957572218740685 0.19504973495587777
decision_type=2 2 2 2 2 2 2 2 2 2 2
left_child=1 6 3 8 -5 -4 -1 -8 -3 -2 -9
right_child=9 2 5 4 -6 -7 7 10 -10 -11 -12
leaf_value=0.41787333154678347 0.14855386561360853 -0.11762170672416687 -0.85856883287429808 -0.1792957709164455 0.63295040315815376 -0.2286601984873414 -0.50694663700850118 0.4642220857143402 -0.5524688982112067 0.57304669205959025 5.3282998502254487e-05
leaf_weight=30 29 32 20 29 28 24 23 20 28 26 20
leaf_count=30 29 32 20 29 28 24 23 20 28 26 20
internal_value=0 -0.0756192 -0.182417 -0.0573503 0.219702 -0.514982 0.109268 -0.0376868 -0.32055 0.349223 0.232138
internal_weight=0 254 161 117 57 44 93 63 60 55 40
internal_count=309 254 161 117 57 44 93 63 60 55 40
is_linear=0
shrinkage=0.03


Tree=80
num_leaves=11
num_cat=0
split_feature=2 8 4 8 8 5 5 4 9 4
split_gain=8759.54 7585.79 5697.09 8370.38 3051.17 5698.02 5557.58 6511.65 5535.22 3619.64
threshold=1.5123556239095111 1.3705038330481389 1.167516227271598 0.45532178030249587 -0.76679118018626891 -0.98224025278739624 -0.34692580651604998 0.47325017318240531 -0.066198697924419361 -0.71278766921996606
decision_type=2 2 2 2 2 2 2 2 2 2
left_child=1 2 3 4 9 -6 -7 8 -8 -1
right_child=-2 -3 -4 -5 5 6 7 -9 -10 -11
leaf_value=-0.089050155018384633 0.57691546647386116 0.39899715924935952 -0.5594506219300357 0.38067187333808222 0.42453323154151434 -0.48192820713437839 0.519524487555027 -0.43475386813113637 -0.079250428893349392 -0.51595490805127397
leaf_weight=39 22 31 22 34 20 29 24 22 33 33
leaf_count=39 22 31 22 34 20 29 24 22 33 33
internal_value=0 -0.0442235 -0.0978947 -0.0545006 -0.12848 -0.0405978 -0.126733 0.00365492 0.172865 -0.284715
internal_weight=0 287 256 234 200 128 108 79 57 72
internal_count=309 287 256 234 200 128 108 79 57 72
is_linear=0
shrinkage=0.03


Tree=81
num_leaves=12
num_cat=1
split_feature=9 2 3 2 9 1 6 3 2 0 0
split_gain=8325.89 5210.11 4271.7 9850.78 5699.61 4047.04 4001.87 4017.28 3653.35 3307.36 2533.31
threshold=0.89171222263667138 0.97985264541635575 0.42364882473263671 -0.096483162176193238 -0.066198697924419361 0 1.0613005314305972 -0.90335838187286865 0.22075265479845327 -0.26867637415006179 0.60957572218740685
decision_type=2 2 2 2 2 1 2 2 2 2 2
left_child=1 2 3 5 -4 6 7 -1 -5 -7 -2
right_child=10 -3 4 8 -6 9 -8 -9 -10 -11 -12
leaf_value=-0.15913105659484861 0.14186718217257796 0.26740863266587256 0.038353640913963316 0.64178612159192561 -0.6034610809182579 -0.6699060014329602 -0.34909239374674284 0.37868292131423947 0.07524161668760436 -0.17437959843211703 0.54968010498927189
leaf_weight=25 29 35 20 20 33 22 26 25 21 27 26
leaf_count=25 29 35 20 20 33 22 26 25 21 27 26
internal_value=0 -0.0724639 -0.126781 -0.0519156 -0.361267 -0.18427 -0.0472053 0.109776 0.351605 -0.396861 0.334651
internal_weight=0 254 219 166 53 125 76 50 41 49 55
internal_count=309 254 219 166 53 125 76 50 41 49 55
cat_boundaries=0 1
cat_threshold=1
is_linear=0
shrinkage=0.03


Tree=82
num_leaves=11
num_cat=0
split_feature=2 8 4 9 8 5 0 8 4 9
split_gain=7995.99 6186.35 4230.29 8060.07 4607.83 5223 6741.87 5211.61 3559.37 2435.23
threshold=1.4670362214845618 1.2347583215047138 0.9939497137492993 0.89171222263667138 0.45532178030249587 -0.55101645764985041 -0.84144948045710533 -0.95516240910080807 -0.22101588090678725 1.0000000180025095e-35
decision_type=2 2 2 2 2 2 2 2 2 2
left_child=1 2 3 4 5 7 -7 -1 -8 -10
right_child=-2 -3 -4 -5 -6 6 8 -9 9 -11
leaf_value=-0.24452400359240445 0.48345073731882227 0.32500747070993696 -0.47115110764503476 0.51492532110214229 0.28301749477891819 0.099410795356546136 -0.78821795654296867 0.27080881418758318 -0.16551027269022806 -0.55786414556205277
leaf_weight=33 28 35 25 20 23 28 20 38 35 24
leaf_count=33 28 35 25 20 23 28 20 38 35 24
internal_value=0 -0.048173 -0.101268 -0.0594258 -0.116575 -0.168208 -0.300584 0.0312879 -0.442354 -0.325112
internal_weight=0 281 246 221 201 178 107 71 79 59
internal_count=309 281 246 221 201 178 107 71 79 59
is_linear=0
shrinkage=0.03


Tree=83
num_leaves=11
num_cat=0
split_feature=2 8 3 4 8 0 0 2 5 5
split_gain=7572.37 6618.12 5370.18 11008.7 6777.78 4669.51 5956.89 4751.37 4627.88 4064.21
threshold=1.5123556239095111 1.3705038330481389 1.0027065148351255 0.9939497137492993 -0.21889338587640617 -0.76507973294949949 1.0000000180025095e-35 -0.79893389976290952 0.048088356968725494 -0.51809861069278595
decision_type=2 2 2 2 2 2 2 2 2 2
left_child=1 2 3 4 5 7 -7 -1 -6 -8
right_child=-2 -3 -4 -5 8 6 9 -9 -10 -11
leaf_value=-0.26066699584325154 0.5363985262675719 0.37286950586303585 0.2540203868661608 -0.79935739874839784 -0.082582645432369123 -0.72705999200160687 0.16404360151290895 0.31946677699685094 0.39519046588490403 -0.38805784535408022
leaf_weight=27 22 31 35 21 37 26 20 24 36 30
leaf_count=27 22 31 35 21 37 26 20 24 36 30
internal_value=0 -0.0411177 -0.0912489 -0.14593 -0.0773197 -0.209726 -0.358742 0.0123371 0.153031 -0.167217
internal_weight=0 287 256 221 200 127 76 51 73 50
internal_count=309 287 256 221 200 127 76 51 73 50
is_linear=0
shrinkage=0.03


Tree=84
num_leaves=12
num_cat=0
split_feature=9 3 2 6 0 0 0 2 5 0 5
split_gain=7211.02 4772.06 4673.2 4448.12 10903.7 6135.75 5016.98 3248.95 3046.65 2311.65 1888.82
threshold=0.89171222263667138 0.77349618037592671 0.3793705632857764 -0.33193550983032655 0.22772698464937713 -0.76507973294949949 1.0000000180025095e-35 -0.88957270461280802 -0.51809861069278595 0.60957572218740685 0.28509685505959009
decision_type=2 2 2 2 2 2 2 2 2 2 2
left_child=1 3 -3 4 -1 7 -7 -5 -8 -2 -10
right_child=9 2 -4 5 -6 6 8 -9 10 -11 -12
leaf_value=-0.24593335114992582 0.12728401527322572 -0.13569183272123336 0.47427398683073424 -0.21552203649824317 0.53833599521054165 -0.67652969021950993 0.095553113579750062 0.27983154553633471 -0.53803799149134879 0.51684700397344729 -0.13940600618720053
leaf_weight=39 29 20 26 22 27 31 20 26 23 26 20
leaf_count=39 29 20 26 22 27 31 20 26 23 26 20
internal_value=0 -0.067438 0.209071 -0.128589 0.0749041 -0.223171 -0.364089 0.0527945 -0.210348 0.311441 -0.352628
internal_weight=0 254 46 208 66 142 94 48 63 55 43
internal_count=309 254 46 208 66 142 94 48 63 55 43
is_linear=0
shrinkage=0.03


Tree=85
num_leaves=12
num_cat=0
split_feature=2 8 4 8 5 8 0 8 8 0 2
split_gain=6878.94 6047.93 4938.22 6826.92 2742.4 5078.29 3350.19 4596.65 4660.82 8342.46 5502.25
threshold=1.5123556239095111 1.3705038330481389 1.167516227271598 0.45532178030249587 -0.99211560687451561 -0.82275266269071601 -1.2232982179951342 -0.90988369165371152 -0.55798279456545463 1.0000000180025095e-35 -0.1644622658136172
decision_type=2 2 2 2 2 2 2 2 2 2 2
left_child=1 2 3 4 5 -1 -6 -8 -9 -10 -11
right_child=-2 -3 -4 -5 6 -7 7 8 9 10 -12
leaf_value=-0.22059001905577524 0.51124871776862568 0.35656206065608609 -0.51683061491359361 0.34629589253488707 0.19310137331485747 0.44736510640382765 -0.54417700917490064 0.20338253885507582 -0.67555488904317218 -0.35116788139343258 0.26115476549736089
leaf_weight=21 22 31 22 34 20 20 31 28 27 25 28
leaf_count=21 22 31 22 34 20 20 31 28 27 25 28
internal_value=0 -0.0391898 -0.0871129 -0.0467121 -0.113523 0.105242 -0.169935 -0.22217 -0.129742 -0.246336 -0.0276767
internal_weight=0 287 256 234 200 41 159 139 108 80 53
internal_count=309 287 256 234 200 41 159 139 108 80 53
is_linear=0
shrinkage=0.03


Tree=86
num_leaves=12
num_cat=0
split_feature=3 2 5 4 4 6 8 5 6 0 2
split_gain=6721.63 9263.88 5774.02 6879.99 9746.04 8187.32 8063.05 10130.6 6222.34 3840.42 2818.45
threshold=-1.0481228043984911 1.4670362214845618 -0.99211560687451561 0.82038320022700162 0.44432242092868851 -0.58349201728021582 -0.098445687675753582 0.048088356968725494 -0.099729502953506036 -0.61234023793428782 -0.52701748521321312
decision_type=2 2 2 2 2 2 2 2 2 2 2
left_child=9 2 -2 4 6 -5 8 -8 -4 -1 -10
right_child=1 -3 3 5 -6 -7 7 -9 10 -11 -12
leaf_value=-0.028610904897962298 0.3631461977257448 0.6085136146545409 -0.61811744136469704 0.6965510559082031 -0.76042549848556518 -0.075786036729812628 -0.15073646960407494 0.67619634687900543 -0.28042774844169616 -0.57407161694306585 0.17471617400646208
leaf_weight=21 34 25 28 21 21 30 30 24 25 26 24
leaf_count=21 34 25 28 21 21 30 30 24 25 26 24
internal_value=0 0.0592622 0.00132426 -0.0592765 -0.160442 0.242235 -0.0642609 0.216789 -0.261361 -0.330355 -0.0575001
internal_weight=0 262 237 203 152 51 131 54 77 47 49
internal_count=309 262 237 203 152 51 131 54 77 47 49
is_linear=0
shrinkage=0.03


Tree=87
num_leaves=12
num_cat=0
split_feature=9 3 3 3 8 2 5 0 4 0 0
split_gain=6331.3 4155.61 4229.41 4324.71 6203.62 4171.91 3230.05 2950.17 2834.26 3083.01 2179.89
threshold=0.89171222263667138 0.77349618037592671 0.42364882473263671 -1.0481228043984911 0.56850410269659535 0.3793705632857764 -0.77485781695788969 -0.5359704904266821 -0.13423262414563858 0.074987489634165086 0.38046647966458841
decision_type=2 2 2 2 2 2 2 2 2 2 2
left_child=1 2 3 7 6 -3 -5 -1 -8 -10 -2
right_child=10 5 -4 4 -6 -7 8 -9 9 -11 -12
leaf_value=-0.071029207025255475 0.069050074517726892 -0.13090607196092605 -0.47816940197577845 0.20004770735214494 0.47532285094938492 0.44541705702932977 -0.35550737087543188 -0.56283902406692499 -0.21439859939473013 0.27328155107796193 0.45194606646895408
leaf_weight=21 23 20 26 29 22 26 39 23 28 20 32
leaf_count=21 23 20 26 29 22 26 39 23 28 20 32
internal_value=0 -0.0631906 -0.120256 -0.069125 0.0134505 0.194842 -0.074146 -0.328112 -0.165544 -0.0111985 0.291826
internal_weight=0 254 208 182 138 46 116 44 87 48 55
internal_count=309 254 208 182 138 46 116 44 87 48 55
is_linear=0
shrinkage=0.03


Tree=88
num_leaves=12
num_cat=0
split_feature=3 2 5 5 8 9 9 9 3 2 0
split_gain=5980.32 8542.92 5464.85 10920.6 7347.97 4375.51 3681.48 8355.25 6486.27 4490.66 3440.09
threshold=-1.0481228043984911 1.4670362214845618 -0.55101645764985041 -0.31071617486327846 1.2347583215047138 -0.32744713080471632 -0.2403643198446174 0.89171222263667138 0.49603103599544746 -0.41371897915083872 -0.61234023793428782
decision_type=2 2 2 2 2 2 2 2 2 2 2
left_child=10 2 5 -4 6 -2 9 8 -8 -5 -1
right_child=1 -3 3 4 -6 -7 7 -9 -10 -11 -12
leaf_value=-0.026021924700055803 -0.014344858738683883 0.58334474483728416 -0.5600569672669683 -0.1661323366846357 0.54988481112888876 0.48574714645743367 -0.090723488330841068 0.26785657346248626 -0.78234159894611521 0.43458120844326914 -0.54227014330717227
leaf_weight=21 31 25 35 21 21 32 26 24 23 24 26
leaf_count=21 31 25 35 21 21 32 26 24 23 24 26
internal_value=0 0.0558988 0.000261036 -0.0864216 0.0328391 0.23967 -0.0591775 -0.190741 -0.415361 0.154248 -0.311606
internal_weight=0 262 237 174 139 63 118 73 49 45 47
internal_count=309 262 237 174 139 63 118 73 49 45 47
is_linear=0
shrinkage=0.03


Tree=89
num_leaves=12
num_cat=0
split_feature=6 2 6 6 3 0 3 4 3 5 5
split_gain=5730.76 5194.72 7485.17 4000.71 5944.09 4692.73 3965.24 3637.36 3635.35 1931.21 4472.57
threshold=-0.33193550983032655 0.74192578268537146 -1.1059555327530612 -0.099729502953506036 0.77349618037592671 -1.2232982179951342 -0.73446655547234019 0.29968365966010674 0.25475699833210819 0.34764076427801377 -0.36667651469028878
decision_type=2 2 2 2 2 2 2 2 2 2 2
left_child=1 2 -1 -2 5 -5 -7 -3 -4 10 -8
right_child=3 7 8 4 -6 6 9 -9 -10 -11 -12
leaf_value=-0.40891700451190649 -0.43155003183874591 0.70152689848627359 0.41708536919206379 0.24279567403793337 0.39725746097772019 -0.48668286637826397 0.12331780329994532 0.160890673995018 -0.06573621311187744 0.16116890215873717 -0.44128363127154963
leaf_weight=26 29 21 32 25 23 33 23 24 25 20 28
leaf_count=26 29 21 32 25 23 33 23 24 25 20 28
internal_value=0 0.153632 0.0129095 -0.108646 -0.0470393 -0.126255 -0.214969 0.413188 0.205322 -0.0886796 -0.186659
internal_weight=0 128 83 181 152 129 104 45 57 71 51
internal_count=309 128 83 181 152 129 104 45 57 71 51
